{"biases":[[-0.0251968,-0.0446323,-0.064495,0.0884674,0.0832832,-0.0330134,-0.0262034,0.0035105,0.48171,0.16719,-0.0852343,-0.0141486,0.230104,0.111822,0.000155668,0.187714,0.143541,-0.0124513,0.49504,0.0968607,0.10159,0.044458,0.183004,-0.0239383,-0.0100485,0.279578,0.226445,-0.0146166,-0.0717385,0.0648489,0.00188565,-0.119429,-0.0924892,-0.0196309,0.390314,0.190396,0.212473,0.0499067,-0.00581038,0.0274476,0.233014,0.321611,0.11249,0.0475701,0.147945,-0.168654,0.247584,0.10427,0.212084,-0.242704,-0.0102592,-0.0197684,0.2192,0.16716,0.126818,-0.0529461,0.0928674,0.336087,0.0937159,0.0732701,0.044043,-0.110915,0.100218,0.037938,-0.139913,0.0695683,0.290556,0.230318,0.00433078,-0.141821,0.204278,0.145201,0.181351,-0.0640849,0.00569172,-0.0256436,0.279448,-0.0476425,-0.0365433,-0.000363285,-0.181827,-0.222955,0.0826778,0.334582,0.554267,-0.0533015,0.175698,0.576957,0.102686,-0.0559656,-0.13383,0.626226,0.17842,0.380737,0.0110992,0.315824,0.0345412,-0.0997862,-0.0534434,0.27372,-0.0395278,0.185356,0.0382049,0.0696806,-0.14425,0.368314,0.0814583,0.130004,-0.0499478,0.0111332,0.126192,0.261051,-0.0107243,0.14903,0.125805,0.106568,-0.00828869,0.0423281,0.128688,0.211129,0.252135,0.0171729,0.146447,0.0607507,0.0920317,0.113388,0.259363,0.256843],[0.14521,0.00210154,0.0973364,0.0355017,0.00327627,-0.00669772,0.0968714,0.248757,0.244239,-0.061344,0.270399,0.149559,0.316406,-0.0171118,0.055633,-0.0276689,0.106608,0.018209,0.19787,0.417413,0.126586,0.273085,0.205745,0.0875373,0.0638773,0.0533286,0.099205,-0.0506515,0.346146,0.0119785,0.185304,-0.00826536,0.12147,-0.0456815,0.437612,-0.0253202,0.137625,0.366516,0.362087,0.229611,0.000103366,0.142516,0.00290185,0.0899123,0.135336,0.0928625,0.111933,0.171685,-0.13637,0.297325,0.148299,0.204876,-0.0548671,-0.0142162,0.092794,-0.0123306,0.198289,0.390439,0.052115,0.2841,0.168409,0.0485963,-0.0132453,0.192362],[0.391852,0.205889,0.0408365,-0.0379031,-0.161159,-0.439516]],"layers":[{"activation":"relu","inputs":769,"outputs":128},{"activation":"relu","inputs":128,"outputs":64},{"activation":"softmax","inputs":64,"outputs":6}],"meta":{"learning_rate":0.001},"weights":[[[-0.0597229,-0.0291383,-0.0597314,-0.0334087,-0.0299131,0.00679968,-0.0393534,0.00243173,-0.068493,-0.0734045,0.0141673,-0.0944445,-0.00849301,0.0716546,-0.0803372,0.0491647,-0.0443846,0.0644574,0.0605752,0.0599882,-0.0790203,-0.0568278,-0.0819374,-0.030166,0.0306101,0.0730365,0.0438701,0.074866,0.056152,0.0302303,0.0232083,0.0469592,0.0340825,-0.0924722,-0.0425895,-0.0840253,-0.0810587,-0.0752418,-0.0419599,0.14137,0.0621832,0.0310453,-0.00283047,-0.0639954,-0.0703861,-0.0798827,-0.0887727,-0.0788158,0.0336066,0.106372,0.00154391,0.0470143,0.0158507,0.0474517,-0.0138334,0.00179877,0.01894,-0.140243,-0.0311778,-0.0996178,-0.0376592,-0.0184748,0.0278656,-0.038374,-0.0203536,-0.00914953,0.0294177,-0.0734555,-0.0213699,-0.130313,0.0446777,0.032614,0.0658678,0.0484009,0.0496326,-0.0389931,0.0531895,-0.0657504,0.0159188,-0.0478038,-0.0795765,-0.00945835,0.00223033,0.0675504,-0.0633667,0.0631998,-0.0260405,0.106458,0.0769883,-0.0962432,0.0763276,0.0156187,-0.0295233,-0.0932704,0.0207944,0.042111,-0.0521919,0.023012,0.02898,-0.0429941,0.00954553,0.0512495,0.0159759,-0.0386368,0.0356084,-0.00438236,0.0271082,-0.0860941,-0.0572563,0.0248868,0.0110875,-0.0551407,-0.110462,0.0606226,-0.052869,0.0585541,-0.0218249,-0.0175614,0.0380955,-0.0895986,-0.0581686,0.000542849,0.0245667,-0.0358802,-0.0392064,-0.0192193,-0.0428386,0.042897,-0.0242546,0.0281124,0.0831033,-0.0929786,-0.0483929,0.0876773,0.0595385,-0.0430349,-0.0871143,-0.016848,-0.0529788,-0.00479215,0.00727916,0.0789646,-0.0174109,0.0534603,0.00170011,-0.0152603,0.0675387,-0.0257842,-0.061033,-0.063691,-0.0710086,-0.0425501,0.0290042,-0.0296883,-0.0409577,-0.0159665,0.00430467,0.0732995,0.0341774,0.0160037,0.0440725,0.031764,0.0495007,0.0422136,0.0147504,0.0350326,-0.0619869,-0.0390014,0.0164802,-0.0735246,0.0726246,0.0531568,0.0264877,0.0269758,0.169108,-0.062534,0.0261676,0.0665021,0.0284336,-0.0117429,0.0904374,-0.0447969,0.0489209,0.0756866,0.0328749,0.057915,0.00333325,0.0676255,0.0857713,-0.0878493,0.0686964,-0.0445977,-0.0134092,-0.0680057,-0.0453636,-0.0214821,-0.0126085,0.00591895,0.00862207,-0.0278059,-0.059413,0.0437709,0.00870109,-0.00597241,-0.0760504,0.0417928,0.0642322,0.0288359,0.0734547,-0.0662717,-0.014979,0.045549,-0.0185189,0.0452217,-0.0867859,0.00978649,-0.0966284,-0.0282945,0.00245053,-0.0164246,-0.0142909,0.0203346,-0.0875203,0.0262457,-0.00426797,0.0403013,-0.0278823,-0.00555111,-0.016488,0.0202893,0.0548808,0.0960998,0.0839613,-0.0736726,0.00474975,-0.00601532,-0.0204258,0.0837242,0.0295334,-0.00732671,-0.0469237,0.0050861,0.00567033,0.0353991,0.0526333,0.0464237,-0.0251582,-0.0709293,-0.0100139,0.0146509,0.0659634,-0.0289798,0.000448127,-0.0565238,-0.0569604,0.108474,0.0355475,0.0424953,0.0781256,-0.125294,0.0993327,-0.0595565,0.00145179,-0.0605322,0.0824646,0.0996104,0.0482522,0.0400013,0.0333686,0.0825797,0.0165476,0.0264954,-0.0381719,-0.0429964,0.0103454,-0.0824921,0.0713976,-0.0843857,-0.00912504,0.0394174,0.029886,-0.0348399,0.0885643,-0.0869624,-0.0229368,-0.0257797,-0.00848029,0.0710998,-0.0820429,-0.0627769,-0.0773773,0.0549786,-0.0958023,-0.0606744,-0.0434413,0.0543983,-0.05562,0.0326067,0.0501508,-0.0883331,0.0660053,0.0633122,-0.00790596,-0.0160426,0.0528199,-0.0191102,0.0777188,-0.0267698,-0.0169279,-0.047221,0.0376799,-0.0883492,-0.0409332,0.0303026,-0.100926,0.0315138,0.0960903,0.0529123,-0.0717311,-0.0301547,-0.0919276,0.109758,0.0230851,0.0356536,-0.00595454,0.0644521,0.0316471,0.0205223,-0.0230644,-0.0222361,-0.0390696,-0.0962155,-0.0491057,-0.0314617,0.0164996,-0.0442496,0.0810452,0.0756231,0.116185,0.00623654,0.0309408,0.016696,-0.018883,0.0279799,0.04522,-0.0155441,0.0141965,0.0604265,-0.131583,-0.0556459,0.00841307,-0.0202695,0.0219356,0.0780232,-0.0507675,0.0539447,-0.0901035,0.0436374,0.0840052,0.0752294,-0.0548748,-0.00811904,-0.0127752,0.0819385,-0.0829062,-0.0243456,0.0853849,-0.00715425,-0.0270992,-0.0174343,-0.0358842,0.0641197,-0.0438309,0.0050895,0.000503939,0.0602872,-0.0287061,0.0194686,0.0621023,-0.0414326,-0.0570763,-0.0493385,0.0366673,-0.00905218,0.00215691,-0.0689635,-0.0626732,0.0231171,-0.07778,-0.0288451,0.0257832,0.00920416,-0.032454,-0.0547729,0.0334948,-0.0390168,-0.0349247,0.0134713,-0.0244284,0.0225084,-0.0469962,-0.014533,0.0892772,-0.0200979,0.00273123,-0.0581695,0.0429682,0.0163253,-0.0632936,-0.0691935,0.0334281,0.0665187,0.0565143,0.0525535,0.0490946,-0.0265372,0.0246229,0.0421633,0.00578195,0.0822651,0.0234271,0.0552367,0.0801051,0.0746863,0.0559709,-0.0420766,-0.0126791,0.0400258,0.0307196,-0.0162589,-0.0440079,-0.0286292,-0.00866267,-0.0554016,0.0603345,0.0834766,0.0817753,0.0691891,0.0206808,0.0384093,0.0668663,-0.0449863,-0.0371868,0.039481,0.05199,0.023767,0.0910369,0.10037,-0.0003438,0.0262599,-0.0195754,0.0127227,-0.00866007,-0.0459357,-0.0177391,-0.0498456,0.00752174,-0.111501,-0.0289207,-0.0556191,-0.0341459,-0.0716939,0.0425461,0.0314581,0.0102189,0.127398,-0.0155747,0.0585367,0.0238682,0.0750192,0.0289688,0.0516154,0.0844848,0.055103,0.0463133,0.000207074,0.0606164,-0.0442754,0.0473187,-0.0685367,-0.0327999,-0.00513843,0.041382,0.0663025,-0.0409553,-0.0028812,-0.0694588,0.0436255,0.010991,-0.0329812,0.0470269,0.0827008,-0.0283053,0.0167464,-0.0331318,0.0751734,-0.0473477,-0.0368867,0.0687301,0.00674127,-0.0153609,0.0278962,-0.0587166,0.0551733,-0.0522728,0.0128275,-0.0730755,0.0459714,-0.0935248,-0.0572184,-0.0189947,-0.00679935,-0.0382365,0.00890048,-0.0116034,0.0760115,-0.0952003,-0.0409401,0.00287619,-0.0079236,0.058772,-0.0563692,-0.000638922,0.08084,0.00649253,0.078428,-0.0568777,0.0253039,0.0531495,0.0136153,0.0619341,0.0119942,-0.0629227,-0.0816803,-0.0705382,-0.0355457,-0.0106737,0.0746131,0.0492583,0.0450783,0.0555216,0.112201,0.0624769,-0.0602897,0.0188564,0.00594239,0.0157703,0.0213673,-0.0487005,-0.0599185,-0.0359973,-0.0442656,0.030962,0.0308489,-0.0224817,-0.0402143,-0.0664403,0.0585589,0.0763458,0.0634249,-0.017805,-0.0506952,-0.040994,-0.00415997,-0.00949342,-0.081153,0.0622372,0.028374,0.141512,-0.101807,0.0168753,-0.0955845,0.00307173,0.0111056,0.0596614,0.0900613,-0.028403,0.00335769,0.0696196,-0.0232305,0.0923799,-0.00438894,0.0566418,-0.0309341,0.040871,0.0720664,0.0890115,-0.0641944,-0.0638742,0.046975,0.019975,0.0184004,0.0572753,-0.0154104,-0.0693514,-0.0413412,0.0163482,-0.00563905,0.00793296,-0.0433494,-0.0972542,0.0343846,0.070155,-0.0858127,0.078903,0.0622957,0.0636194,-0.0416617,-0.107818,0.0787873,-0.0227904,-0.0753849,0.0551876,-0.0360378,0.000967277,-0.0510671,0.0418551,0.0943618,-0.04869,-0.0274696,-0.0604727,-0.0439276,0.0735831,-0.011371,0.0458567,0.0513963,-0.00762299,0.0504585,-0.0396284,0.0772287,0.0637645,-0.0647438,0.066396,0.0602613,-0.0448277,0.0524878,0.0248555,-0.0699494,0.039277,-0.0545268,0.0100766,-0.0192672,-0.00156588,-0.0816466,0.0383372,-0.0244643,0.0207907,-0.0353111,-0.0350797,-0.0464155,0.00351851,0.050105,0.0978025,-0.015659,0.0239107,-0.0517994,-0.0027192,0.0512011,-0.0041609,0.0681306,0.00821065,-0.0157501,-0.02878,0.0261907,0.101593,0.0368783,-0.0451197,0.0267439,-0.0606939,0.0517674,0.0771363,0.0306003,-0.0707706,0.0695268,0.0740318,-0.0106636,0.0226168,0.000383535,0.0222824,0.0724685,-0.0344675,0.038411,-0.0259091,0.0334659,0.0802788,-0.0099943,0.00361459,-0.0613503,-0.0738509,0.08851,-0.0628582,-0.0742817,-0.0360546,-0.00587545,-0.0312681,-0.028097,0.00676103,-0.0256438,0.0530623,0.00655405,0.0731198,-0.0397594,0.020801,0.0124586,0.0396188,0.0783627,0.0777438,0.0065073,0.015928,-0.0535362,-0.0829707,-0.0383236,-0.000601294,0.0648787,0.0254279,-0.0342987,-0.0041978,0.0252409,-0.0346753,0.0648044,0.0259821,0.0670164,-0.0601994,-0.0749445,-0.0026457,-0.0332527,-0.0597611,-0.0198553,0.0557926,-0.0134969,0.0659631,-0.0208085,0.0404512,-0.0388983,-0.10924,-0.0871087,-0.00962022,-0.0601687,0.076344,-0.00615199,0.0156106,-0.0577415,-0.0446182,-0.0356396,-0.0237349,-0.0594454,-0.0083307,0.00947343,0.00993712,-0.00518116,-0.0639558,-0.00478429,-0.0413409,0.0150956,-0.0489783,0.0564144,-0.0677962,0.0602014,-0.0407241,0.0845407,0.0764841,-0.0295813,-0.0457354,0.0404826,0.079506,0.0199156,-0.0436438,0.0322596,-0.0170471],[0.0815686,0.00505001,-0.0523564,-0.0498427,-0.0633992,0.0583628,-0.0744371,0.0285222,-0.00726955,0.0421109,-0.0781817,0.025224,-0.0180083,0.00839734,0.0129884,-0.136246,-0.0461047,-0.0198711,0.0529771,-0.0351648,-0.0378594,-0.0723426,-0.00811447,0.124462,-0.0117174,-0.0370406,0.0394678,-0.141923,-0.0824208,0.0446866,-0.0193277,-0.1185,0.0520963,0.00661946,-0.0501489,0.073958,0.0105241,-0.0606058,-0.0346402,-0.178176,-0.203423,0.036305,0.0735924,-0.0884227,0.0362563,0.0802775,-0.00685167,0.0584283,0.0511095,-0.0613184,-0.0169949,-0.202985,-0.177251,0.0544868,-0.0781668,-0.0296242,0.0340597,-0.0891485,0.0315829,0.0665924,-0.0733205,-0.00314366,0.00163421,-0.196771,-0.261404,-0.0293757,0.0214634,-0.0700174,0.0703851,-0.00719259,-0.0310422,0.0883482,0.0636216,0.00394808,-0.111445,-0.0323085,-0.236668,-0.0095586,0.0485515,0.0452424,-0.0984059,-0.0911016,-0.0305837,0.211621,-0.044722,-0.0224414,0.041737,-0.168957,-0.281991,0.0348745,0.0578598,-0.0562286,-0.0403831,-0.149818,0.0523846,0.232653,0.119799,-0.0346379,-0.0624846,0.0340221,-0.071652,0.0410662,0.00271917,0.016856,-0.0496169,-0.0623933,0.0311047,0.0423355,0.0947777,0.0468228,0.04939,0.103816,-0.0167654,-0.0237046,0.123295,-0.0121107,-0.0689478,0.0990338,0.0428737,-0.0218879,0.00745868,-0.0439618,-0.0262475,0.0459603,-0.0670779,0.0335329,0.0331158,0.0815204,-0.00698668,0.0861973,0.0162197,0.0642872,-0.0383543,-0.0780155,-0.0731907,0.071986,0.0147616,0.0929219,0.012389,-0.000232376,-0.00294612,-0.0450955,-0.0653605,0.0176639,-0.0369521,-0.222333,-0.000527597,0.0380792,-0.0784585,0.0580461,-0.0257101,-0.0537815,-0.0141331,-0.0754565,-0.0457531,-0.0820407,-0.0174909,-0.187727,-0.0877685,0.0665927,-0.119462,-0.126048,0.0981112,-0.045498,0.0527855,-0.0276013,-0.0170921,0.142749,0.0586662,0.0105527,-0.142475,-0.0311777,-0.199986,-0.0763312,0.0534687,-0.0659197,0.0505652,-0.0243089,-0.00767803,0.106656,-0.0113586,-0.0787829,-0.137383,-0.0641906,-0.310789,-0.0158479,0.112643,0.0645494,0.0648769,-0.111174,-0.0297636,0.17575,-0.104397,0.0377644,-0.047734,0.0475536,-0.0115109,-0.0743914,0.140598,0.0203478,-0.0579596,-0.0157974,-0.102346,0.0111182,-0.0135637,0.0278021,0.0355529,0.0142186,-0.0529352,-0.0375787,0.128791,-0.0597868,-0.0113589,-0.0893547,0.0695555,-0.0205276,0.0314061,-0.00686773,-0.0513446,-0.00810342,0.0408803,0.0345163,-0.00247002,0.0404331,-0.0670417,-0.0419969,0.016295,-0.096682,-0.000840063,-0.113409,0.00763784,0.0447086,-0.0436313,0.0423346,-0.0423937,-0.0603676,0.00753192,-0.0211391,-0.110432,-0.0478002,0.0730179,0.0253625,-0.107813,-0.0471362,0.0262869,0.0189377,0.0800743,0.00908053,0.0758072,0.0937006,-0.028277,0.0190847,-0.0174504,-0.0819813,-0.00814739,-0.000975489,-0.096574,-0.0139613,0.0736414,0.0223377,0.0480214,0.0260312,-0.0232236,0.0207961,0.086178,-0.153395,0.0201838,-0.0634136,-0.0980692,0.0499062,0.0215167,0.0807095,0.0275963,-0.0109812,0.0308519,0.153591,0.000801593,-0.1972,-0.0436655,-0.106829,-0.0498449,-0.078568,0.0592587,-0.034649,0.0754481,0.0186754,0.0456433,0.086777,0.0211675,0.0815074,0.065919,0.0229413,0.0369494,0.0440617,0.0853213,-0.0378118,0.0420176,-0.105552,0.108467,-0.000374169,-0.0042007,-0.101852,-0.0303659,0.0539404,0.0217674,-0.0372404,0.0622862,-0.0266274,-0.00313379,-0.023403,-0.0671608,0.0375403,-0.0275019,0.0641393,-0.00442051,0.0633337,0.046606,0.0996003,0.0532569,-0.0263906,-0.00658292,-0.0181853,0.0706075,-0.0527533,-0.0423593,0.0450047,-0.0306161,0.0221677,-0.0627141,0.0430304,0.0203897,-0.060183,-0.0214229,0.0696733,0.0781853,-0.0904435,0.128415,-0.0583707,0.0661993,0.0430539,-0.00354898,0.0283449,-0.0173582,-0.00088184,0.0341949,0.0604255,0.0796483,0.0501062,-0.0994278,-0.0233527,-0.0939758,0.0458361,-0.0522584,0.0792601,0.000424307,0.0276104,0.0116602,-0.0330119,0.0133379,-0.0910001,-0.0231608,-0.00856584,0.0643945,-0.135631,-0.108538,-0.0190033,0.0163019,0.055758,0.0964033,0.00251482,0.0565078,-0.136522,0.0111292,-0.0283584,-0.124532,-0.0628303,-0.0169379,-0.102365,0.16642,-0.0199613,0.000770948,0.0158954,-0.0673131,0.061295,-0.103009,-0.0254811,0.0650342,-0.0266591,-0.00897024,0.0489594,-0.00475363,0.0723488,0.0862207,-0.0794356,0.0383231,-0.116253,0.0829016,0.0588425,0.0137603,0.0280291,0.00994003,-0.0417878,-0.0385283,-0.00869392,0.0790222,0.0210138,-0.104438,-0.0884844,0.0259295,0.0317555,-0.0630806,0.0290067,-0.0173254,0.106047,-0.0782322,-0.0602453,-0.0187473,-0.0773039,0.0438308,-0.0943216,0.0217458,-0.0240737,0.000750384,0.0855619,-0.0977136,-0.0526661,-0.00771333,-0.067949,0.0868218,-0.00570418,0.0650361,-0.0933153,-0.0189244,-0.0139187,-0.0116513,-0.00124124,-0.0630526,0.014736,0.0585333,-0.0725992,-0.0246197,0.0105618,0.0738103,-0.152635,0.052471,0.0565579,0.0174416,0.0160468,0.00731832,0.0635905,-0.103629,0.00423302,-0.0448169,0.0249698,-0.0515889,0.00700945,-0.0624025,-0.0789225,0.002106,0.0517468,-0.0388534,-0.0467744,0.0231091,0.048098,0.0646823,0.00470347,-0.0319908,-0.0740521,0.00817832,-0.0231683,0.067453,-0.0125344,-0.0306539,-0.0825344,0.00213566,0.039534,0.0354026,0.0221333,0.0945595,0.000204194,0.0406174,-0.0610878,-0.0341385,-0.00878182,0.0266271,-0.05083,-0.0534507,-0.0527084,0.0584091,-0.0272397,-0.0187869,0.00229713,0.0784249,0.0206083,-0.0245162,-0.020073,-0.0110195,-0.0499863,0.0229657,0.0333525,-0.0360382,0.0433394,0.0128213,0.0478502,0.00934821,0.119791,0.00909454,0.062612,0.0090403,0.0554513,-0.124074,0.0141588,0.0205146,0.0320635,-0.0312065,-0.0241952,0.0959192,-0.0170894,-0.0665617,0.00399945,-0.0180799,0.0545285,0.0650327,-0.0641551,-0.0438711,-0.10289,-0.0655874,-0.0675872,0.0500113,0.0627215,0.0132191,0.0651577,-0.00609552,-0.00564439,-0.0340405,-0.0999793,0.0693711,-0.0702702,0.0157692,-0.0295626,-0.030275,0.000518747,0.0562742,0.0377254,-0.0162636,-0.0466197,-0.0161141,0.121156,0.0338026,-0.091927,-0.0899322,-0.00757967,0.0739046,-0.0293012,-0.0136552,0.0264796,0.01685,0.0211892,-0.0442097,-0.0209251,0.0278451,0.0497891,0.000718885,-0.0015481,-0.00381667,0.039876,0.0719772,-0.0449896,0.00506034,-0.0357013,0.0399503,0.0405871,-0.0487282,-0.0398243,0.0551082,0.00590162,0.0759711,0.0531165,-0.0549522,-0.0226262,-0.0700562,0.0762479,-0.0449416,0.0290234,0.0308409,0.00991899,-0.0572227,-0.0768552,0.0975145,0.0476597,-0.0786452,0.080936,0.0608381,-0.0177679,0.000656949,0.0149355,-0.0406665,-0.072618,-0.0193464,-0.0350307,-0.0222339,-0.0228011,-0.0300464,-0.000524376,0.0413806,0.0609727,-0.036775,0.0433809,0.0995356,0.0221618,0.0420096,0.0301385,-0.105512,-0.0651081,-0.0553549,0.153593,0.00746973,-0.00506008,0.00507692,0.028313,-0.00152082,0.0302313,-0.0275511,-0.0292061,0.0131482,-0.0115531,-0.00282398,0.0563674,0.0620666,0.0382723,-0.0284699,0.0768576,0.0521969,0.0227042,-0.0396887,-0.0777143,0.06722,-0.0297282,0.0056955,0.0516924,0.0444709,-0.0812026,0.0150049,0.0712139,-0.0133633,0.0569069,0.108701,-0.0930103,0.00586156,0.0476317,0.0379559,0.0419881,0.0335548,0.00278713,0.0903033,0.0173894,0.0811779,-0.00667211,-0.0189406,0.0651938,0.0234709,0.0555519,0.00401312,-0.022141,-0.00876566,0.0166035,0.0857792,-0.0401602,0.00762905,0.0640669,0.0608406,0.0395359,0.0813794,0.00203487,0.0556981,-0.0454081,0.0510032,-0.0328934,0.00331114,-0.0310815,0.0207455,0.099878,-0.00370163,-0.0712576,-0.0720923,-0.00602077,-0.0184275,0.00368702,0.0452679,-0.116806,0.0428256,-0.0635725,0.0763946,-0.0380579,0.0463845,-0.0213234,0.0761177,-0.0345598,-0.0495675,0.0501415,0.0175056,-0.143841,0.0139539,-0.019911,0.0598944,0.122319,0.00458014,-0.0597001,0.0415519,0.0275623,0.0954694,0.0011186,0.027648,-0.13416,-0.0618969,-0.0234618,0.090424,0.0538709,0.00598733,-0.093976,-0.0477023,-0.0487256,-0.047989,0.0423526,0.0894658,-0.0496338,-0.0362924,-0.00598909,0.0574243,0.0425814,0.0134485,-0.0110885,0.0106171,0.0653295,-0.00627874,0.106869,-0.0162673,-0.0589862,-0.029862,0.0206261,-0.0402761,-0.0260856,0.0360268,-0.0614266,-0.033377,0.0175041,-0.0114165,-0.0320178,0.0504251,-0.0948424,0.0365912,-0.0267281,-0.0135974,-0.100145,-0.0176792,-0.0638579,-0.0310542,0.000533297,0.0644454,0.124314,-0.00698913,-0.0130209,-0.0624607,-0.0409583,-0.0419524,-0.0430286,-0.00797278,-0.0815609,1.0325],[-0.0485246,0.086888,0.0101384,0.0652912,0.142228,0.00218262,-0.0798329,-0.0395589,0.00168401,0.0362816,-0.0308737,-0.00844945,0.0366327,-0.0524873,0.0657565,0.0135714,0.142559,0.00805035,-0.0465369,0.0512324,0.0346698,0.0523663,0.00722935,-0.0875635,-0.067132,0.0510293,0.0726377,0.0714609,0.0136664,-0.0954949,0.0704212,0.0495792,0.00209357,-0.0681747,-0.0403363,0.0927747,0.0284378,0.058302,0.00880036,0.00802586,0.148874,0.0756493,-0.0309632,-0.00725146,-0.0002196,0.00180907,-0.0687216,-0.0959594,-0.0217842,-0.0345255,0.00332374,0.107126,-0.0118404,-0.0649505,-0.0356931,-0.0160448,-0.0698788,0.0729899,-0.0780864,-0.0375677,0.0122384,0.0384926,0.0097678,-0.110274,-0.0614896,-0.00617565,0.0688396,-0.0512789,-0.0504403,-0.0254358,0.0207575,0.0186545,0.0212201,-0.0452868,-0.0464554,-0.0140329,-0.0794886,0.0469058,-0.0212474,-0.0052156,0.0610117,0.084126,0.0656231,-0.10428,-0.0732899,-0.0604871,0.0148821,0.00584744,-0.0955324,-0.050058,-0.0433366,0.040696,0.059597,-0.0438146,0.0338549,-0.167655,-0.0230572,0.079435,0.01252,0.00649115,0.00376109,-0.0626846,-0.00209141,-0.0592164,0.0304054,0.0290697,0.0632287,-0.00632036,0.0416143,-0.0758848,-0.0267884,0.0914341,-0.0177129,-0.0824847,0.00232597,0.0572064,-0.0829027,0.0385298,-0.0291221,-0.0157582,-0.0612451,0.114612,0.0501593,0.0620464,0.0449528,-0.05145,0.0602296,0.0324961,0.0300013,-0.0203591,-0.12521,0.0359582,-0.0643346,-0.0580756,-0.00690941,-0.00726054,0.0679879,-0.00808402,0.0190974,-0.0670559,-0.0308739,0.0398888,-0.0192332,0.0131525,0.058172,0.0118657,-0.0331316,-0.0490981,0.0538508,-0.0587538,0.0732881,0.0286739,-0.00666603,0.0598193,0.00162024,0.072227,-0.0259729,-0.0383113,-0.0638555,0.0564895,0.0527879,-0.0627507,0.059347,-0.0473642,-0.00321614,-0.00768816,0.0665195,-0.00660592,-0.0323543,0.0726943,0.0410608,0.0463573,-0.105949,-0.0569302,-0.00347085,0.0104044,0.0570274,-0.0245267,-0.0389009,-0.0512502,-0.038006,-0.00623546,0.017209,-0.068654,-0.139791,-0.0544458,0.00691088,-0.0520652,0.0495009,-0.0832775,0.011881,-0.104003,-0.0164449,-0.059611,0.0349651,0.0301164,-0.0483025,0.0257476,-0.040231,0.0490179,-0.00608881,-0.0733822,-0.00416119,0.0247113,-0.0810371,0.0296705,0.0441896,0.084345,0.0427808,-0.0210914,-0.0742436,-0.00274039,0.0396096,0.0780321,0.0440804,-0.0253412,0.0185597,0.102591,0.0612101,-0.0765201,-0.0135509,-0.0362816,0.0610955,-0.0840609,0.0345953,-0.0654382,0.061302,-0.00800445,0.0136342,0.093232,-0.0632705,0.052262,0.132882,-0.00910445,-0.029991,0.0327505,0.0173957,-0.0494903,0.0119368,0.000816051,0.0537326,0.0199657,0.0504967,0.0671656,0.0499592,0.0271132,0.0629266,0.0501959,-0.0617134,0.0215372,-0.0621874,0.0857063,-0.0283233,0.0350434,-0.0293197,0.0503109,-0.0666566,-0.000836861,0.0418763,0.0932419,-0.120069,0.0562388,-0.0575402,0.0341057,0.0244298,0.01044,-0.0422113,-0.0474212,0.0464775,0.0655821,-0.0296846,0.0261445,0.0349505,0.0902674,0.0591053,0.0835791,0.00944875,-0.0501124,-0.00634065,0.0101869,0.0605436,-0.0497678,-0.00935946,0.0537491,-0.0171633,-0.0595477,0.0350897,-0.0248566,-0.132927,-0.0615514,0.065655,0.0108012,0.00622017,0.0123127,-0.0130029,-0.0189641,0.0405044,-0.00451653,0.0285284,-0.0747773,0.0339341,-0.0310103,0.107903,0.00965787,-0.00199839,-0.0503502,0.0197214,0.0721162,0.0345526,0.0494706,-0.0764562,-0.066414,0.0823125,-0.00280437,-0.0499791,0.034441,-0.00360159,-0.0117049,-0.00842921,0.101689,-0.0474944,0.00364259,-0.115641,0.0669837,-0.0224328,-0.0658395,0.00794811,-0.0206146,-0.0504086,0.0314966,-0.0987555,0.0237132,0.0393618,-0.0096442,0.00372567,0.0167089,0.0605055,0.0697856,0.023108,0.0294105,0.0667089,-0.0326702,0.000177209,0.080836,-0.0305991,0.07135,0.0246911,0.0151147,0.125138,-0.0238089,-0.0727337,-0.0279133,-0.00438092,-0.0575741,0.055788,0.000515075,-0.0117251,-0.0512235,-0.0260943,0.0772212,-0.0119519,-0.0637471,0.0198291,0.0255979,0.0286036,0.0254689,0.0965879,-0.0617367,0.0327723,-0.0275466,-0.0448056,0.0566545,0.00885711,0.0462352,0.0241519,0.0316821,0.0130838,-0.0721196,0.0578239,-0.0633007,0.0601548,0.00558218,-0.0162532,-0.0154218,-0.0242385,-0.061549,0.0322183,-0.0373897,0.0857205,0.00885747,-0.0171067,-0.0364483,-0.0142554,-0.0290786,-0.0183063,0.0342901,-0.0340567,0.030338,0.0365614,0.0803695,0.0218302,0.00392524,-0.0536454,0.0512169,-0.0170229,0.0487182,-0.00523063,0.0457562,-0.00146293,-0.0450218,-0.0129188,-0.0544869,0.0427243,-0.00277048,-0.0433694,-0.0757573,0.0619908,-0.0927409,-0.02292,0.0382708,-0.00543128,0.029114,0.00767664,0.0180389,0.0832494,-0.0697618,0.049059,0.0894882,0.00932407,-0.0475206,-0.000291956,0.0442986,-0.0134325,0.0125126,-0.109762,-0.104843,-0.0475269,0.0249218,-0.0083863,-0.0222707,-0.00802848,0.0660678,0.0815075,0.035231,0.0951436,-0.0483318,0.072899,-0.0326392,0.0754695,-0.0122148,-0.0153374,0.0864925,0.0643065,0.0265558,0.0113216,0.0880058,0.0923221,0.0782835,-0.03277,-0.0846708,-0.00155629,-0.0229855,-0.0477688,-0.0492097,0.0340224,0.0478326,0.0465756,0.0416332,0.0306358,0.043864,-0.00010846,0.00489283,-0.0500616,-0.0466203,0.0236389,0.00794027,-0.072443,-0.0651538,0.076785,0.0537118,-0.0117173,0.0423813,-0.0284972,0.00636748,0.0702842,-0.021891,-0.065908,-0.00652066,0.0460589,0.019732,-0.00158323,0.0109132,-0.0291828,0.0452862,-0.00815836,0.0613145,0.0300397,0.0527104,-0.0416678,-0.0580938,0.033156,-0.0356862,-0.0895846,0.0175695,0.0280549,0.0333404,-0.0423272,0.0348226,0.0271503,-0.032142,0.0511892,0.0293404,-0.0171058,0.0694192,0.0460128,-0.0626141,0.00920999,0.0370407,-0.0646544,0.0411396,-0.0476507,0.0517289,0.0994592,0.0634615,0.0140716,-0.0808879,-0.026931,-0.0304525,0.00871845,0.0361876,-0.0226732,0.0302108,0.0655288,-0.0227493,-0.0239402,0.151589,-0.10468,0.00335425,-0.0659591,-0.0695432,-0.0792113,0.00794662,0.0585993,0.0339814,0.0629313,-0.0631095,0.025761,-0.0954188,0.013097,-0.0868302,0.0936607,-0.029184,-0.0334594,-0.0285239,0.0258254,0.114669,0.0571653,-0.0101319,-0.022787,0.0361931,-0.0545967,-0.0281996,0.0254831,0.0386385,-0.0537516,0.0643516,0.0254094,0.0828368,-0.0467906,0.0123718,0.114786,0.0656243,0.0301093,-0.0599301,0.0937621,-0.022577,-0.0137157,0.0364216,0.0358479,0.0911975,-0.0718485,-0.0300976,-0.0631212,0.0267045,-0.040822,0.0756405,0.0138846,-0.0601947,0.0547036,0.000434473,0.0561567,0.0656089,-0.0471663,-0.0409742,-0.0671038,0.0584298,-0.0776464,0.00410881,-0.0258357,-0.000769041,-0.0388523,0.0176491,-0.0795658,-0.109927,-0.01088,0.00844274,0.0183956,-0.00987744,-0.00898906,0.012338,-0.0565555,0.0325968,-0.0762572,-0.0724868,0.0585965,-0.0379102,-0.0817177,0.0577402,0.0838962,0.0150304,0.0381389,0.024905,0.000842237,0.0215649,0.044657,-0.0314809,0.0721669,-0.00879898,0.0778156,0.111709,0.0659126,-0.0258045,-0.0172218,0.0485756,-0.0718672,0.0344572,0.0341069,0.0392632,-0.0242603,0.0821987,0.0281017,-0.0489528,-0.00811476,0.0829964,0.00625766,-0.0343319,-0.0352589,-0.0338148,0.0254066,0.0310423,-0.0124097,-0.0764128,-0.0487346,0.151559,0.014404,-0.0746604,-0.0580035,-0.0135032,0.0333022,-0.0825234,-0.0171027,0.0358269,0.0064891,0.033845,0.058313,-0.139428,0.00540936,-0.00475877,-0.00617358,-0.011897,-0.0728963,-0.0641581,0.0327832,-0.0712959,-0.0783961,-0.0371829,-0.0189833,-0.019293,-0.0339104,0.0461384,-0.0113384,-0.0408092,-0.044544,-0.0618043,0.0692313,0.00121624,0.044103,-0.0146741,0.0316885,0.0317796,-0.0301263,-0.0773795,0.0367536,-0.0167638,-0.0439019,-0.062259,0.0736459,0.0846237,-0.0298813,-0.00285659,0.0517338,-0.00630258,-0.0563974,-0.0332719,0.00246401,0.0503713,-0.0617489,-0.0766347,0.0203212,-0.0558787,0.0261002,0.0745438,0.061749,0.127224,0.0463494,-0.0158352,0.000905616,-0.0151278,-0.0847354,0.0592015,-0.0644698,-0.0567161,-0.00852426,-0.0590098,0.0510361,0.0484715,-0.00180019,0.046806,-0.0223443,0.0437736,0.0285392,0.0597518,0.0313242,0.0659811,-0.0217392,0.0381334,0.0485328,0.0356997,-0.0539488,0.050084,0.0313828,-0.0272554,-0.0461867,-0.0605056,0.0260938,0.00809657,-0.0790997,0.0192778,-0.0383665,-0.113767,-0.021801,-0.0129185,-0.0647385,0.0513286,-0.0481269,-0.0462926,0.0705132,0.0761109,-0.0420409,0.023752,-0.0488958,-0.0180052,0.00893169,-0.0715674,0.0128957,-0.00884679,-0.10341,-0.00240534,0.020841],[0.0350243,0.0542755,0.0349816,0.0952988,-0.00614323,0.032757,0.0692323,-0.0236945,0.0588703,-0.0579228,0.0598392,-0.0188164,-0.0554957,-0.0608815,-0.0337922,0.0699158,-0.00474718,-0.0471411,-0.0705505,0.0020786,0.00347656,-0.00587559,-0.0748065,-0.108926,-0.0379947,0.0728073,-0.0569435,0.0649227,0.025773,-0.0428863,0.0657717,0.000455486,-0.0691715,-0.00956919,0.00738636,-0.00921718,0.0817268,0.0845898,0.0563247,-0.0282441,0.0914803,-0.0725823,-0.0612446,0.0508948,0.0228894,-0.0421699,-0.0160133,-0.0399831,0.0620022,0.026357,0.0550812,-0.0375179,0.103139,-0.0639598,0.00561665,0.0471001,0.0715223,-0.0500202,-0.0156767,-0.0817842,0.0752764,0.0444176,-0.0306586,-0.0927106,-0.0364756,-0.0207967,0.0120089,-0.0801284,0.0213028,0.00659814,-0.0763832,0.0418724,0.00560249,-0.0712638,0.0261898,-0.0194014,0.00719889,-0.0912371,-0.0441446,0.0120511,-0.0472991,-0.000477702,0.0631315,0.163572,-0.0730872,-0.0208238,-0.0449834,-0.0927782,-0.0272531,-0.0271684,0.0426182,0.0197634,0.0129931,-0.063848,-0.034787,-0.0349878,-0.0458515,0.0557808,0.0264983,-0.0276076,-0.0621325,0.0462096,0.0516381,-0.0450411,0.0230687,0.0308229,0.0226418,-0.0559445,-0.0274555,0.0480038,-0.00694147,0.0190737,-0.0235603,0.00254312,-0.00109034,0.0925898,-0.0309537,0.0892315,0.0171134,0.0402545,-0.013975,-0.046638,-0.0321759,0.0162078,0.0245762,0.100499,-0.0752317,0.0357648,-0.0470153,-0.0759444,-0.0205757,-0.0455091,0.0703601,-0.0682818,-0.0804815,0.0481138,0.0052346,-0.0436288,0.102556,0.0749919,0.0319688,0.0787001,0.0205892,0.0456817,-0.0249255,0.0179611,0.0781071,-0.0760405,-0.0636757,-0.0364132,-0.102232,-0.0529064,-0.0299943,-0.0516442,0.0297869,-0.0675903,0.027482,0.063724,0.0134589,0.0616476,0.0605071,-0.0863652,-0.164445,0.0717626,0.0544476,0.0364115,-0.0245142,0.104548,-0.0291854,-0.029403,0.0237225,0.0367042,0.0338643,0.0982558,-0.0528556,0.0352876,0.0567478,0.0979982,0.00318781,-0.00741848,0.00431371,-0.054804,0.0105857,0.0609864,0.0705417,0.0253728,0.115416,0.0713464,0.0409409,0.0507392,0.00375253,-0.086225,0.0441587,0.0171564,0.0414211,-0.0134694,0.0418507,-0.00931856,-0.0649525,0.050417,0.0625751,-0.0324974,-0.0724049,-0.0225022,-0.0338575,0.0314448,-0.021106,0.0601139,0.0136379,-0.0327534,-0.00496669,0.0270218,0.0474335,-0.0444031,0.0313827,-0.05746,0.0625306,-0.104864,-0.10892,-0.0502226,-0.0473884,0.111841,-0.063407,0.0966971,-0.0297243,0.013798,0.076841,-0.0635206,-0.0361994,-0.0733918,-0.0621144,0.0299799,0.0822025,-0.00905652,-0.0400623,0.0339015,0.0327518,-0.0414383,0.0695004,0.00947086,-0.0855515,0.0264909,-0.00540185,-0.0759818,0.110753,-0.0608521,-0.0655982,0.0691847,-0.00421004,0.0449429,-0.0218335,0.0324206,-0.00467609,0.0450551,-0.0237925,0.0904723,0.027695,-0.0506001,-0.0395994,-0.000867716,-0.00298061,0.080856,-0.0337848,-0.039256,-0.0269669,0.0767111,-0.0877042,0.114265,-0.0540896,0.0638213,0.0062327,0.0235733,0.00905141,-0.0497375,0.0300563,0.0794961,-0.138526,0.0416521,-0.00128103,-0.032433,0.0588533,0.0284829,0.01182,0.0397786,0.0867319,-0.0423287,0.068379,0.0202538,0.0190996,0.0836429,0.0134797,-0.00541399,-0.0713389,-0.0362134,-0.0990774,0.0137881,-0.0743466,-0.0335961,0.0675926,-0.0665444,-0.0417496,-0.0122547,-0.0706383,-0.0810361,0.0157833,0.0447029,-0.0945417,0.0333734,0.0125466,-0.0530774,0.00644637,0.0288861,-0.0274804,-0.0360065,-0.0974297,0.0718193,-0.0651101,0.0905111,-0.0112796,-0.0342352,-0.0169738,0.0655453,0.0303562,-0.0117114,-0.00975491,-0.0931398,0.0788483,-0.0508885,0.00702128,-0.000532811,0.00603022,0.0219229,-0.0205049,-0.00789672,-0.0768974,0.0596794,0.113441,0.0688471,-0.0241139,0.0628512,0.0658979,0.0477304,0.0173178,0.0521455,-0.0763685,0.0742632,-0.03215,-0.029014,-0.0527307,0.0688867,0.0666994,0.0161156,-0.0449524,-0.0229748,0.0677807,0.0542858,-0.0667871,0.0713383,-0.0475366,0.010152,-0.0929165,-0.115923,-0.00275602,-0.0494925,0.0451083,0.100771,-0.0749013,-0.0489601,0.0122934,-0.0802631,0.0814872,0.0655394,-0.0327853,-0.00535598,0.00698832,-0.0788403,0.0173706,-0.0931623,-0.0377168,0.0358618,0.0725848,-0.091746,0.077605,-0.0646651,0.0107685,-0.0693798,0.0571329,-0.00452267,0.0252772,-0.0252345,-0.108087,-0.0617333,0.0473136,-0.00616009,-0.0597868,-0.0213891,0.037853,-0.0517477,0.0668266,-0.0321533,0.0621947,0.0441196,-0.00336422,-0.0445645,-0.071916,0.0281737,0.0280208,-0.0444997,-0.0593798,-0.00748468,-0.0471299,-0.0432684,0.115666,0.0252446,0.0465799,0.0241056,-0.0375898,0.0248268,-0.0701695,-0.022163,0.0213906,-0.00424177,-0.0561627,-0.00704284,-0.010207,0.0353497,0.0243924,-0.0184853,0.0565751,0.00498721,0.0465206,0.0414875,0.0375398,-0.0202744,-0.0882331,0.0424254,0.0125966,-0.00574409,-0.0209436,0.0158612,-0.0524136,-0.062683,0.0277104,-0.0246265,-0.035668,0.104157,0.0468054,0.0194473,0.137233,0.0244152,0.00646211,0.0547588,-0.0527896,-0.0666581,0.0855931,0.107136,0.0238501,-0.00154607,-0.0233498,0.0913035,0.0741752,-0.0516496,0.0190858,0.0149223,-0.0683608,0.00693648,0.0568834,0.0650225,0.0405629,6.17972e-05,-0.00416816,0.0508112,0.00711304,-0.100378,-0.0441048,0.0166491,0.0191881,-0.066922,0.053203,-0.0741967,0.013998,-0.0208999,0.0652028,0.0743184,-0.0285576,-0.0875873,0.0215975,-0.0407978,0.0452938,-0.0556268,0.0928581,-0.0201228,0.0232079,0.054256,-0.0194408,0.0317236,0.0632593,0.017677,-0.048811,-0.0480794,0.023085,0.064678,-0.031894,-0.0056911,0.0319987,0.0751308,0.0679272,0.00356442,-0.0770556,-0.0176785,-0.0316894,0.0713445,0.000569106,0.00283734,0.0280591,0.0349118,-0.00276239,0.0466025,-0.0416606,0.0343828,0.080578,-0.0222421,0.0594888,-0.094224,0.00808868,-0.0638511,0.0598032,0.034237,0.0154675,0.126483,-0.0350664,-0.0323721,-0.0652487,0.0580316,-0.0659768,0.022519,0.0132533,-0.00262233,0.0937337,-0.0398546,-0.0128276,0.0199174,-0.0648706,0.0726727,-0.0325274,0.0436387,0.0445766,0.00883324,-0.0159995,0.0952027,0.0799131,-0.0402134,-0.136149,0.0267739,-0.00332296,-0.0381276,-0.0474963,0.0829109,-0.00246218,0.104808,0.0266897,0.0917348,0.0205573,0.0231175,0.0244011,-0.0610875,-0.0248801,0.0195632,0.0283845,-0.0526755,0.0602082,0.0509939,-0.0324185,-0.0464782,-0.0670738,0.0103506,-0.00858656,-0.00494207,-0.00978472,0.00527059,0.0144049,-0.0627792,0.071661,-0.0295315,0.00557585,0.00823533,0.0797919,0.0442984,-0.00984814,-0.0337213,0.0531691,-0.00104098,-0.0412336,-0.0102083,0.0346721,0.0467981,0.0566061,0.0298411,0.0493246,-0.0256889,0.00265633,-0.0432787,-0.0362036,0.043822,-0.080879,0.0254903,-0.00506903,0.00241405,-0.0371907,-0.0238023,0.0458485,-0.0863246,0.0756892,-0.0271452,0.0175698,-0.0622259,-0.0106325,0.00170764,-0.0215258,0.0674061,-0.0132647,0.00522569,0.0238685,-0.0774493,0.0606535,0.0320915,-0.0628615,-0.0121206,-0.0180902,-0.0751336,-0.0687082,-0.0302796,-0.0582184,-0.0738169,-0.0323134,0.017259,0.0122404,-0.0383765,-0.0663798,0.0830847,0.0540282,-0.010153,-0.0473248,0.0458221,-0.0474278,-0.00762505,-0.0660141,0.0801582,-0.064814,-0.070178,-0.0655515,-0.0277064,0.0597641,0.11202,-0.0201062,0.0662519,0.0436459,-0.0751296,-0.0288154,0.0288454,-0.0756373,0.0207435,-0.0436777,0.0265301,0.0420731,-0.0299762,0.0966792,0.0265325,-0.0385646,0.00127429,0.0577602,0.0659187,0.0475244,-0.0177832,-0.0203897,0.00736991,0.0447483,-0.0261369,0.0371215,-0.0212644,0.0357767,-0.0225238,0.0204034,-0.029308,0.0325814,0.0490622,-0.0252529,0.0780157,-0.0541691,-0.0524562,-0.0794296,-0.011859,-0.00575765,0.0236327,0.0561013,0.0313212,-0.00724733,-0.0841395,0.00813803,-0.0411409,0.126993,-0.0365737,-0.0591525,-0.0716697,0.0162618,0.0581567,-0.0484447,0.0622497,-0.0126065,-0.012682,0.0331026,0.0640055,-0.00811584,0.0525925,0.054321,0.0938611,-0.0171072,-0.0697,-0.0580226,-0.0650295,0.0657495,0.0662774,-0.0430898,-0.017811,0.073015,-0.069286,0.024369,-0.0104607,-0.00104844,0.0277211,0.10119,0.0697292,-0.0686926,0.0768104,0.0509182,0.0944242,0.0453723,-0.0511225,-0.0661925,0.00316436,-0.0614968,0.0105161,0.0173334,-0.0180614,0.0322714,-0.0122652,0.0545844,-0.0667548,0.0429111,0.0142164,0.0462194,0.0482796,-0.0683945,0.0588798,-0.0022344,-0.031213,0.0585768,-0.0437055,0.0109061,-0.0286939,-0.0716747,0.0144837,0.00803665,-0.0732617,-0.0440697,-0.0837812,-0.0613995,-0.0652486,-0.0476824],[0.0335979,0.0783007,0.0326386,-0.0287477,0.0359797,0.0228044,-0.0334727,-0.0652861,0.064052,-0.0407837,-0.0710815,-0.00342087,-0.0623867,0.00568829,0.0926296,0.0714043,0.00395569,-0.0425053,-0.0275834,-0.0450004,-0.0321132,0.0275998,-0.0545851,-0.0280127,0.00298008,-0.0793515,-0.0834871,-0.0356068,-0.00844027,-0.0600374,-0.0294701,0.0361,0.0493488,0.0117502,-0.0765472,-0.0206967,0.02558,-0.0652341,-0.0820286,-0.0979227,-0.0819577,-0.0395191,-0.0707942,0.0739144,-0.0373817,-0.0501436,-0.0782465,-0.0103972,-0.0342305,0.000304995,0.0611105,-0.0116062,-0.0123593,0.0641642,-0.0219026,-0.0334998,0.0551872,-0.0895456,-0.120308,0.167643,0.0531124,-0.00432076,-0.00656676,-0.106919,0.0208702,-0.030459,-0.0511123,-0.00957185,0.0161693,0.0370182,0.0251156,-0.0330766,0.00554014,-0.0378053,-0.0554431,-0.0859509,-0.00179329,0.07072,-0.0302588,-0.0176686,-0.0590143,-0.0218107,-0.0518355,0.0968498,-0.0416023,0.00211932,0.00801578,0.0487448,0.0274026,0.0677907,-0.0177811,-0.00180587,0.0708587,-0.150834,0.03822,-0.189583,-0.0652742,-0.0596296,0.0547344,0.0290884,0.0323803,0.0681352,0.0117939,-0.0273924,0.00617566,-0.0210448,-0.0518025,0.0423941,0.0513738,0.0568106,-0.0268504,-0.010532,0.122219,-0.0186475,0.0216399,0.038967,0.0905954,0.0685784,0.0114193,-0.0899022,-0.0364385,0.0259748,0.0651654,0.0267129,0.0307217,-0.0768103,-0.0297501,0.0149075,-0.00242804,0.03022,-0.0398366,-0.0926189,-0.013945,-0.0193592,-0.0547539,0.0228141,-0.0844959,-0.00466641,0.102496,0.0573502,0.096941,-0.032552,-0.0242668,-0.0616714,-0.0524476,-0.105811,0.0398836,-0.0278847,-0.051633,0.0061302,0.0740718,-0.0387456,-0.0177381,-0.0352151,-0.0528503,-0.00626616,-0.126832,-0.0715499,-0.0406951,-0.00303763,0.00132639,-0.00807288,-0.0555311,-0.0792028,0.0355896,0.0899698,0.0378748,-0.0675742,0.110122,-0.0483037,-0.0122848,-0.104837,0.0726372,0.0736845,0.0383418,0.0242274,0.0453201,-0.0398723,-0.108082,-0.0257851,-0.0813778,0.0480759,-0.0365865,0.108317,-0.10163,0.0448236,-0.0583032,-0.0272743,-0.059773,-0.0955316,-0.0545258,-0.0374089,-0.0822711,0.0830359,-0.0561695,-0.076226,0.0297343,0.0327985,-0.020943,-0.0767453,0.00319873,0.00236611,-0.0909315,-0.00245999,0.00389583,-0.0405585,-0.0186038,-0.0164411,0.0260729,0.0549548,0.0881405,-0.000493037,-0.136782,0.0166978,0.0104665,-0.0605529,0.0126982,0.0381123,0.0460658,0.0461868,-0.0382727,0.00284132,0.0436629,0.0318241,0.100333,-0.00742813,-0.0556969,-0.0575014,-0.0481365,-0.0499913,0.0376723,-0.0196348,0.0119818,0.0771836,-0.0216676,-0.0854849,0.0408696,-0.0489574,-0.0395947,0.0220281,0.0870386,-0.0505623,-0.0872198,-0.0594701,-0.0797649,-0.0798531,0.0244646,-0.0680447,0.0392385,-0.0698517,0.00965626,-0.0385927,-0.063693,-0.106487,-0.00938191,-0.0604412,0.0852248,-0.0122463,-0.0265058,-0.0224056,0.00519726,0.0110767,-0.0310388,0.0759687,-0.00664883,-0.0470038,-0.0378393,-0.0836489,-0.0113682,-0.054593,0.0602544,0.000308638,0.0124806,0.0412067,-0.00662843,-0.0093151,-0.102215,-0.0534836,0.0662324,0.013422,0.0554511,-0.0350572,-0.0219113,0.0094781,0.0470271,-0.0732111,-0.0900277,-0.0101935,-0.07341,0.0998245,-0.0621763,0.0261186,-0.0332036,0.0114668,0.0688676,0.00460333,-0.0063855,-0.0739266,-0.0756411,0.10787,0.1008,-0.0390531,-0.0723134,0.0613973,0.0498225,-0.00664478,0.141311,-0.0133082,-0.024852,0.0412823,0.0465784,0.0133479,0.0792236,0.0646741,-0.00196142,-0.00112893,-0.0262386,0.00937398,0.0920229,-0.0083294,0.0306464,-0.0996199,-0.0166661,0.00165596,0.0392677,0.0781946,-0.108308,-0.0733666,-0.101688,0.0908927,0.123653,0.0842546,-0.0723725,-0.0663386,-0.0778129,0.0375758,0.0895989,0.0782338,0.0445773,-0.0290318,-0.0185172,-0.102218,-0.088094,-0.0765485,0.0625943,0.065617,-0.0818422,-0.0175185,-0.0349634,0.0229984,0.0593426,-0.0909889,-0.0686359,0.0746304,-0.00264412,0.0258156,0.0671832,-0.0575614,0.0507689,0.0239815,-0.0874245,-0.0639448,-0.0703971,-0.0517125,-0.0960614,-0.10272,-0.0428218,0.0377738,-0.0532242,-0.0128355,-0.0575663,0.0556666,0.00841876,0.000710724,-0.0817441,0.0757996,-0.0626083,-0.0526389,0.0359344,0.0459005,-0.0112094,-0.0080884,-0.0475575,-0.0859915,0.0595986,0.0495055,-0.064801,0.0684969,-0.108434,0.0725884,-0.0380867,-0.0327688,-0.0725192,0.0297279,0.0287901,-0.0487328,0.0753056,-0.0634104,0.0123311,-0.0182601,-0.0427674,0.0122105,0.066449,-0.00853097,0.0377635,-0.0220093,-0.00163755,0.00926951,-0.0140916,0.0400567,0.0611595,0.043143,0.0481194,-0.067445,-0.0914929,-0.0431317,-0.00244078,0.00663312,-0.0422841,-0.0565979,0.0355636,-0.015741,-0.0300042,0.0331041,0.0236568,-0.0208952,-0.0374749,0.0260833,-0.0853233,-0.0667515,-0.102055,0.0409491,0.0190875,0.00646427,-0.0807045,-0.0607047,0.0158615,0.0221359,-0.108124,-0.0397798,0.0142418,-0.0698742,-0.035562,0.0267385,0.12818,-0.0442978,-0.0811513,0.025252,-0.0437339,-0.0244515,0.0203136,0.0318675,-0.0173508,-0.0174674,-0.0760482,0.0623043,0.200165,0.0515219,0.0118214,0.00110055,0.000815802,-0.0332452,0.0596484,0.0637671,-0.0791488,-0.0610651,-0.00170993,0.0745158,-0.0574657,-0.00872538,-0.0771401,0.0380936,-0.0632651,0.0805978,-0.089,-0.0887195,-0.053088,-0.0582201,0.0200159,0.0830696,-0.0904537,-0.0144983,-0.0664613,-0.0412786,-0.0617518,-0.055682,0.0277105,-0.0685989,-0.00378706,-0.0538115,-0.0557599,-0.0390083,0.0516709,-0.0512089,0.00966251,0.00174855,-0.0263902,0.0542418,-0.0508515,-0.0442039,0.0452478,0.0140483,-0.00669096,-0.00951935,0.0547095,0.0223668,0.0270293,0.0611727,0.0446532,-0.0148517,-0.00715238,0.013382,-0.0327055,-0.0355124,-0.0385933,-0.093422,0.0395475,0.012602,0.0666566,0.0880595,0.0507159,0.0110273,-0.0154178,-0.107711,-0.0374584,-0.0284007,-0.0299237,0.0359911,0.0230291,0.0803566,-0.0288675,-0.0212887,-0.0034406,-0.0242417,-0.0481345,0.0702307,0.0228733,-0.0235017,-0.0409298,0.032797,0.0154545,-0.0374844,0.0246123,0.0449443,0.0212897,-0.096452,0.0510033,0.0414429,-0.113054,-0.0893424,-0.106786,-0.0864808,-0.0968844,-0.0121075,-0.0719101,-0.0723862,-0.0182148,0.100635,0.0383653,-0.00401824,-0.0282807,-0.11689,-0.0209691,0.0489285,0.0563464,0.00998311,-0.0277235,-0.0441327,-0.0404243,-0.0108124,-0.0578435,-0.0937717,-0.00573009,-0.0517388,0.0267312,-0.00237837,0.047832,-0.0041213,-0.0479313,-0.043311,0.0982175,0.0608622,0.0136301,0.0383909,0.0267017,0.0771396,0.0284698,0.0449429,0.0854585,0.00501773,-0.0306365,-0.0497043,0.0685994,0.0343165,-0.068398,0.0110537,-0.0258302,-0.0494761,0.0253263,-0.0194087,-0.0899791,-0.0121237,-0.0471255,0.0293786,-0.101377,0.0120053,0.0868759,0.00209459,-0.00737721,-0.0946783,-0.0383016,0.0159308,0.0822143,0.0478432,-0.0711405,0.0868572,-0.0548117,0.00384057,0.00290207,-0.0191072,-0.0633249,0.0119795,-0.0839566,-0.0430682,0.0522865,-0.0482244,-0.0450021,0.0116819,-0.0364218,-0.015217,-0.0759704,-0.0630274,0.0289655,0.045842,0.00943774,-0.000366514,-0.0340853,0.0239072,-0.025521,0.00657186,-0.0517829,0.0637738,-0.0817127,0.0166441,-0.0513856,0.0246229,0.00951309,-0.0282065,0.0323361,-0.0573522,0.0784698,0.0109856,0.00720433,-0.0448261,-0.00446381,-0.0867546,-0.0440902,-0.106249,0.00386843,0.0122632,0.145329,0.0356225,-0.0343297,-0.00382576,0.0171175,-0.0237422,-0.0552089,-0.0115478,0.0565896,-0.0879628,-0.0348576,-0.0542744,-0.0626396,0.0286782,-0.0477289,0.0194061,-0.0763078,0.00108196,0.0408893,-0.0717269,0.0305714,-0.020314,-0.118077,0.023533,0.0775201,-0.0220324,0.0300157,0.0992809,0.0120551,0.00111716,-0.045065,0.0587984,-0.0196886,0.097635,-0.0981747,0.0268397,-0.0200739,0.0423432,0.0564016,0.0170085,0.0606984,0.0344413,0.0236805,-0.0270055,0.00168005,-0.0062524,-0.115084,0.0767832,-0.0802505,-0.0734207,0.0578277,-0.0656135,-0.0184921,-0.0267506,0.0486437,0.0543697,0.0436814,-0.0326729,0.00438732,-0.0354821,-0.00076051,0.0470138,0.0572955,-0.00987385,-0.0735659,0.0455536,0.0799691,-0.04413,-0.0595156,-0.0524733,-0.139597,0.0567111,0.0239681,0.0695972,0.00527628,0.091731,0.0754265,-0.0207435,0.0310654,0.0304838,0.0673731,-0.144608,-0.0351191,-0.0049583,0.0310434,0.0538705,-0.0481667,-0.0323026,-0.0887835,-0.102855,0.00293858,0.0168611,0.0640752,-0.124743,-0.105491,0.0659431,0.0118287,0.0114587,0.000326149,0.0351955,-0.0542166,0.100669,-0.0330701,0.0368582,0.0512394,0.0627275,-0.0414905,-0.0779562,0.0204424],[0.0770616,-0.00404372,-0.0480762,0.0662516,0.162728,-0.0758459,-0.0232623,-0.0612759,-0.0599201,-0.0544767,-0.0541787,0.094493,-0.0548264,0.029256,-0.0280144,0.072513,0.00749357,0.0391316,0.027699,-0.102705,-0.0937965,-0.0544048,-0.00773326,0.106898,-0.0588427,-0.0772773,0.0508556,0.0964152,0.111679,0.0870609,0.000380998,-0.0616719,-0.00744973,-0.0640447,-0.0457945,0.110942,0.0162838,-0.068963,0.0872899,0.0798384,0.0776275,-0.0311166,-0.0474722,-0.0236531,-0.044026,0.0314441,0.0939049,0.172482,0.0483428,-0.0469858,-0.0579783,-0.00159652,0.000660188,0.0450035,0.00891163,-0.0981342,-0.0286441,0.0668996,0.0527763,0.188639,-0.0805083,0.0143848,-0.0170414,0.0381589,-0.0916817,0.0263581,0.0204333,0.0255204,0.00102782,-0.0802772,0.0885251,0.0187907,0.0700297,-0.0055506,0.0297651,0.044375,0.0288391,-0.0750855,0.00909195,0.051518,-0.0348164,-0.0301352,0.0354875,-0.024405,-0.0486224,-0.0393073,-0.00309485,-0.113232,-0.00921209,0.0747948,0.0175703,-0.0603411,0.0203599,0.0718113,-0.041145,-0.0742657,0.0746661,-0.0368356,0.0161316,0.0435289,0.0567711,0.0352046,-0.00262211,-0.0632791,-0.0794177,-0.0194258,-0.00600278,0.0760419,0.0652164,0.0882868,0.10337,0.0963289,0.217164,-0.0224355,-0.0301876,-0.0471464,-0.00849808,-0.056211,-0.0127175,-0.0760573,0.0418869,0.072877,0.0763942,0.10683,0.181665,-0.0242126,0.0497907,0.045421,0.0553942,-0.0802566,-0.0199903,-0.037185,0.0327713,0.110959,0.0922791,0.157692,0.170361,-0.0674481,-0.041144,-0.0244398,-0.0187176,-0.0181406,-0.0495007,-0.0339551,0.0859333,-0.113611,0.0689829,0.0382452,0.0595981,0.0189087,0.0688094,0.0463469,-0.109162,-0.0364594,-0.114205,0.0685889,-0.0508977,-0.12271,0.0535017,-0.0667972,0.128554,0.042913,-0.00395011,-0.024445,-0.0534679,0.0331903,-0.0330054,0.0155809,-0.014259,0.036706,-0.0160919,-0.0343016,0.0426084,0.0490464,-0.0348082,-0.0740249,-0.0652791,0.082567,-0.0654142,-0.0696748,0.00683557,-0.0172948,-0.0357079,0.0204251,-0.0894016,-0.047291,-0.0726091,-0.0770705,0.0659503,-0.0512804,0.0602173,0.00567161,0.040381,-0.0413608,-0.029386,0.0865271,-0.0537246,-0.0103599,-0.0373026,-0.00421221,-0.0144468,0.00913651,0.0279164,0.058626,-0.0380556,0.104135,0.0191682,0.00669643,-0.0539088,0.0922976,0.00436885,-0.108762,0.0521108,0.0287123,-0.0408175,-0.0268209,0.0853745,0.116176,0.108419,0.127011,-0.0441522,0.0654004,0.00987946,0.0313242,-0.0184783,0.0358461,0.0152917,0.0110005,0.0946926,0.0948268,0.0256864,-0.00798225,-0.0212345,0.0239458,-0.0618796,0.0405134,0.103804,-0.0394458,-0.00645385,0.103802,-0.0107848,0.0353473,0.0571597,-0.0165777,-0.0415624,0.0306154,-0.0390131,0.0181571,0.0243897,0.0612272,0.0527258,-0.0572121,-0.0279224,0.0553269,-0.0414133,0.0744551,0.032609,-0.0143413,-0.0209441,0.0869154,0.0438127,0.0967865,0.075238,-0.0645282,-0.103923,0.0950051,0.0415341,-0.0642554,0.10187,-0.082397,-0.0236216,0.0671704,0.00967952,0.0359609,-0.00994578,-0.038347,0.000967427,-0.00141518,-0.012046,-0.0304196,-0.0113729,0.0639778,0.0205901,-0.0703409,-0.0466591,0.0469128,0.024658,0.0305145,0.0249071,0.0551386,-0.0442286,-0.0320965,-0.0979462,-0.00342014,-0.00912227,-0.028624,0.100795,0.024796,0.0753574,-0.0744003,0.0438901,0.0669141,-0.0234134,0.0261861,0.0424327,-0.0270961,-0.0259659,0.0451719,0.0260942,-0.0376961,0.0760158,-0.0640524,-0.00583408,0.115403,0.0242316,0.0668352,0.0255316,-0.018421,0.0316745,-0.0245307,0.0412807,0.000354026,-0.0486176,0.0424501,-0.040438,0.0884111,-0.0426351,0.0417849,0.0481689,0.0465414,-0.0149458,0.0257828,0.0281013,0.0856016,0.0105374,-0.0975431,0.0145745,0.133065,0.0397704,-0.013126,-0.114705,0.0234606,0.0302289,-0.0223205,0.0163379,0.0696489,0.00666884,-0.0789741,-0.0291405,0.0480381,-0.0742481,-0.0271765,0.0951298,-0.00795229,0.0492245,0.0634145,-0.0819982,0.0052948,-0.0768259,0.0632704,-0.0563731,-0.0178376,0.0373011,0.0343683,-0.0696945,0.0298142,0.0747194,0.0984725,0.0749331,-0.0131061,-0.0237687,-0.0788709,-0.0538286,-0.0817295,-0.0276872,0.0875719,-0.0887077,0.0270243,0.00403744,-0.0240823,0.049578,-0.0592708,0.0438403,-0.0783437,0.0748006,-0.0085979,0.00267204,0.0370263,0.10274,0.0520093,0.0554466,-0.0478151,0.0039043,-0.0310514,-0.00994178,0.0482088,0.0132624,-0.0114936,0.0211609,-0.0363582,-0.00238538,-0.00702997,-0.00823388,-0.0109383,0.0639932,0.0558703,-0.0712959,-0.00596403,0.010928,-0.0351452,0.0108748,-0.00374706,-0.0243214,-0.0278329,-0.0686566,0.0485714,0.0240793,-0.0693785,-0.0977786,0.0425055,-0.00780114,0.0533456,0.0496731,-0.0122105,-0.0446137,0.0845471,-0.0179292,0.127983,0.0458014,-0.0997996,0.0338483,0.0252419,-0.00801055,0.0658611,0.0496408,-0.0309664,0.0142039,-0.0252589,0.0259765,0.0145856,-0.0503901,-0.00320819,0.120131,-0.0603786,0.0112192,0.0363137,-0.0265681,0.00343288,0.0355698,0.0932983,-0.0590394,-0.0112508,-0.0305958,0.030188,-0.0128183,-0.0757649,-0.00445647,-0.00232586,-0.0297895,0.0512748,0.0990761,-0.0430712,0.058563,0.0631843,-0.0755184,-0.0579029,0.0218762,-0.0455616,-0.0571207,-0.00546974,-0.0540382,0.105744,-0.0453005,0.00238731,-0.0371216,-0.0400403,0.0584402,0.00327399,0.134523,0.0555219,0.029309,0.0458051,0.010877,0.0548056,0.0355935,-0.038763,-0.056676,-0.0290502,0.0704109,-0.0906075,-0.0774492,0.0514078,0.0207579,-0.0224094,-0.0422197,0.023323,-0.0283636,-0.00659795,0.0101666,-0.0961162,-0.0331736,0.0378174,0.0289165,-0.061771,0.0210062,-0.0811671,-0.00701052,-0.0099343,-0.00773224,0.0220135,0.0332145,0.053159,-0.0580682,0.0737591,-0.00100184,-0.0634688,-0.0451775,-0.0361443,-0.0519904,-0.00166617,-0.0982209,-0.0519238,0.0331948,-0.0403191,0.0129953,-0.0360217,0.0543074,-0.0464132,-0.0404953,-0.0363732,0.03258,0.0068914,-0.038066,0.0561482,0.021298,-0.0448961,-0.0395096,0.04864,0.0107549,-0.0589931,-0.0736795,-0.0625434,-0.0353668,0.0510862,-0.0212385,0.123415,-0.00955661,-0.0636199,-0.0445347,0.0846373,-0.0151769,-0.120348,0.0147567,-0.031872,0.078066,0.0567041,-0.0153446,-0.015148,0.0492534,0.0292869,-0.0211233,0.0763657,-0.0388344,-0.00333726,-0.0198013,-0.0515782,0.0967299,0.0331376,0.0686617,-0.0133955,0.0281024,0.0393604,-0.072113,-0.00769507,0.000977006,-0.0796347,0.0121255,-0.0609907,0.0647132,0.0430715,0.10077,-0.12424,0.0254703,-0.0433138,-0.0426815,0.0184882,0.0102004,-0.0190564,0.00504689,0.081401,0.028798,0.0043382,-0.0157,-0.0673211,-0.0860901,-0.0540269,0.0606145,-0.00308055,-0.0345999,-0.0977143,-0.00586245,0.130828,0.06837,0.0574151,0.0562189,0.0353126,-0.107914,-0.00332579,-0.064666,0.000717069,-0.0049925,-0.0916692,-0.00433603,0.0356883,-0.122073,0.0407543,0.0366144,0.00427639,-0.0812947,-0.00714463,0.064311,0.0252535,0.0433387,0.024491,0.0418973,0.0423248,-0.0490252,-0.0547306,0.0102661,-0.0624088,0.00385297,0.0331472,-0.0177078,-0.0161543,-0.0125571,-0.00942271,-0.0504649,0.0728533,-0.0646537,0.0887853,0.0554582,0.0257344,-0.0744235,-0.0376873,-0.0669928,0.0675234,-0.00879483,-0.0807109,0.0665971,0.0305042,0.00506638,-0.0620632,0.142747,-0.0120674,-0.0637879,-0.0169957,-0.0577859,0.0118782,-0.0899071,0.00172117,0.0102574,-0.0315703,4.70794e-05,0.094435,0.031656,-0.0586791,0.0196665,-0.0323389,-0.0137728,-0.0495682,-0.0546936,-0.0204953,0.00720357,-0.0150285,-0.0155355,0.0356292,-0.0280009,-0.0411102,0.0206644,0.00200157,0.0281867,-0.0603216,-0.0456748,0.0286152,-0.0316522,-0.0155443,0.0266203,0.0499545,0.102626,-0.153207,0.0642558,0.00697472,-0.043623,-0.0265636,-0.0234413,0.0834308,0.0485351,0.0076541,-0.0509236,0.0169786,0.0625915,-0.0538728,-0.0601001,-0.00125066,0.00638128,0.0350837,-0.0716861,0.0416376,-0.0414838,0.00171425,0.0636149,-0.00168924,0.00342615,-0.00491999,0.0743549,0.0297179,0.052205,-0.128298,0.0586526,0.0456976,0.0144561,0.0572982,0.00101575,-0.0612052,0.00751151,-0.0116246,-0.0575304,0.0485651,0.0495702,-0.0785197,-0.0147056,0.0807297,-0.0227796,-0.0609839,0.0697266,-0.0622854,-0.0617938,-0.00833387,-0.0149003,0.106746,0.0357209,0.0660026,0.0642266,-0.0210226,0.00128957,-0.0537602,0.000985818,-0.134562,0.0077701,-0.126358,0.0643037,0.013825,-0.00581836,0.00962682,0.107928,0.0222833,-0.0733977,0.0520685,-0.031516,0.00417499,0.11269,-0.0294031,0.0645754,-0.0246837,-6.95607e-05,-0.0178696,0.000889497,-0.0211857,0.0327072],[0.0411619,-0.0239278,-0.0633746,-0.0420582,0.00540521,-0.0497928,0.0454976,0.0596562,-0.0670409,0.0568987,0.0615163,-0.0413213,0.0794493,0.00270714,0.00787815,-0.0223319,-0.0116518,-0.0665874,-0.0195994,-0.0191932,-0.0566085,-0.0296349,0.000330437,0.0180399,0.00339918,0.0438941,-0.0730694,0.0327707,-0.00672903,-0.0631191,0.0560384,0.0700668,-0.00504051,-0.0158648,-0.0573277,0.0633939,0.0370248,0.0337696,-0.0017621,0.0155629,-0.0061471,0.0090567,-0.0645043,-0.0796229,0.00387611,-0.0447883,0.00182687,-0.0508059,-0.011598,-0.0520454,0.000308215,-0.0129408,-0.0479185,0.0898124,-0.0287055,-0.00915963,-0.0551259,-0.138465,-0.0658519,0.0970991,0.0262997,-0.0592387,-0.0126127,-0.0451203,-0.0658824,0.0070579,0.0571045,-0.0726845,0.0521448,-0.0769116,-0.0234716,-0.0327082,0.0666961,0.0667572,0.0530428,-0.00590444,0.0309181,0.0377201,-0.0614053,0.103923,-0.056278,0.0163318,0.0275793,0.0463141,-0.0568919,0.0168848,-0.01505,0.0475529,-0.0297389,0.0389875,0.0561917,-0.0616974,0.0821877,-0.064836,0.0610537,0.030974,0.0331902,-0.0548737,-0.00710433,0.0136485,0.0382165,0.0289733,-0.0659587,-0.024515,0.105039,0.0383616,-0.0184431,0.0473245,-0.0227063,-0.0521412,0.00979327,-0.0226346,0.068857,0.0355308,-0.0461465,-0.0854831,-0.0245273,-0.0289419,-0.0651114,0.0394831,-0.0381244,-0.0403238,-0.00366979,-0.00322616,-0.0728546,-0.0192529,-0.00509855,0.0488297,-0.0144845,-0.00480209,0.0240571,-0.0285089,0.0737263,-0.033845,0.0489722,0.0747687,0.0958796,-0.00680735,0.0334118,-0.0714921,-0.0459394,0.0977621,-0.0552896,0.00430355,0.0327226,-0.0508423,-0.0469499,-0.0297591,-0.0713548,0.0770574,0.0683162,-0.0214514,-0.0756593,-0.0060119,0.0486173,0.0664698,0.0596628,0.0725661,0.000816156,0.0124469,0.0475097,-0.0273991,0.0385543,0.0417741,0.0283431,0.112492,-0.0344492,0.0664686,0.0489059,0.00219296,0.0744765,-0.053647,-0.0481428,-0.0764308,0.0709724,-0.0345159,0.125015,0.00740847,0.0708835,0.0747902,-0.0191204,-0.04825,0.0100035,-0.00590413,-0.0197114,0.0710243,0.00613238,0.0424851,-0.0260337,-0.0441955,-0.00130531,0.0101327,0.0468938,-0.0321353,-0.0202671,-0.0517754,-0.0544287,-0.0106249,-0.0406039,-0.06432,-0.0154214,0.0783089,-0.021332,-0.073733,0.0415292,-0.0177764,-0.0523851,-0.0892344,0.00320566,0.046774,-0.111364,0.0266416,-0.0598272,0.0682865,-0.0547967,-0.0174507,0.0434266,0.0286828,-0.0355334,-0.00431004,-0.0409382,0.0420297,-0.035274,0.0327676,0.0897656,0.056128,0.0703684,-0.0983401,-0.0549834,-0.0630646,0.0562575,-0.0861469,0.0110068,-0.0712744,0.0551624,0.0496605,0.121538,0.0446179,0.128929,-0.00718943,0.0794943,0.00808655,0.00680792,-0.0502289,-0.0709456,-0.064912,0.0549914,-0.0413718,-0.0210583,0.0114124,-0.00896481,0.0146926,0.0173888,0.0695548,-0.00758442,-0.060295,-0.0693642,0.0352759,0.0383401,0.105474,0.114124,-0.0111871,0.0152011,-0.0203985,-0.0302311,-0.0119454,0.0507783,0.0170675,0.0402293,0.0859366,0.0963618,-0.00804576,0.00980944,0.097881,-0.0760567,0.0476363,-0.0425501,0.0566937,-0.0896436,-0.0502858,-0.0167083,-0.0444298,0.0470837,0.0346521,0.0368513,-0.066266,-0.0148083,-0.0826067,-0.047952,-0.0052171,-0.0509591,-0.0511497,-0.021632,0.0741756,0.047392,0.00739444,0.0690414,-0.00184799,-0.0610468,-0.00238897,0.0237035,-0.0210976,0.0251073,0.0354493,-0.0644546,-0.00253841,-0.0331852,-0.067926,0.062421,-0.0526822,-0.0839709,0.0301878,0.00174827,-0.0198113,-0.0442123,0.00779723,-0.0847597,-0.0297881,0.0226745,0.0242385,0.0850315,0.00832759,-0.0643232,-0.051294,-0.0558205,-0.0412176,-0.0409515,-0.0342615,-0.0903255,0.0366772,-0.0365167,-0.000396917,0.0288306,0.0666931,0.0236004,-0.0151178,0.0289938,-0.0402194,-0.0099375,0.0274136,0.0404423,0.113573,0.00238228,0.072618,0.00458814,0.0440839,0.0157425,-0.0116299,0.0325894,0.00615904,0.0329237,-0.0794067,-0.0142435,-0.0102868,0.0709105,0.097736,0.0390156,0.0141385,0.0435983,0.0199466,0.0590035,-0.0442922,-0.00226354,-0.0102312,-0.00819886,0.118168,0.0862925,-0.0795434,-0.0602043,0.143766,0.106413,0.0510191,0.0338416,-0.0746174,0.0729837,0.059161,0.0121893,0.057504,0.0953938,-0.0292013,0.0913993,-0.0363234,0.0467886,0.00843384,0.00778831,0.027555,-0.0360566,0.0233932,-0.0071968,-0.0167351,0.066156,-0.00947585,-0.017781,0.0294694,0.0674261,-0.0420969,0.00311499,0.0588556,0.0271867,-0.0100106,-0.0771679,-0.0796619,0.0084645,0.0772192,0.035404,0.0691268,-0.00359079,0.00747403,-0.0231641,0.0510039,-0.0188015,-0.0906587,-0.0669948,-0.047744,-0.00375266,0.0579608,-0.0100781,-0.0491062,-0.0919562,-0.00346892,-0.0554161,-0.0279532,0.0820681,0.0488261,-0.0614447,-0.0876282,0.0635111,0.075161,0.0155106,0.0649322,0.105611,0.0157625,-0.0140814,-0.0800627,0.0815701,0.0540057,-0.0242235,-0.0150418,-0.0353127,0.0590842,0.10205,0.00412302,0.0232151,0.0782199,-0.0508348,-0.0290344,-0.0747087,0.0414899,-0.097069,0.0739491,-0.0123068,-0.0422109,0.0247491,0.0343227,0.0874796,0.051369,-0.046609,-0.057421,0.0212649,-0.0782435,-0.0846942,0.0411646,-0.0438421,0.0705611,-0.0344911,-0.00859266,0.055134,0.0226644,-0.0223034,-0.0690195,-0.0380295,-0.040772,-0.00393405,0.0632261,0.0176419,-0.0642356,-0.0907385,0.0702659,0.0530616,0.0109513,-0.0133577,0.0583142,0.0378544,-0.0208742,0.045107,-0.067791,-0.0299891,0.057938,-0.0337374,0.0695368,-0.0767674,0.060247,0.0324064,0.0433642,-0.112139,-0.0558335,0.0282723,0.0628845,0.0995815,0.0702869,-0.0263286,-0.0327579,-0.0691136,0.0132575,-0.00271983,-0.0591578,-0.0587271,0.0263942,-0.116195,0.0252917,0.0679108,-0.0420584,0.013095,-0.0205149,-0.0329959,-0.0251279,0.0372607,0.000365812,0.0512484,-0.0205911,-0.119186,-0.00564722,0.0490184,0.0191724,0.053254,-0.0162601,0.0339269,-0.0635789,0.0425908,-0.0613913,-0.00635337,0.112377,0.0249536,0.0227855,-0.0353264,0.0384327,-0.0596473,-0.017404,-0.0649665,-0.0602442,0.0479601,0.0357671,-0.0102517,0.0621107,-0.00529345,-0.0102874,0.0327019,-0.0549154,-0.0321766,-0.00633259,0.0539278,0.0163827,-0.019754,0.0999618,0.116557,0.0205243,0.0370583,0.0363826,-0.0518126,0.00578616,-0.0581666,0.0538128,0.10667,0.000603129,0.105073,-0.0184289,-0.0837072,-0.0566834,-0.00783524,0.135936,-0.0196055,0.0357914,0.0509453,0.115407,0.0384513,-0.00742342,-0.0673174,0.0325134,-0.058473,-0.0305368,-0.074193,0.00185648,0.0897858,0.0587522,0.0430326,0.10132,0.0112396,-0.00484775,0.063157,0.0410012,-0.0240423,0.0253332,-0.104825,-0.0911078,0.102213,-0.0647893,0.0335364,-0.0424646,0.0448499,-0.0219023,-0.134214,0.0265337,-0.0427455,-0.0283318,0.0139035,0.00809247,-0.0557363,-0.00162425,-0.00463541,0.020235,0.029102,0.00649153,0.00689952,0.00900533,0.0117476,-0.0084821,-0.0434871,-0.017134,0.0296591,-0.0261384,-0.0599743,0.0511354,0.054121,0.00119585,-0.066928,0.00198478,0.00437439,0.0331008,-0.0862777,-0.112136,0.0120903,-0.0405453,-0.022564,0.0246242,-0.0715475,-0.00336597,-0.0792263,-0.0211485,-0.0205483,0.0258459,-0.00380033,-0.138646,-0.0202605,0.0988609,-0.0202192,0.054017,-0.099781,0.107947,-0.104716,-0.0629291,0.0074215,0.0282483,0.00453111,-0.0857986,-0.0303469,0.0588122,0.0730392,0.0578425,0.0270147,-0.0431259,-0.0115498,0.007881,-0.00847829,0.0457625,0.0162202,0.0169938,-0.0145476,-0.0616551,-0.0269089,0.15174,0.0364032,-0.0223473,0.073418,0.0722744,-0.0996066,-0.00351347,0.00468442,0.107868,0.0657436,-0.00129758,0.00987187,0.0138263,-0.000114131,-0.0226343,0.0509592,0.0112287,-0.0626035,0.0295256,0.0322945,-0.000707056,0.0705685,0.0490603,-0.00550579,0.104543,0.0377492,-0.0172764,0.0342403,-0.0548027,0.016374,-0.108819,-0.0967619,-0.0169504,0.0738447,0.0668671,0.0564111,-0.019393,0.00159137,0.0565092,-0.0136238,-0.076556,0.00352497,0.0365837,-0.0892786,0.0277787,-0.0440764,-0.0371367,0.01361,0.0271635,-0.0204346,-0.0284661,0.0674691,-0.0432278,-0.0475834,0.0434149,-0.0787379,-0.0481359,-0.06769,0.0276455,0.0786235,0.00618119,-0.122519,0.0854744,0.0636452,-0.0117792,-0.0232226,-0.0137284,-0.114634,-0.182533,0.0786517,0.0553452,0.0486888,-0.0214033,-0.107862,0.0627406,0.0682498,-0.00389322,-0.0347751,0.0803891,0.00161755,-0.0362007,0.000194441,0.0552649,0.0825704,0.0144957,0.04785,0.0449046,0.0225602,0.0770952,0.0111925,0.0952144,-0.0675732,-0.0437742,0.075453,-0.0168168,0.00366066,-0.0568937,-0.0353811,0.0626793,-0.0713916],[-0.0157227,-0.0427962,0.0181464,0.0162898,-0.0245344,-0.0563617,0.045802,0.0503883,-0.0242567,-0.0489185,0.00470887,0.0544394,-0.012874,0.0379248,-0.0373805,0.0627603,0.118305,-0.0578421,0.0473983,-0.0381498,-0.0584141,0.0100859,0.0592062,-0.07546,0.016624,0.0670821,-0.070362,0.0927546,0.0448027,-0.00253796,0.0105383,-0.0405569,0.00776161,-0.0675795,0.0438953,-0.0816085,0.00131453,6.94564e-05,-0.0880952,-0.0457158,0.114012,0.0274928,0.0754601,-0.00386926,-0.0481118,-0.000909246,-0.00615733,-0.0445089,0.0493878,-0.0454848,0.00564679,0.0941462,0.124081,0.00847515,0.015854,0.0630961,-0.0263185,-0.0983702,0.067994,0.0300475,-0.0773564,0.0181579,-0.0314389,0.0762266,-0.0240774,-0.0193832,0.0709583,0.0266077,-0.017736,-0.0706781,0.0667595,0.11781,0.0259857,-0.0539854,-0.0332113,0.0725486,-0.0352497,0.0471866,0.0115639,0.0537221,0.0370516,0.00676459,-0.0348926,0.133552,0.0148937,-0.0169049,0.0248176,-0.0136053,-0.00585258,-0.0317195,-0.0402261,0.0262208,-0.0771649,-0.0357149,0.0608016,0.0314447,0.00175056,0.0502417,-0.0605322,-0.0536902,0.111319,-0.069776,-0.0142137,-0.0580393,0.0799801,0.0109508,-0.0208672,0.0702989,-0.0324003,-0.00854052,-0.0471785,0.0346215,-0.0245333,0.0311971,-0.0629754,-0.0876226,0.02242,-0.0500191,0.0809286,0.0270174,-0.0634168,0.109745,0.00670926,-0.0131233,-0.0325757,0.0751817,0.0680843,-0.0104711,0.0070737,0.0381915,-0.0726015,0.0162584,0.0617283,-0.0478689,0.0065485,-0.0627168,-0.0942977,0.0692518,0.0278628,-0.0876782,0.0032703,-0.0710456,0.0441916,0.0596218,0.0032563,0.0364089,-0.0157483,-0.100642,-0.0479331,-0.00227692,-0.0273236,-0.0243361,0.0133768,-0.0790187,-0.0926033,0.0406445,0.0328266,-0.0348024,-0.0195719,-0.0184723,0.146758,-0.00801394,-0.0696044,0.0047901,-0.0115667,-0.000114407,0.00727094,-0.0459153,0.1171,0.00600797,-0.0487447,-0.0308667,0.0863781,0.0430725,0.0406704,0.0750775,-0.0277607,-0.0370111,-0.0239883,-0.0933659,-0.0556945,-0.028779,0.0454559,-0.0734347,0.0830989,0.0146976,0.00176766,0.0420568,0.0585036,0.0267198,-0.0828781,0.0106832,-0.00365553,0.0383255,0.07314,-0.0616963,-0.0561493,-0.0352846,-0.0847945,-0.0652068,-0.0767867,0.0153633,-0.0077237,-0.0296668,0.00743792,-0.000189694,-0.0155573,-0.0215243,-0.0763691,-0.0784692,0.0271947,-0.0618783,-0.0193987,0.018696,-0.0189204,-0.0274976,0.0570569,-0.00656326,-0.0857639,-0.0584033,-0.0551237,0.0416517,-0.0594049,-0.0285357,0.00823625,0.0449804,0.0676296,-0.0518537,-0.0784154,-0.0183636,0.00176031,-0.0329564,0.0161849,0.00917522,-0.0355154,-0.00886309,-0.0570005,0.0502823,0.0252389,-0.0518433,0.0388911,0.00853636,-0.024135,-0.0753163,-0.0430431,0.0450268,0.0171294,-0.031203,0.0107821,0.0625292,0.0273772,0.0505402,-0.00785463,0.064324,-0.0351813,-0.0135747,-0.00831547,-0.0468041,-0.022975,0.122226,0.0320664,-0.0131267,-0.0816968,-0.0871675,0.0557557,-0.0613202,-0.0205827,-0.0966409,-0.0541732,-0.0114812,0.0653656,0.00604234,-0.00593167,-0.0253122,0.056434,-0.0164677,0.0361395,0.0782319,-0.081306,-0.0277497,-0.0721327,-0.0273189,-0.0359635,0.0203361,0.0155139,0.0598566,0.0931396,-0.0773489,0.0263042,-0.0292272,-0.0112719,-0.0594107,0.0026554,-0.0647105,0.00279349,0.0454986,0.0545919,-0.0735197,-0.0775605,0.0547369,0.0175543,0.0529155,-0.0167107,0.0562019,0.104326,-0.000967148,0.0301623,0.0364626,-0.0559275,0.0653181,0.0126116,0.0472684,-0.117542,0.0835071,-0.0393355,-0.0569107,0.0793194,0.0015305,-0.0393052,0.0467308,-0.0323928,-0.062839,-0.0801754,0.0545559,-0.0606303,-0.0432599,0.00892165,0.0826018,0.0462359,0.0880065,0.00997582,-0.00158055,0.0382441,0.0243897,0.101855,-0.0592937,0.0576361,-0.047808,0.0383568,0.085006,-0.0494089,0.0478283,-0.0109178,-0.0280477,-0.0146121,0.0047779,0.0120892,-0.0520523,0.0452808,-0.0422376,-0.0030818,0.0139802,0.00352223,-0.0275731,0.017198,0.0183086,0.0786986,-0.0464716,-0.00781094,-0.0512151,-0.015396,-0.0344188,0.0245651,-0.0318323,-0.0895064,-0.0196232,-0.171691,-0.0445921,0.0223089,-0.00377775,-0.0103813,-0.0505145,-0.0651297,-0.0688177,-0.0504678,-0.0658494,-0.0239871,0.0120041,0.0103665,0.0499623,0.0656335,0.0233344,-0.0504592,-0.00269444,0.0541061,0.0328372,-0.076648,0.0879311,-0.00672376,-0.0429497,-0.0581237,-0.0638582,-0.0698252,-0.00121393,0.0331557,-0.0812751,-0.0166358,0.0293539,0.0101911,-0.00233404,0.0403577,-0.00396475,0.0264549,-0.00615397,-0.0775513,0.0468339,-0.0816489,0.00248097,-0.00224589,-0.0414126,-0.036325,-0.045207,-0.0184952,-0.017783,0.00447969,-0.0040635,-0.0111176,0.0191124,-0.0173387,-0.029125,0.0192287,0.0710241,-0.0739274,-0.0868134,-0.00460322,0.00679034,-0.0644036,0.00518605,-0.104413,-0.024285,0.00771524,-0.000443432,-0.0231324,-0.0381942,-0.0778951,0.0503288,0.0792287,0.00815707,-0.0690694,-0.10515,-0.0610107,-0.0411585,0.070115,0.0682128,-0.0326749,0.0584244,0.02544,0.0489528,0.09424,-0.00502772,0.00634492,0.0345026,-0.064735,-0.0741384,-0.0540024,0.0045659,0.026666,0.0251105,-0.0452655,0.0220518,0.00598372,-0.03647,0.0197954,-0.0617627,-0.025915,0.0446522,-0.089602,-0.0307643,0.0547855,-0.0333766,-0.0716333,0.0750787,0.0636812,-0.059241,-0.0677202,0.046693,-0.0804203,-0.0258424,0.0957416,0.000852895,0.0619267,-0.0275868,0.0489303,0.0483055,0.0085012,-0.0654777,-0.059067,-0.0268826,-0.0428053,-0.00905522,0.0855018,0.0199134,0.0121307,-0.00530228,-0.0603038,-0.00499432,0.0292635,0.0588871,-0.0596997,0.0262635,0.00489511,-0.0296447,-0.039452,-0.0208313,-0.0703032,0.0298338,0.017655,0.062308,-0.0106867,-0.010582,-0.009799,0.045971,-0.0144307,0.0649954,0.00107945,0.0738547,0.0224059,0.0547815,-0.0798358,0.0349606,0.0367926,-0.0816598,0.0111594,0.0755019,-0.054973,-0.0124562,0.0530005,0.0149571,0.0659274,-0.0501049,0.0136319,0.0603821,0.0767861,0.0479176,-0.0553177,0.138828,0.0362684,-0.0554026,-0.0782406,-0.0324257,0.0046036,0.0552122,0.0287944,-0.0705433,-0.0923189,-0.0507525,-0.0395674,0.0208765,-0.0136237,0.0584036,0.106797,0.0549133,-0.0565285,-0.0185122,0.0127379,-0.0416243,-0.047515,0.0880068,-0.0152755,0.0326698,0.01294,-0.0761668,-0.0563399,-0.0254452,0.0102043,-0.0349311,-0.0473022,-0.0802054,-0.070465,0.0479848,-0.0316484,-0.0440259,-0.0326433,0.0845255,0.107141,0.0114703,0.0688144,0.0015607,0.00113737,-0.0307534,0.0570639,-0.0167486,-0.0354977,-0.0313661,-0.0672933,-0.101435,0.0420578,-0.0384921,-0.0917373,0.0302945,-0.0396118,-0.00888081,-0.0534015,0.0370291,0.0475644,0.00404703,0.0197912,-0.0221815,-0.0560313,-0.0656519,0.0353489,0.0626952,-0.0200509,-0.0480177,-0.0208956,0.0670842,0.0161218,-0.0414367,-0.0497182,0.0302112,-0.00855665,-0.095055,-0.00154461,0.000272151,0.00475466,0.04753,-0.00573145,-0.0991617,0.0124901,-0.0554168,-0.0545882,0.0278295,0.0266385,-0.033651,-0.0528533,0.0690673,-0.0542518,-0.103288,-0.0645076,-0.0248987,0.00112393,-0.00857272,-0.0683887,0.0172415,0.075461,0.0283481,0.0782036,-0.0622407,-0.000916739,0.0845606,-0.0838885,-0.0245429,-0.0577183,0.0289523,-0.0788049,-0.0219366,0.0409554,-0.0123833,-0.056566,-0.0414348,0.0047984,-0.00932665,0.0787854,0.0762294,-0.0416131,0.0709219,0.0780455,-0.0333442,-0.0581277,0.0630773,-0.0743773,-0.0811414,0.0262485,-0.066491,0.0908147,-0.00403172,-0.00062253,-0.0669443,0.03442,0.0112883,0.0440283,-0.0401012,-0.0765685,0.0223779,1.05102e-05,-0.0338079,-0.0571214,-0.0773108,-0.0620693,-0.0168538,0.0372755,-0.0529743,0.0477931,-0.0301617,-0.0246832,-0.0616349,0.0219267,-0.0172134,0.0483671,-0.0685185,-0.034214,-0.000134503,-0.0481155,0.0317796,0.0145884,0.0153394,-0.0767086,0.0708232,0.0573514,0.0491941,0.0730592,0.0328538,-0.0614882,0.0344068,0.0421531,0.0175072,0.0274844,0.0821286,0.0172701,-0.0823258,-0.0521126,0.0141559,-0.0694648,0.12496,0.069612,-0.0309391,0.0249155,0.0075581,0.101739,-0.000574681,0.0180593,-0.0500045,-0.0145007,0.0771288,0.121605,0.0286232,0.0219469,0.0155693,-0.0209171,0.0550212,0.0321234,-0.0533532,-0.00947904,0.00585345,-0.0170729,0.0108158,0.089246,0.0215126,-0.0718441,0.0449539,-0.0425972,-0.0859975,0.0243032,-0.058014,-0.0775381,-0.034456,0.0527545,0.0197128,0.0430466,-0.0767425,0.0188674,-0.0387886,0.0439647,0.116955,0.105157,0.0526211,-0.0170674,-0.0265963,-0.0277642,0.0613279,0.0962132,0.140406,0.0290803,0.0714009,-0.0151417,-0.10407,-0.0679357,0.0430172,0.0199621],[0.0346022,0.0228575,-0.0455586,-0.0468409,-0.00288369,-0.100366,0.0363502,-0.0499812,0.0217717,0.104901,0.0247918,-0.0340901,-0.0534876,0.00944449,-0.0184366,-0.0456693,0.0039527,-0.0623884,0.0687292,-0.0318599,0.00982052,0.0414884,-0.01757,-0.0785498,0.0725713,-0.0428253,0.0398469,0.0435766,-0.0487039,-0.0870817,0.0454382,-0.0213822,-0.00950906,-0.0401642,-0.0891363,-0.0497704,0.02443,0.0504439,0.0609947,0.0707265,0.0484617,-0.132577,0.0738034,0.0788472,0.0603314,0.0587729,-0.0440868,0.0417007,0.0753956,-0.00608939,-0.0268832,-0.0281069,0.0378593,-0.0657209,-0.0710191,0.00793635,0.0148308,-0.00265674,0.00348223,-0.00946163,-0.0461903,0.0512465,-0.0484855,0.0837347,-0.0624246,-0.038906,-0.0508779,0.023772,0.0204956,0.0430244,0.052435,-0.0282124,-0.00587718,0.00230002,-0.025164,0.00898027,0.0185242,-0.0854543,0.0059155,0.0329245,0.0170416,-0.0561938,-0.0245332,0.133387,-0.037347,0.0297365,-0.0281445,-0.0067269,-0.0856023,-0.100879,0.0450027,0.0677308,0.0372772,0.0126226,-0.106103,0.00347755,0.0390709,0.0364908,-0.0186268,0.0375818,0.0418824,-0.0814536,0.0682668,0.0930597,0.00188702,-0.0804615,-0.0719558,-0.0368403,-0.0864688,0.00556992,0.0668767,0.037037,0.03007,0.071563,0.0729164,0.0424357,-0.0278002,0.0373716,-0.086236,-0.0322526,-0.0195151,-0.0376509,0.0420008,0.0629475,-0.0228814,0.0926655,-0.0624694,-0.0244132,-0.0040789,0.0638967,-0.00021395,0.0975405,-0.0714585,-0.0486732,-0.0253882,-0.0105754,-0.0628214,-0.0329407,0.0716185,-0.0293686,0.0445133,-0.0154841,0.036974,-0.0023753,0.019513,-0.0135176,0.0855292,-0.0363171,-0.0631543,-0.0646515,-0.0200106,0.0688316,-0.0644083,-0.016538,-0.0846154,-0.0671809,0.0522447,0.025622,-0.0272765,0.0765736,-0.0122377,-0.0338364,0.0177954,0.0322978,0.0843804,-8.12303e-05,-0.0753949,0.00587726,0.0757312,0.0478166,-0.079354,-0.0840547,-0.0272383,0.0725881,0.109877,0.0478601,0.0170056,0.00740215,-0.00362795,-0.0938588,-0.0896189,0.0191455,-0.0465365,-0.0228192,-0.00831312,-0.109031,0.15453,0.0298136,0.0516656,0.00992868,-0.0853694,0.0509066,-0.0449815,0.02297,0.000238129,0.038332,0.07002,0.0352345,0.118138,0.064219,0.0156552,-0.0596665,-0.00160712,-0.0579585,-0.0692408,-0.0270933,-0.03188,-0.0474382,0.0208557,-0.047125,-0.0905631,-0.0210244,-0.0506416,0.00656041,-0.0597667,-0.0173281,-0.0577307,0.041399,0.000123698,0.0404597,0.0377067,0.0272617,0.129779,0.0204089,-0.00663552,-0.00405286,-0.0888115,-0.0184848,0.0432679,0.0310053,-0.0666627,0.0510542,-0.047049,0.0258155,0.0487302,0.0195465,0.0535935,0.0150477,-0.123515,-0.0328884,-0.0162669,0.0177734,0.0260687,-0.0581028,0.0248742,0.0279778,0.13867,-0.00603587,-0.0541855,0.0572923,0.0236269,-0.0410461,0.00554176,0.0289499,-0.0386363,0.05093,0.0473483,-0.0327245,0.0261579,0.0331479,0.00194274,-0.0539293,0.00551412,0.000319084,-0.0135378,0.0711636,-0.0375491,0.00963402,-0.0661098,-0.0708985,0.0998928,0.0231141,-0.054624,0.0159251,-0.118566,0.0417812,0.0160661,0.0225319,0.0411441,0.0271524,0.0345482,-0.0356167,0.0622408,-0.00464925,-0.0260892,-0.11964,-0.0478761,-0.0129664,0.0195983,0.0492263,-0.0642628,-0.0623982,0.0772747,-0.0274044,0.0101494,0.00685307,0.0209186,-0.0177123,0.0129716,-0.0302178,-0.0419459,-0.0468269,0.0332271,-0.0691413,0.0596572,0.0153122,0.0574065,0.0542239,-0.0241206,-0.0723236,0.0293617,0.043843,0.0506368,0.043769,0.0677031,-0.0159819,0.0125401,-0.0838835,0.0488821,0.0257232,-0.00152348,0.0195662,-0.0901811,0.0494434,0.0283978,0.0586405,0.0705946,0.00143182,-0.0340362,-0.0965177,0.0691771,-0.0149206,-0.0118142,-0.0120925,-0.119375,-0.0438756,0.0155072,-0.0310664,0.0979665,0.0352763,0.064735,-0.00479257,-0.10656,-0.0562204,0.0318878,-0.0710716,-0.0466905,-0.0406835,-0.0652339,-0.0334032,-0.0838035,0.0470656,-0.0278752,-0.083133,0.118626,0.0108864,0.0451886,-0.0620236,-0.0339904,0.00556482,0.061294,0.0800013,0.0557108,-0.000731151,0.106547,0.0490109,0.0751529,-0.116041,-0.0897791,0.020776,-0.0373279,0.0417335,-0.000430867,-0.0313715,-0.0297064,0.045589,-0.0392866,-0.0137254,-0.0250736,-0.0963516,-0.030423,-0.00910637,-0.133792,-0.0266095,-0.0710036,-0.0411121,0.0772696,0.0140124,0.00583103,-0.118192,0.0097518,0.00948616,-0.00642226,-0.0185186,-0.0671447,0.0461489,-0.0225039,0.00289272,0.00825885,-0.0783512,-0.00379684,-0.0496133,-0.00635173,0.0182864,-0.0319918,-0.0364771,-0.111715,-0.0507796,-0.0569521,0.0398244,0.0156327,0.00676625,0.0458827,0.0370503,0.0353615,0.0652025,-0.0469239,0.0188082,-0.00857641,0.00169889,0.041446,-0.00885,0.0437457,0.0559039,-0.0225269,-0.103418,0.0561298,-0.053899,0.0489454,0.0343707,-0.112181,0.0600729,-0.016594,0.0187474,-0.00475684,0.0776523,-0.00395893,0.0661923,0.0444331,0.0224614,-0.0293596,-0.056841,-0.0660249,-0.00587624,0.106009,-0.0263454,0.0369145,0.00406047,-0.0748753,0.0683108,0.0419073,-0.0660027,-0.107406,-0.0560584,-0.0897501,0.0696165,0.0185354,-0.0187152,0.0597408,-0.0209618,-0.0731489,0.0563249,-0.131273,-0.012417,0.0499528,-0.0906692,-0.152494,-0.0753353,0.114572,-0.0576691,-0.0134879,0.0435673,0.0444555,-0.00351476,0.0832188,-0.0408321,-0.0149285,-0.0947948,-0.078132,-0.0132328,0.00153214,-0.0173781,-0.0737865,-0.00529296,0.0502245,-0.0826469,0.0167132,-0.0254637,0.0453094,-0.0323741,-0.0993178,-0.0978606,-0.0216679,-0.0285088,-0.0380054,-0.0181807,0.0722424,-0.0414857,0.0106158,-0.1049,-0.0810182,-0.0801191,-0.0342092,-0.0378197,0.0709362,0.0760514,0.0219236,0.0691621,0.0740995,-0.0439942,-0.0173428,-0.061883,-0.0311381,0.0454971,-0.0165288,0.0590582,-0.00947166,0.0470185,0.0822063,0.0692489,0.0298298,0.0540375,0.00538685,-0.0407809,-0.0823442,-0.109646,-0.145975,0.0549272,0.129544,0.00766323,0.102168,0.0199205,0.0234611,0.0654803,-0.0173928,-0.0705877,0.0197,-0.0560178,-0.0779264,-0.0176563,0.0775827,-0.0120716,0.0556624,-0.0107081,-0.0144838,0.0102395,0.0220647,-0.0849182,0.000178034,-0.109934,-0.11939,0.0186553,-0.0404748,0.022595,-0.00484361,0.069966,0.0226432,0.0762322,-0.0669752,-0.123095,-0.0287304,-0.025506,-0.155173,0.082633,0.0376463,0.0692244,0.0428587,0.0395083,0.0530844,-0.0468689,-0.03078,0.0106285,-0.019181,-0.190394,-0.185852,0.0950544,0.175743,0.0800676,0.0601673,-0.0444945,-0.0703133,0.00611012,0.0643487,-0.0431922,0.0490595,0.0739008,-0.0146029,0.0578508,0.099509,0.044929,-0.021391,0.0505863,-0.102756,0.0507595,0.0509213,-0.0633414,0.0198142,-0.077921,-0.0030985,-0.0348451,0.0988972,0.0441943,-0.0118125,-0.0275979,-0.0216105,0.105807,0.060447,-0.0104494,-0.00136775,-0.0754616,-0.0966041,-0.104489,0.00622805,0.00415523,0.038096,0.00551849,0.0691615,-0.00543172,0.0402221,-0.10942,0.0492482,-0.00785502,-0.063188,-0.0522592,-0.0701236,-0.0534884,0.0272213,0.0636343,0.0727231,-0.0359692,0.0486262,-0.0581568,-0.0325511,-0.094771,-0.147506,0.0150203,0.174484,-0.0788703,-0.023473,0.0233159,0.0779524,0.0444511,-0.0293806,-0.0810381,-0.0207243,-0.0670594,-0.121315,-0.0113619,0.171147,0.00295045,-0.0545931,-0.035733,-0.0186169,0.0787507,-0.0379932,-0.0839243,0.0133219,-0.11858,-0.185796,-0.0892029,0.081937,-0.0166576,-0.035295,0.00274265,0.00672316,0.18612,-0.0443848,-0.0955202,-0.0931534,-0.0919059,-0.0848279,0.000754407,-0.0294707,0.0737361,-0.00290707,-0.0316486,-0.0416086,0.00839357,0.0803637,0.0271946,0.0658361,-0.097566,-0.0685013,-0.0242538,0.0184976,0.108844,0.0501634,0.0480244,0.0208658,-0.00638806,-0.0765343,-0.0431855,-0.0218522,-0.132453,-0.101684,-0.0198602,0.031438,-0.0229241,0.0900866,-0.047174,-0.000874056,0.0407222,0.0328493,-0.0946955,-0.0334072,-0.0305538,-0.164232,-0.0611997,0.0787981,0.0144292,0.0711835,-0.0559546,0.0277604,0.0362204,-0.0505049,-0.0675834,0.0617254,-0.0808918,-0.164313,0.0938749,0.0377327,0.0609766,-0.000618709,0.0465045,0.0586875,0.00193272,0.0254833,-0.0552504,-0.0726864,-0.0860165,-0.135625,0.00596141,-0.00146923,0.0376029,0.0283503,0.00538863,0.074461,0.0128915,0.00104124,0.000917536,-0.0192632,-0.147156,-0.209301,-0.0225518,0.00162636,-0.0660502,0.0549919,0.0404985,-0.0133567,0.145933,-0.0201406,-0.0447891,-0.0519829,-0.109082,-0.228191,-0.00938366,0.00863852,-0.0850355,0.000614717,0.110592,0.0455355,0.171555,-0.0356078,0.042858,0.015871,-0.0649455,-0.113702,0.0506137,-0.228447],[0.0457512,0.0270692,-0.0137956,0.0147302,0.0624032,0.0289983,0.0539228,0.0710839,-0.0323274,-0.00955819,-0.00342568,-0.0475294,0.0412094,-0.0692845,-0.0461497,0.0397843,-0.0287812,-0.0397331,0.0780876,-0.00821945,0.0651217,-0.0245719,0.108005,0.0273007,0.00774434,-0.0444509,0.0214189,-0.038838,0.0499574,-0.000520663,0.00974815,0.0680804,0.0633104,0.0561732,0.0855982,-0.0371423,0.0225639,0.0639873,-0.0224303,-0.0435953,0.00750987,-0.00903506,0.065685,-0.0279021,-0.0699835,-0.0534416,0.110342,-0.0171988,-0.0152578,0.00275523,0.0560263,-0.0841228,-0.028423,-0.0295434,0.0277056,0.0601031,-0.0671546,0.0774543,0.0321212,-0.0302586,0.0327564,-0.0188325,0.0376864,0.0984264,-0.0658341,-0.0762268,-0.0718793,-0.000400852,0.037036,0.028151,0.093854,-0.0211986,-0.0159885,-0.0680129,-0.0152797,0.0925439,0.047398,-0.0636354,0.00200191,0.0320839,0.00454784,0.00981251,0.0291778,0.0833323,-0.0468263,-0.0154223,-0.00158074,-0.0794667,0.000350005,-0.0774608,0.051824,0.0663767,0.060328,-0.0356652,0.081603,-0.0645371,-0.0270269,-0.00678675,-0.0713961,-0.0538072,-0.0457046,-0.0271473,-0.0243069,-0.0474868,0.10866,-0.0346025,0.0119682,0.0162472,0.0533839,-0.0117341,-0.0176466,-0.0182474,0.0142304,0.0627174,-0.0128321,-0.029169,0.0608745,0.0530556,0.0352286,0.0183396,-0.0284396,-0.0720676,-0.0353768,-0.0364529,0.0313112,-0.0087465,0.0618269,-0.0129564,0.0126,-0.0196729,0.127854,0.0719913,-0.0241306,0.0723924,-0.059775,-0.0839904,-0.0352355,0.0664031,-0.0568261,-0.0279026,-0.00878527,-0.0597515,0.0461075,0.0521729,-0.0348815,-0.0180252,0.0394295,0.06369,-0.075233,-0.028923,-0.0280492,0.0459648,-0.0972924,0.107745,-0.0088727,0.0770179,0.0575873,0.0103249,0.0165012,-0.0741786,-0.0143037,-0.0120442,-0.0195771,-0.0414103,0.0284956,0.0544379,0.0275921,0.0591457,0.0320491,-0.0630179,-0.0620401,0.0304645,-0.0703657,0.00636141,0.0640231,-0.0626084,0.0424543,0.0224842,-0.0155499,0.0996485,-0.0171014,-0.0525831,0.0803406,0.0431837,-0.0743411,0.0539412,-0.0879201,-0.0292585,-0.0515532,0.0055842,0.0267726,-0.0157575,0.067837,0.0680468,0.0214318,0.00155646,0.0540321,0.0324101,0.066259,0.0453346,0.000303282,0.0212599,0.0660228,-0.0705039,0.00685425,0.0369356,-0.0890203,-0.0229573,-0.0610906,-0.0270886,-0.0220156,-0.0233919,-0.0415914,-0.0074594,0.0972761,0.0312664,-0.0337571,-0.0241644,-0.0209195,-0.0471864,-0.0274394,-0.0194316,0.0511889,0.0488281,0.0599443,-0.0226733,0.0277002,-0.0304316,-0.0428814,0.0377214,0.0472527,-0.0399465,-0.0860269,-0.0199277,-0.0512678,0.0605109,0.021674,0.0386958,0.0109291,-0.0170399,0.0501363,0.00952278,0.0132719,-0.0908608,-0.0496594,0.00911545,0.0884974,0.10937,-0.0503753,-0.0171321,0.165882,0.10763,-0.0345505,0.0734364,-0.0348165,-0.08112,0.0789406,-0.0195974,0.0445001,-0.0713724,0.0141896,-0.0367106,-0.0149347,0.115305,0.0168576,-0.0732324,-0.00131145,-0.0254517,0.0252291,-0.0873668,-0.119285,0.064825,-0.0456578,-0.0274539,0.0492349,-0.0348767,0.0879035,-0.038023,0.0485818,-0.0849256,0.0439742,-0.0469508,0.0726813,0.0424672,0.0457614,-0.0536454,0.0272073,-0.167787,-0.0489147,0.0129911,0.00640317,0.0052868,-0.066094,-0.00847674,0.117153,0.0279723,0.0347566,0.0021376,0.0902293,0.0147743,0.0529614,0.0299107,-0.0063049,0.0701767,-0.0101473,0.000604621,0.0888609,-0.0331369,0.0457081,0.00327362,0.055428,0.0112961,-0.0449471,0.0363715,-0.0354531,0.00474942,-0.027583,-0.00239665,0.00768406,-0.0618031,-0.0166914,0.0559495,0.0395,0.0421503,-0.00445048,0.00816088,-0.0181238,-0.0507055,0.0914205,0.0336753,0.112154,0.0719884,0.0566639,-0.0252045,0.110899,-0.037277,-0.0709537,-0.0439975,-0.0791179,-0.0896478,-0.0892413,0.0812417,0.0246311,-0.0269124,-0.0186346,0.0791634,0.121105,-0.0665418,-0.0240402,0.07628,-0.0425873,0.0587694,0.0408789,0.023894,0.103962,0.013917,0.0651901,0.0391601,0.0495473,0.101753,-0.0928144,-0.0251676,-0.00875948,0.0630217,0.0551524,0.0215854,0.0894466,-0.0483425,0.0548972,0.0547705,0.0137621,-0.0284563,-0.0918393,0.0528071,-0.0368724,-0.0384765,0.0120888,-0.0504233,-0.0947858,0.00823083,-0.0394522,0.102526,0.0696588,-0.0255741,0.0993087,-0.00539871,-0.0242305,0.00626408,0.0125294,-0.0534978,-0.00850559,0.00983991,-0.0575576,0.0253603,-0.00840896,-0.133556,-0.0160128,0.0315702,-0.086832,0.0686188,0.0476779,-0.0446929,-0.013616,-0.0263299,0.00631597,-0.00960328,0.071887,0.0162629,-0.0363327,0.084134,0.0524693,0.0123297,0.0813638,-0.0122429,-0.0489497,-0.0350267,0.0203158,-0.0746565,0.116035,-0.0105236,0.0564407,0.042606,-0.0277539,0.0728113,-0.0251466,-0.0300298,0.0424985,-0.0506557,0.0132262,-0.0148507,0.0108473,0.0828217,-0.109624,-0.0209408,-0.00300935,0.0185369,0.0805378,0.0201968,0.0667186,0.0411952,0.0404304,0.00796722,0.0806682,-0.0343574,0.0206454,-0.0360005,-0.0350954,-0.0186301,0.0361594,-0.0549909,-0.0243826,0.0502137,-0.0286852,0.0306283,0.104456,-0.0540685,0.035609,0.0496485,0.0587327,0.0537596,0.0872053,0.0545734,0.0551038,0.028456,0.0494798,-0.0384385,0.106706,-0.0164517,0.0158355,0.0787924,-0.00396164,-0.00786862,0.0893273,0.0329611,0.0225597,0.0831911,0.0825442,-0.0202314,0.11004,-0.113766,-0.0252127,0.0787283,-0.0154106,-0.0650291,0.0575798,-0.0888394,0.0653451,-0.0490877,0.00326534,0.00357087,0.136613,-0.0359212,-0.0365147,-0.00354571,-0.0294733,-0.0639268,0.0530911,-0.0314722,-0.0454284,0.0581203,-0.0532417,0.0449196,0.124395,0.0369659,0.0952487,-0.051917,-0.0567063,-0.0174727,0.0914776,-0.013535,0.0489733,-0.035436,0.0173183,0.108577,-0.0469345,-0.0610807,-0.0646106,-0.0386449,-0.0903317,0.0121213,-0.0377974,0.0406967,-0.0775457,-0.0552746,0.0335324,0.109206,0.0499121,0.0876852,-0.0440181,0.0636684,-0.0424784,0.0449306,-0.0424569,-0.0311036,0.0766596,-0.0415305,-0.0337227,0.0917841,0.00604859,0.0543803,-0.0207872,-0.0068951,0.0108014,-0.0894483,0.0134011,-0.102464,-0.046847,-0.0185533,-0.0151411,-0.0620306,0.0764853,-0.0350102,-0.0725463,-0.0161393,0.0438462,-0.0690991,0.0872615,-0.0121263,-0.0569147,0.0221438,0.0272748,0.0136891,0.101921,0.0576407,-0.02318,0.0549411,0.0045073,-0.108037,0.0207119,0.0337554,-0.0542927,0.0342895,0.0163483,0.000276154,0.0946341,-0.112277,-0.021616,0.0386816,0.0208118,-0.00356405,-0.0127612,-0.0569988,-0.0201929,-0.0188783,0.0171171,0.0183299,0.0937115,-0.0466959,0.0479709,-0.0396394,-0.0789092,-0.0766537,-0.0481869,0.09778,0.0683621,-0.0563227,0.0117516,0.0619942,0.0708507,0.0722337,-0.0685034,-0.0114396,-0.0498412,0.0352721,-0.000345619,-0.00553277,-0.0278093,0.0942265,-0.00611655,-0.0271694,0.129843,0.0970323,-0.0728979,-0.0255162,0.0218815,0.0054991,-0.0572273,-0.0164354,-0.00926971,0.0655175,-0.0824685,0.0103061,0.0486126,0.0542381,-0.0684898,0.0558737,-0.0997421,-0.0454645,-0.00601246,0.0182423,-0.0589127,0.119071,0.016279,0.0498443,-0.00447876,-0.0605815,0.0266191,0.0217709,-0.0486989,-0.0766665,-0.018246,0.144572,0.00118836,0.0624199,0.0262906,-0.0343305,-0.0379562,-0.0726158,-0.013294,-0.0639933,-0.0233208,-0.0691617,0.0798477,0.041723,0.0887373,0.0555915,-0.0773643,0.0342183,0.0245818,0.0942362,0.031561,-0.080403,-0.0518815,-0.0810858,-0.00733217,-0.00620896,-0.0252816,0.0251831,0.00588517,0.0966105,-0.0196049,-0.107232,0.0768703,0.0329775,-0.0673148,-0.02612,-0.0552884,-0.00786946,-0.0466061,-0.00521781,-0.0848116,0.102025,0.0863432,-0.0559557,-0.0429948,-0.101499,0.0557137,0.0728166,0.0549614,0.0139497,0.0659487,-0.0209834,0.00235082,-0.0509792,0.111807,-0.0913036,0.0310142,0.0551828,0.033647,0.0312964,0.0218929,0.0655381,0.0157542,-0.0353619,0.0109677,-0.0737299,0.114466,0.0291834,0.0407947,0.0762629,0.0511509,0.0794635,0.0230792,0.0745353,0.0782941,-0.0304231,-0.0185321,0.0613154,0.00899677,-0.0253432,0.0315428,0.0614642,-0.0311924,-0.0249474,-0.0610242,0.0509479,0.0817818,-0.0519131,-0.0212413,0.0792335,0.0101913,-0.0651061,-0.0205867,-0.0522829,0.0346077,-0.0217799,0.0251112,0.0212361,-0.0719272,-0.0560582,-0.0403816,-0.0225365,0.0342629,-0.0245895,-0.0725025,-0.0553565,0.0511085,-0.0150631,0.0601635,-0.0682791,-0.0602075,0.0120602,-0.0118673,0.00654894,-0.0334592,-0.0732843,0.011748,-0.0156593,0.0419149,0.063189,0.0500289,-0.0216713,-0.0452513,-0.0304805,0.0522249,0.0541734,-4.0634e-05,-0.116012,0.265046],[0.0300488,-0.00560972,-0.0172325,0.012586,0.0448698,0.133389,-0.0608804,-0.0282893,0.0421052,-0.0152067,-0.00377869,-0.00988172,0.0439333,-0.0352272,-0.0656483,-0.0740118,-0.0144361,-0.0450551,-0.0800023,0.0353247,0.0713808,-0.0201316,0.05405,-0.069032,0.0204641,0.0162198,-0.0500278,0.110651,-0.0823328,-0.0339027,0.0619918,-0.066363,0.0418849,-0.0315507,-0.0944024,-0.037336,-0.0460716,-0.0703675,-0.018488,0.0518073,0.00426333,-0.0446058,-0.0224813,0.0311628,0.0457774,0.0436009,0.00877482,-0.0150504,0.0525632,-0.030222,-0.0329591,-0.0832898,-0.0715669,-0.00144909,-0.047677,0.055897,-0.0171671,0.0510385,-0.0187421,-0.0115949,0.0253641,0.0969613,0.0420962,-0.0539845,0.0636624,-0.0293199,0.0320781,0.0727697,0.0425678,-0.0529826,-0.0434804,0.0395979,-0.00978496,-0.0643786,-0.0663983,0.082098,-0.0337432,0.0295915,-0.0343386,0.109791,-0.0135483,-0.0220251,-0.0446119,0.0634062,0.0423563,-0.0577375,0.0320264,0.00956605,0.0257625,-0.0194569,0.0333426,-0.063278,-0.0379952,0.0889343,-0.0695329,0.0175206,-0.070513,0.00829415,0.0114096,0.0494883,-0.0299184,0.0375416,-0.0223228,-0.00729735,-0.0357199,0.0143494,-0.0401564,-0.0768179,-0.0758684,0.0886079,0.0470521,0.0079952,0.0646048,-0.0630163,-0.0114711,-0.0815324,-0.0416165,-0.0827675,-0.0139437,-0.0661023,-0.0147432,-0.0234735,-0.0479739,0.0679176,0.0670614,0.0490243,0.0731397,-0.0756636,-0.058348,0.000355268,-0.0671571,-0.0769362,0.0602247,0.0480778,0.00607663,0.034149,0.0161827,-0.0103372,0.0755117,-0.024378,-0.0126569,-0.00513636,-0.0116816,-0.119654,-0.0354014,-0.00205048,0.038433,0.0675981,0.0385861,0.000722623,-0.0452105,0.114864,0.0576458,-0.0171614,-0.070359,0.03401,0.0603711,0.0768516,0.0660302,0.0578474,0.0707421,0.061524,0.0295546,-0.073732,-0.0700817,-0.0453206,-0.117723,-0.0546835,-0.00869064,0.0199249,0.0717004,0.104048,0.034908,-0.0274426,0.017865,-0.0819259,0.0449374,0.0829575,-0.131812,0.0350811,0.0200629,-0.0143837,0.0633493,-0.0374221,0.0808822,-0.0256948,0.0987584,0.0124471,0.0312932,0.00681928,-0.0693642,0.0196096,0.0107761,-0.0145573,-0.0502308,0.0064174,0.0488378,0.0228044,0.0261118,-0.0869872,0.0692265,-0.000532216,-0.0173982,-0.0261328,-0.0475649,-0.0289745,-0.0235289,-0.0642763,-0.0312615,-0.0409242,0.0809039,-0.0428442,-0.0102467,-0.00648174,-0.112512,0.0384745,0.0050176,0.0436555,-0.00984997,-0.0020048,0.0306945,-0.0280382,-0.00136374,0.0769641,0.0261615,0.00066508,-0.0789996,-0.0532737,0.00267244,-0.0582926,-0.0472639,0.0686362,0.0597427,-0.060686,0.0389295,0.00952344,0.0323648,-0.0672501,0.0049205,0.0467988,-0.00650858,-0.0589457,-0.0368006,0.031035,-0.0264154,0.0227055,-0.0418494,-0.0472097,0.0861312,-0.0278964,-0.0686838,0.0200863,-0.0448418,0.0011336,-0.0321497,-0.00606572,0.0355202,0.00556243,0.0568508,-0.0459674,0.0592604,0.0747881,0.0353056,-0.0441095,0.0548826,-0.0306197,0.0620183,0.0591544,-0.074054,0.101066,0.0447352,0.0521131,-0.0491469,0.0872949,-0.059936,0.0325549,0.0113468,-0.019417,-0.0350979,-0.0441635,-0.0110208,0.0778566,0.124452,0.0642658,-0.0440892,0.0534196,-0.0651491,-0.0226849,0.0496035,-0.0781372,0.0747822,0.0780019,0.0055906,0.0498041,0.0520618,-0.0133287,0.0442089,0.0721975,-0.0772476,0.0271043,0.00698885,0.0216251,-0.0207313,0.0315543,-0.00355046,0.0119522,0.00116283,0.0318232,0.0182239,0.0455631,-0.0734719,0.00974201,-0.0354711,-0.038672,0.00135894,-0.068256,0.0570365,0.055007,0.0241108,0.0454075,-0.102337,0.0420235,0.045281,-0.0862303,0.0558394,0.0448719,-0.00498549,-0.0347016,-0.0263919,0.0188067,-0.00625406,0.0835969,0.0868946,0.0668718,-0.0870523,-0.0644013,-0.0450069,0.0396394,0.0603345,-0.0416565,-0.0725729,-0.00757311,0.0818094,0.0499442,0.0278831,-0.0238381,0.000846941,0.0312232,0.00819677,0.0010133,0.0222653,-0.00261157,-0.0664458,0.0872064,0.0646035,-0.0601449,-0.0319746,-0.092284,0.0256261,-0.04481,-0.0191293,0.041387,0.0543236,0.0380227,-0.0130945,0.107658,0.110897,0.024265,-0.0216545,-0.0311808,0.0200803,-0.00789663,-0.035041,0.0377145,0.00987474,0.0145364,0.0166562,0.101925,0.0602377,-0.0712731,-0.052239,0.0266033,0.0792973,0.00449812,-0.0439821,-0.0309932,-0.0479018,-0.0681181,-0.101978,-0.0116488,0.00248036,0.00582846,0.0550707,0.0194509,-0.0213134,-0.0656871,-0.00802653,-0.00172811,0.0709781,0.0164766,-0.12194,0.032393,-0.0984881,-0.00430982,0.0392519,-0.0574859,0.0873655,0.00595908,0.0321559,0.053001,-0.0242002,0.0678674,-0.0263849,0.0171418,-0.00491516,-0.0252752,-0.0112912,0.080634,0.0226544,-0.0623167,0.0135911,-0.00694948,0.0550072,0.0164831,0.0497506,0.069625,0.00758885,0.0132764,-0.0732541,0.0477367,0.0469366,0.0363948,0.0102511,0.0549493,-0.0466187,0.0157109,-0.035021,0.0657152,0.0581666,-0.00291255,0.0766205,0.044632,-0.0587102,-0.0433424,-0.0567403,-0.0228891,0.00711693,-0.00724091,-0.0636461,0.0306164,0.0105195,0.00857541,0.00134897,-0.0276692,-0.00674537,0.0342492,0.0557512,-0.0290664,0.0115523,0.029651,-0.0307815,0.0449817,-0.0559528,0.0593534,0.0359241,-0.0381172,0.0790561,-0.0547904,0.0725056,-0.0263295,-0.010956,-0.0730534,-0.0539093,0.0317702,-0.0695278,0.0902232,0.0757996,0.0236074,-0.0468338,-0.0256419,0.0119317,-0.0804254,-0.0456974,0.0366319,-0.0109906,0.0579528,0.0543712,0.0772185,-0.00855788,0.0694834,0.0189442,-0.0674859,-0.000108615,-0.00481487,0.0697575,-0.0809292,-0.0222474,0.0509839,0.0921666,-0.0551809,-0.0567424,0.072138,-0.0523682,0.041369,-0.0938994,0.0391742,-0.059384,-0.0737715,0.033341,-0.0361809,0.0492836,0.000246967,-0.0139768,0.0157608,-0.00376325,0.0710343,-0.0171178,-0.0423904,-0.0459496,-0.0226196,0.0405958,0.0303905,0.00539666,0.103215,-0.0385855,0.0677517,-0.0174849,-0.0483836,0.0370898,0.0437806,0.0500067,-0.00203138,-0.00979915,0.0786169,0.0668205,-0.0116199,0.0622236,-0.0252707,0.0196301,0.0488022,-0.066197,-0.0318512,0.0398174,0.0265976,0.059349,-0.0274778,-0.0570652,0.0329641,0.0380385,0.0156737,0.0277611,0.0260477,-0.0346683,0.0282628,-0.0724699,-0.0555198,-0.0714242,0.0443383,0.079064,-0.0447306,0.0212575,-0.00468423,-0.0229897,-0.0625781,-0.0285821,0.0316151,-0.0360301,-0.0664768,-0.0189531,0.0790766,-0.0257875,0.046899,-0.0526734,-0.00130129,-0.0420604,-0.0649098,0.0229989,-0.0385892,-0.0612362,0.0214564,-0.0836233,0.0170987,-0.0177135,-0.00456337,0.0828656,-0.0405735,0.0769516,0.0666207,-0.0427038,0.0155189,0.0433456,0.00461353,-0.0722372,-0.0111541,-0.0121261,-0.065756,-0.0372344,0.0583619,0.035778,0.0275911,0.0907488,-0.0100323,-0.091532,-0.0311939,-0.139341,-0.0269761,-0.0651276,0.0377618,0.0526435,0.0672379,-0.00828337,-0.0655317,0.0602132,0.0665459,-0.0868473,-0.00236875,-0.0652347,-0.0313247,-0.0306971,-0.036894,-0.0120236,-0.0120551,0.105123,-0.0612668,-0.0610579,-0.0695587,-0.056864,-0.0386447,-0.0253846,-0.0496335,0.0248336,-0.0568088,-0.0252496,-0.0201539,0.0640711,0.0160293,-0.000164556,0.00334078,-0.0821962,0.0371415,-0.0331612,-0.0503225,-0.0904942,-0.0988422,0.0938221,0.0773406,0.155047,-0.0395151,-0.0542563,-0.00484622,0.0148831,-0.081785,-0.0703429,-0.0999052,-0.0126857,-0.0656788,0.0292854,0.0368257,0.0657542,-0.0367218,-0.152057,0.0544293,0.0527324,-0.0188167,-0.00482374,-0.11286,-0.0571126,0.0115248,0.0518897,0.105392,0.122305,0.0142556,0.0719045,0.0403779,-0.0839891,0.140392,-0.0785169,0.0662932,0.0782049,0.0921411,0.0504138,0.0536029,0.0916435,0.0435936,-0.0203708,0.0460522,0.0567658,0.0619373,-0.0779445,0.0373083,-0.0582879,0.0683146,-0.0522812,-0.118138,0.0534606,0.0667165,-0.0364913,0.0062872,0.0493918,0.0861418,-0.0265575,-0.11205,0.02571,0.0325469,0.0457315,0.00214796,-0.0380408,-0.0369504,0.00687375,-0.029161,-0.00533692,0.0530392,0.0692124,-0.0384632,0.0199291,-0.0750474,-0.0414722,-0.0069322,0.0893597,-0.0378585,-0.0709936,-0.0930253,0.0429761,0.0241578,-0.0574084,-0.105166,0.00451729,-0.0437189,0.077334,0.0222403,-0.0120697,0.0841352,0.0311598,-0.0333444,0.0521524,0.118589,-0.02514,0.0135583,-0.031471,-0.0279655,-0.0126345,-0.0734787,-0.112784,0.0547243,-0.0224066,0.0462143,0.0194848,-0.0270228,0.0588603,-0.0963013,0.0801195,-0.0141663,-0.0146775,-0.0091331,-0.0636461,-0.0792871,-0.029255,0.0172908,0.0369905,0.147365,0.0634728,-0.0487741,0.0617756,0.0917955,0.049079,0.034703,0.0983329,0.00274688,-0.0310125],[0.0602995,0.00257024,-0.0360851,-0.027162,-0.0732199,-0.0543475,0.0526592,0.0592773,-0.0591425,0.00905317,-0.0298244,-0.0510316,-0.0425015,-0.0766081,0.00137011,-0.0896944,-0.004179,0.0532951,0.0327405,-0.0836007,0.026028,0.070054,-0.051327,0.0777183,-0.038915,0.0601918,-0.0833051,-0.0490037,-0.00982131,-0.0382602,-0.0315105,0.0193344,-0.0658942,-0.00163344,0.0243143,0.116325,0.0204691,0.0513178,0.0712607,0.0335226,-0.011915,0.0111543,-0.026087,0.00783311,0.01137,-0.0205919,-0.0610695,0.0267926,-0.0153854,0.00495867,-0.0722415,-0.0658815,0.0542348,-0.0185169,-0.0257597,0.0414113,-0.0152304,0.0169427,0.0351251,0.0562504,-0.0293207,-0.000369638,-0.0633629,0.043231,-0.0782326,-0.0145518,0.0156888,0.0276138,-0.0177051,0.119792,0.0463976,0.0320106,0.0763163,-0.0479704,0.0311905,0.048767,-0.00522998,-0.0340137,0.0420154,-0.0506572,0.0562677,-0.0394335,-0.0211223,0.150193,0.0301744,0.0358762,-0.0404671,-0.0536831,0.0637385,0.0285858,0.0335313,-0.0404197,0.037526,-0.0322317,-0.0319311,0.0141237,-0.0403254,0.00051575,-0.0559263,0.0725295,0.0363748,0.0419311,0.101215,-0.0263566,-0.0565181,-0.0434568,-0.0567896,-0.00817599,-0.0787063,0.0499254,-0.0248292,-0.0310413,0.0747817,0.0593729,0.0806207,-0.0683067,0.0195735,-0.0800061,-0.00930359,0.0436955,-0.0247555,0.0391967,-0.0689161,-0.0128518,0.0767602,0.050507,0.0158692,0.0016378,0.00758892,-0.0506198,0.00371063,-0.0187804,-0.00206756,-0.0809798,0.00131617,0.0897523,-0.0371203,0.0428942,0.0101221,0.0242543,0.0287868,-0.00706511,-0.0202681,-0.0759538,0.0609615,0.00590812,-0.0336985,-0.0345155,0.0031112,-0.0480632,0.0482544,-0.0580772,0.0395563,-0.00738875,-0.0670977,-0.0646551,-0.00201401,-0.02469,-0.047409,0.0719826,-0.0613708,-0.073325,0.0830329,-0.0652875,0.0152425,-0.079848,0.0352213,-0.00874866,0.031599,0.0544703,-0.0671893,0.00501829,0.0408496,-0.0204264,0.00432725,0.00530998,0.0233265,0.00527559,0.0597402,-0.0393293,0.00432469,-0.0179554,-0.0764779,0.0118294,0.035267,-0.0252598,0.034385,-0.0692327,-0.0655685,0.0126437,-0.00389062,-0.00880765,0.0416387,-0.0337083,-0.0281454,0.0169451,-0.0564946,-0.0177814,-0.062629,0.0710901,-0.0416107,0.00635506,-0.0429228,-0.0126148,-0.0773477,-0.00403731,-0.0489514,0.069513,-0.074473,-0.0741388,-0.011127,-0.0421311,0.0387463,-0.0335617,-0.0721565,-0.0401512,0.0482815,0.00748127,0.0815489,-0.040088,-0.0345324,-0.0471911,0.015341,0.0336863,0.0227295,0.0389858,0.0111203,-0.084347,0.0842934,-0.0385463,-0.0330943,0.0504298,-0.0632703,-0.0497932,0.00470235,-0.0618982,-0.0512502,-0.0303664,-0.0653517,-0.0206574,-0.000288285,-0.0494529,-0.0576187,0.0339482,-0.0817777,-0.0252182,0.00203464,0.0371564,0.0100949,0.0316208,-0.0355129,-0.0297791,0.0548563,-0.0459216,-0.0619841,0.0105156,0.0210286,-0.0596189,-0.0226019,-0.0461133,0.0410852,-0.0647911,-0.0586699,-0.0437213,0.0538464,0.0395116,0.068654,-0.00524824,0.0623063,0.0703548,0.0802814,-0.0275822,-0.0834646,-0.0442749,-0.0139022,-0.0848968,-0.0385465,0.00195721,0.0712977,-0.0472319,0.0158544,0.0386815,0.0206834,0.0726341,-0.0216851,0.0534772,0.00859953,0.092385,-0.0208223,-0.0667834,0.0576576,0.0720335,-0.0652894,0.0618697,0.0790324,0.0478113,-0.0362791,-0.0705528,0.0637704,-0.0752323,-0.0611847,0.0678459,0.0953281,0.0365212,0.0730671,-0.022154,-0.0472746,-0.00248533,0.0602829,-0.010017,-0.0697028,0.0561497,-0.0893886,0.0502075,-0.0754698,0.00449778,-0.0623531,-0.0454043,0.00726625,0.0479042,-0.0352218,-0.0457223,-0.0578392,0.00565713,0.119142,-0.0374172,-0.008498,0.00445966,-0.0922361,0.0385014,-0.0329105,-0.0566014,-0.0529181,-0.0131752,0.0555138,-0.0451348,-0.0647124,-0.023198,0.0847359,-0.063337,0.0532787,-0.018408,-9.63262e-05,-0.046834,-0.000812478,-0.0334277,0.0288434,-0.0386408,0.0503634,0.0158501,-0.0484042,-0.082969,0.00598164,-0.0708012,-0.017303,0.0338959,-0.0303373,-0.0506563,-0.0824985,0.0514648,-0.0157281,0.0621661,-0.0773555,0.00244817,0.00896585,0.0704726,-0.0441916,-0.0884648,-0.0230165,-0.0392282,0.0294314,-0.0469274,0.0477766,-0.0411962,0.0790772,0.0755108,0.0859859,-0.0627992,0.0340146,-0.0179994,-0.0584074,0.0319244,0.00100954,-0.00558071,-0.0247659,0.0723452,0.0636294,-0.0220677,0.0188994,0.0264054,0.0728549,0.0572448,-0.0565088,0.0358839,0.0360217,-0.0200984,-0.00509671,-0.0372673,-0.0487245,-0.0722827,-0.0787662,0.0772198,0.0193821,-0.0294147,0.090767,-0.0458356,0.0267251,-0.0637585,-0.0493187,0.0291949,0.00677483,0.00322836,-0.0237708,-0.00135622,0.00447419,-0.0591816,0.0194247,-0.0543971,-0.0332797,-0.00906108,0.0234679,0.0867403,-0.0617909,-0.0243828,-0.0393193,0.0409752,-0.0050878,-0.0237736,-0.00668296,-0.0720136,0.0559384,0.00371445,0.00875956,-0.00949135,0.073329,-0.0287933,0.0215929,0.0310048,-0.0148095,0.0640768,0.0855867,-0.0800003,0.0799152,0.0695677,-0.00959427,0.0433202,0.0185261,-0.0672337,0.0254531,-0.0319338,0.0684329,0.0135132,-0.0101592,-0.0810271,-0.0694858,0.053879,-0.0455405,-0.00025823,0.00149345,-0.000202658,0.0063234,-0.00519347,-0.0360145,0.0358384,0.044425,-0.0652592,-0.0564788,-0.0341921,0.0251247,0.0513976,-0.069027,0.0246107,-0.0307325,-0.0645229,0.0137581,-0.0806572,0.0874903,-0.0404579,-0.0369998,-0.0399738,0.0177093,0.00036555,-0.00483765,0.0735813,0.0318265,-0.0419991,0.0303179,-0.0497349,0.0195489,0.0396387,0.0060725,0.0592352,0.0335477,-0.00930326,-0.0187441,0.0709471,0.0571173,-0.0125704,0.0337346,0.00277654,-0.0430091,-0.00150652,-0.030254,0.017145,0.0154906,0.059078,0.0745984,-0.0188053,-0.0638307,-0.049021,0.0778128,0.0180674,0.0471991,-0.0310538,-0.0129792,0.0285264,-0.0156914,-0.0442491,0.0790032,-0.00217367,0.0802046,0.0223939,-0.0744151,0.0813456,-0.0784379,-0.0544802,-0.016226,0.0661175,-0.0287729,0.00611765,-0.0495355,0.00878966,0.0613943,0.0361155,-0.0242053,-0.0520008,0.0950044,0.0100802,0.0618643,-0.0457441,0.0370193,-0.0726852,0.0142178,0.0373077,0.0632256,0.0540808,0.0293578,-0.0353473,0.0443829,-0.0123553,0.0347086,-0.0323902,0.0322481,0.00166501,-0.0487522,-0.0131275,-0.0500446,-0.0627714,0.081605,0.0847996,0.0752551,0.0726314,-0.0413245,-0.0149308,0.0490269,-0.00963392,-0.0679172,0.080048,0.0042765,-0.0474671,0.0319472,0.0138395,-0.0528352,-0.00369268,0.0466934,0.0371702,-0.0165604,0.0835688,0.0763732,-0.0429837,0.0290395,-0.000275382,0.00235803,0.0274214,-0.000296513,-0.042509,-0.0768857,-0.0516405,-0.0448161,-0.0686428,0.019535,-0.0453492,0.0368005,-0.0555568,-0.00940084,0.0772142,-0.0206096,-0.022442,0.0527619,0.0596976,-0.022349,0.0322118,-0.0122312,0.0693764,-0.0325193,-0.011582,0.0498619,-0.0775475,-0.0228186,0.0544548,0.0200972,0.00582613,-0.0227568,-0.0755331,0.00741402,-0.00651562,-0.0708056,0.0265925,0.0150003,-0.0109988,0.0772645,0.056847,-0.0728735,-0.0621204,0.000194422,-0.067457,0.04459,0.0119466,0.0735397,0.0498549,-0.0671876,0.063024,-0.0251692,-0.0313564,-0.106224,-0.0748453,-0.0719911,-0.020403,0.0465157,0.0226302,0.0566257,-0.00277845,0.0508078,-0.0802941,0.00575113,0.0456003,0.0686928,-0.0164937,-0.0416486,-0.0523519,-0.00926565,0.0149721,-0.000768209,-0.018205,0.032902,0.0733517,0.0740495,0.0353231,7.5052e-05,-0.0185973,-0.0202288,0.0158254,0.0540982,-0.0647823,-0.0288835,-0.0298796,0.0384301,0.0330369,-0.0681545,-0.0715017,0.0834189,-0.0267494,-0.0518966,0.0807746,-0.0813197,0.031101,-0.023089,-0.0356697,0.0604057,0.00454617,-0.0643423,-0.0245392,-0.0322061,-0.0173483,-0.0578768,0.0904651,-0.0424583,-0.0146985,0.0547187,0.00375691,0.0384904,-0.0338621,-0.0374531,0.0970238,0.0699967,0.0628455,-0.0149348,0.0499426,-0.0357702,-0.0459669,-0.0746621,0.0806457,-0.039512,-0.0849608,0.0652285,0.0367295,0.00892859,-0.0449714,0.0585554,-0.00721102,0.0171199,0.0812061,0.0689932,0.0708281,-0.0165563,-0.0620595,-0.00308315,0.0862165,-0.0129673,-0.0691138,0.00739117,0.0611129,0.0198675,0.025436,-0.0830563,0.0831735,-0.0815734,-0.0497027,-0.0479588,0.0221342,-0.00047159,0.000709405,-0.0493996,-0.0203491,0.04518,-0.0517687,-0.0438055,-0.0103165,0.0720654,-0.00800757,0.0259372,0.0626577,0.0126997,-0.0568478,-0.0363462,0.0797664,-0.0221972,0.0868307,0.00661855,-0.038519,-0.0682479,0.034936,0.0410041,0.0726459,-0.047452,0.00808028,-0.0251928,-0.0119167,-0.0266111,-0.0365125,-0.077798,-0.0640833,0.049067,-0.0115209,-0.0606768,0.0119899,0.0429486,0.0369945,0.238288],[-0.0633354,-0.0641626,0.0445272,-0.0591221,-0.130559,0.0259738,0.0506838,-0.0135644,0.0627141,-0.00856045,-0.0598378,0.0811487,0.0386695,0.0419514,-0.0309951,-0.119735,-0.170184,0.0450634,0.0292805,-0.0985376,0.0212616,0.0312514,0.0755158,0.0592665,-0.0412301,-0.100074,-0.0516058,-0.0831661,-0.221533,-0.0314173,-0.0696575,0.030084,0.0510164,0.00218099,0.00216519,-0.0336266,0.0207153,-0.0501426,0.00294377,-0.0841559,-0.078745,-0.0343959,0.00700345,-0.0655393,0.0625904,0.0424982,-0.0942394,-0.0331486,0.0609255,-0.0140167,0.0616045,-0.0147072,-0.197488,0.0336129,0.0197787,-0.0409531,-0.0310269,0.00486029,-0.0436151,0.0129607,-0.0353518,-0.0239694,-0.123699,-0.14616,-0.232649,0.0472385,-0.0394549,0.114017,0.0821421,-0.0768491,0.0429142,0.010677,-0.00504507,-0.0114812,-0.000296401,-0.151553,-0.0864107,-0.0140055,0.029089,-0.0553719,-0.035922,-0.0540368,-0.0454207,0.193695,0.071789,-0.0796733,0.0685621,-0.0958649,-0.207059,0.0791174,0.0607655,0.0746836,0.045595,-0.0878961,0.068697,0.0804157,0.00235427,0.0295834,-0.0507177,-0.0122369,0.017376,-0.0511723,0.128461,-0.0480167,-0.01282,0.0502136,0.0589326,-0.0208333,0.0224667,-0.0391168,