{
    "meta": {
        "learning_rate": 0.001
    },
    "layers": [
        {
            "inputs": 769,
            "outputs": 128,
            "activation": "relu"
        },
        {
            "inputs": 128,
            "outputs": 64,
            "activation": "relu"
        },
        {
            "inputs": 64,
            "outputs": 4,
            "activation": "softmax"
        }
    ],
    "weights": [
        [
            [
                0.007819952343469466,
                -0.014352300847290814,
                0.058934907275387506,
                -0.07383214396963349,
                -0.07574772625666364,
                -0.07422420022896666,
                -0.0619118347510212,
                0.023264950715519123,
                -0.05595406053296754,
                0.15774701546315198,
                0.01289983784857864,
                0.023572275481163314,
                -0.07669729127891395,
                0.08207281713192714,
                0.01583247628541199,
                0.025931014929657856,
                -0.05399962672263739,
                -0.01921552302463874,
                0.05837081237073179,
                -0.07028598435653563,
                -0.05831066066087962,
                0.07262196500290828,
                0.11899790245355267,
                0.08454926956593171,
                0.030446236226430223,
                -0.0689768854411459,
                -0.013362292214734313,
                -0.04353399209572316,
                -0.11564209398924974,
                0.05203245039513862,
                0.04560195099087781,
                -0.03391185016607068,
                -0.03779754543883075,
                -0.04794789515921153,
                -0.023240512577959723,
                -0.03078684805408946,
                0.06476143176652137,
                0.03971455307014096,
                -0.011654967365892244,
                -0.08486845884010855,
                -0.17541974848517441,
                0.01474442966989457,
                0.05032215453772086,
                0.02114841602162082,
                -0.1045404138092396,
                -0.05811065178538444,
                0.021765549783042727,
                0.08745072187788996,
                -0.06137141806642667,
                -0.07625682520645631,
                0.04352938395377921,
                0.018921267720325798,
                0.04557951781690897,
                -0.09483138564291985,
                -0.04574939787591304,
                -0.02432486162027404,
                0.07027417073730947,
                0.17602353250211075,
                0.08874149459846094,
                0.04933897537116151,
                0.03947435587753477,
                -0.006974426853194605,
                -0.015711820167390783,
                -0.01999703998152307,
                -0.10820190206474023,
                -0.025916914030565483,
                0.07803789466674367,
                -0.10632472103199965,
                0.044195346730616605,
                -0.0904000665859702,
                0.03453480385393879,
                0.06163226389059426,
                0.06009042805551866,
                -0.03920419883764188,
                0.00993772410885543,
                -0.07281537534204584,
                -0.06754904544442672,
                -0.07526095918662871,
                -0.07421004042891602,
                0.024395607429482605,
                0.1463026314739439,
                0.03486129686267415,
                -0.045967832274954136,
                0.1320097494380769,
                -0.03727768695140318,
                0.018928507934739693,
                0.01615959167720688,
                -0.17889374746173953,
                0.0025888338469276214,
                -0.0005543649855033304,
                -0.035092455230997195,
                -0.06136753645691454,
                0.034474351322661606,
                -0.022959933551700742,
                -0.019325926918304755,
                0.13000158867606343,
                -0.02074995790554232,
                0.022805727534967294,
                0.037287834637216945,
                0.0075271942428005905,
                -0.049862279149439734,
                0.04092855395101597,
                0.04244545801847296,
                0.11071059174499802,
                -0.08157698994045355,
                -0.047933705281292815,
                -0.0692936879059298,
                0.020762069112413663,
                -0.009999369198477851,
                0.01984783971891024,
                -0.06624792247780156,
                0.034340350167170186,
                -0.0809979284107022,
                -0.041274206167431625,
                0.12877102193073778,
                -0.015979540740964682,
                0.0430048549239004,
                -0.020350914236158365,
                -0.023148943185641757,
                -0.09851550096554657,
                -0.006800217855957095,
                -0.07250683396315756,
                0.01979832180343159,
                0.0009987903644104795,
                0.0743685458506832,
                -0.05721781190544365,
                -0.012884533746899936,
                -0.011087767887207882,
                0.02303123140984897,
                -0.05415491963709014,
                -0.11529974254883721,
                -0.09368844779037498,
                0.018805965047151565,
                -0.0005421162590826484,
                -0.10118461214382211,
                -0.06194162280778338,
                -0.12959270992935037,
                -0.04390569530374739,
                0.01577467970797473,
                0.10014101269555763,
                0.04252381219292759,
                0.0606266328740204,
                -0.022866604135231134,
                0.09069570712087996,
                0.020100242931881413,
                -0.18042029630719963,
                0.06652663488228719,
                0.09637831941559406,
                -0.00463219351557191,
                -0.13069880922533358,
                0.01126755769693223,
                -0.04966934229422648,
                0.03831588208994483,
                0.026588108888803325,
                -0.06595146180419481,
                0.07682198286557224,
                -0.03537660818911579,
                0.034312291691210556,
                0.06882935713853564,
                0.039686459326067194,
                -0.08840006023194703,
                -0.07372324991197027,
                -0.05052015163693475,
                -0.010353315959528037,
                0.038444561189600025,
                0.0227618758746945,
                0.018642165428514105,
                0.1045427432117601,
                -0.019568805815389115,
                0.03406647700777613,
                -0.011930101388086235,
                0.09832283647018211,
                -0.09026073536002327,
                -0.06808028870980014,
                0.009374863992263532,
                0.013977793184695815,
                0.10955288017554989,
                -0.14151095571280467,
                0.04257569320421733,
                -0.039687019902750684,
                0.01662395316799313,
                -0.03279384707274594,
                -0.0014346783584775426,
                -0.03261892628037742,
                -0.11479394524091717,
                -0.10784303444037514,
                -0.04509502335718197,
                -0.004735209777542547,
                -0.06611869526527571,
                -0.03171056001380631,
                -0.10880365711965047,
                -0.04127542773853476,
                0.0647610086606646,
                -0.00937059167046676,
                0.036704828600547856,
                0.02915486554511097,
                -0.05080418041977554,
                0.06805766761646807,
                -0.032065958988898594,
                -0.11174286381473382,
                0.029939153406066923,
                0.0014356879472108483,
                0.005771007158293743,
                -0.03179694553423439,
                -0.06061354814953376,
                0.06121284832273072,
                -0.05818650000190387,
                0.0734449020693573,
                -0.011526719028755846,
                0.016483921667544584,
                -0.133428383923528,
                0.011946559655343431,
                -0.006466801411318823,
                0.029565258761333556,
                0.0005497711006200799,
                0.055329146756169185,
                0.03967878921516008,
                -0.004871178904027884,
                -0.06606549414308921,
                0.07055924859014698,
                0.08359992483387907,
                0.029520829490926,
                0.08015318897043669,
                -0.08409917390615292,
                0.04903771086572576,
                -0.035217874521389955,
                -0.022954419916783108,
                0.04971293725667923,
                0.012283005552956725,
                -0.03558600739950505,
                -0.05165646272063917,
                -0.002881784186751351,
                -0.010760207325065482,
                -0.07331286593925936,
                -0.04127265364586065,
                0.05598590068461802,
                -0.07013857927267683,
                0.05539545431667638,
                -0.08345407966491594,
                -0.01627309785746478,
                0.016482238218271873,
                -0.0030546431641672455,
                0.12099365475879463,
                -0.012716626342396514,
                -0.1130286181881997,
                -0.02744346046332737,
                0.03540399646920266,
                -0.10032710379744772,
                -0.016841520386469643,
                0.06687854246354918,
                -0.0477825357531978,
                -0.001896281523975756,
                0.033888271799625495,
                0.03501357371314514,
                -0.02481741018848819,
                -0.03186131601455427,
                0.032921580400086095,
                0.037579192033968756,
                0.004587447104876001,
                0.09986953119962991,
                0.09258006943833783,
                0.056103223943203,
                -0.03235894330757696,
                -0.07034705073079844,
                0.036897378982150474,
                -0.038589782886577315,
                -0.04518424519802221,
                0.04120887525445337,
                -0.15985937090425725,
                -0.029314171662231568,
                0.05861047130450324,
                0.09399755899779721,
                -0.055991136631230905,
                0.04136273967165205,
                -0.013360475755937863,
                -0.11670725590416209,
                -0.038859145037783135,
                0.030926104511612387,
                -0.002582689805493409,
                -0.023442196454514504,
                0.030474336927303093,
                -0.053949918344955036,
                0.1678443307570831,
                -0.035202641284660496,
                0.040093704631302296,
                0.041571185841377936,
                -0.024840059118624302,
                0.09560497722030954,
                -0.04903885064203433,
                0.0505353436483039,
                -0.0364185160452683,
                -0.07936179377636472,
                0.03094048896336826,
                0.0029757053283372106,
                -0.06264529766435677,
                0.033556858261075885,
                -0.02096000364072304,
                -0.03623186536402697,
                -0.018336839401212272,
                -0.03758971095705405,
                0.015184681213041703,
                -0.08133171763228335,
                -0.13172197310522718,
                -0.004235529008640623,
                0.0022441132943918558,
                0.0017289750629509194,
                -0.042917726160591356,
                0.08364856550224112,
                -0.016775492261538558,
                0.022113728164449255,
                0.01932340877912419,
                0.12036089240463203,
                0.041681824092768716,
                0.07925964485934203,
                0.022588235374468104,
                -0.0887763668505256,
                -0.11854754779205694,
                -0.0753400763801305,
                -0.04340179810512995,
                0.06051889333489386,
                0.035401345104448353,
                0.008378437538682037,
                0.018679429205492714,
                -0.10659022713623821,
                0.021141625970434192,
                -0.07527772814558664,
                0.02456144383282758,
                -0.08077149314492098,
                -0.07868982826226907,
                -0.003915918038243729,
                0.15137639737620648,
                0.06151068991305525,
                0.031236578182727827,
                0.05528362491353954,
                -0.011365388557836744,
                -0.0495033547948492,
                0.06871093504185664,
                -0.029448291877441784,
                -0.08205963342582367,
                0.01399900633487357,
                0.03365048089982439,
                0.03892934622467872,
                -0.0818537417345868,
                -0.10123047146641308,
                0.0881937092039662,
                0.012448190265282856,
                0.010885377381158738,
                0.06686526481768154,
                0.07328630441921646,
                -0.005408402734988649,
                -0.0818164347545409,
                0.08321602778681565,
                -0.027407078474205863,
                0.049643993974811715,
                0.03710683948477961,
                -0.04321924911448766,
                -0.04888404501194576,
                -0.03911351375315572,
                -0.055541011434485775,
                -0.019540428176686383,
                -0.021954545243029835,
                0.09172734106731369,
                -0.03802505251610489,
                0.08501044095206464,
                -0.05573745198699268,
                0.09338862466453844,
                -0.01405955077946104,
                -0.1308154804486218,
                -0.023197498817204554,
                0.07879089338088972,
                0.05852809651329111,
                -0.05308080417663087,
                0.1455248868321438,
                0.022557364938934805,
                0.048702522538437355,
                0.006928072434991493,
                0.029998783281724048,
                0.04879037411615764,
                -0.11552347812141003,
                0.08516108957687327,
                -0.03057336657994372,
                -0.07751152862673688,
                -0.0011007605288795403,
                0.026808817641859595,
                -0.09179727813440952,
                0.0116177104213412,
                0.0561897491934368,
                -0.12994005735485273,
                0.011139043647768436,
                -0.0587428972825462,
                -0.008015050480528271,
                0.01095048160917256,
                -0.09150202733080784,
                0.053688206473154976,
                0.003931039425914709,
                -0.00947476347397226,
                -0.06483551910828367,
                -0.05148538325595628,
                -0.055253144793494864,
                -0.05686849120664609,
                0.05850524756971038,
                -0.030564276523244692,
                -0.14373922872049458,
                -0.012793672001647076,
                -0.07035795288132252,
                0.003568195187098039,
                -0.010142436947218747,
                -0.028071833457861618,
                -0.06186217271879273,
                -0.00551068024007799,
                -0.024667136278740547,
                -0.0329081511233308,
                -0.008243310478025869,
                0.0600354221266386,
                -0.02265130010561424,
                0.04757601830667675,
                0.06865586486658175,
                0.026079293423419834,
                -0.031898818551065744,
                0.025016632314916562,
                0.10187908259263995,
                -0.028769868744306152,
                0.060162290773774885,
                0.014206093691893237,
                -0.008823749555396531,
                -0.04684775098353271,
                -0.04017659599074213,
                0.08227134055157716,
                -0.04565413767257357,
                0.008732755403364847,
                -0.01382853471003287,
                -0.03949626425472019,
                -0.14321535525622942,
                0.05146625663554343,
                0.10880079694271647,
                -0.03713826495132281,
                0.010133972805296487,
                -0.02243884852604235,
                0.06080980667336177,
                0.023566232115364735,
                -0.03666831756489439,
                -0.1159051709974783,
                -0.07762027965293253,
                -0.058606253760623485,
                0.024756840126972796,
                0.08578469893258708,
                0.0022527338150065902,
                -0.04939142489412426,
                0.0025841609023350273,
                -0.041752896440895325,
                -0.06630134140193993,
                0.11426990607665126,
                0.08307946058737997,
                0.028142724750799878,
                0.012963912878246915,
                0.006838909738063224,
                0.003858438080238431,
                -0.04604425158632857,
                0.0734137152716847,
                0.040215801084634115,
                0.04823750497759418,
                -0.007312071269361421,
                0.011801412607973473,
                0.0013185585136119187,
                -0.007562233892121448,
                0.045852560909707206,
                -0.12885843503240715,
                0.044753289412587015,
                -0.0009312105551077683,
                -0.05438121949188292,
                -0.04313510298188814,
                0.07137912394957716,
                -0.022576080841979426,
                -0.03242861644945043,
                -0.02098974928864979,
                -0.10919819024035723,
                -0.08681008756559389,
                -0.01317987441742184,
                -0.08624807728230474,
                -0.11778599437661637,
                0.09468049704065183,
                0.12127868458791681,
                -0.05796418409136907,
                0.09726004259675798,
                0.0062374624738897365,
                -0.023512014712720228,
                0.13897510576261782,
                0.03293091181899007,
                -0.018279835899501162,
                0.05897467519449562,
                0.02397589346381272,
                0.02638811724975994,
                -0.03442210375106514,
                0.08006854186115744,
                0.061036382304793114,
                0.014276726792776855,
                -0.11327818030791603,
                -0.07345688592593805,
                0.07369802215556381,
                -0.09458983028179843,
                -0.02436424870067701,
                -0.1447833927553746,
                -0.04010339731519397,
                0.004757770454681673,
                -0.06129573872419739,
                0.033114679510295064,
                0.07638727527564496,
                0.03756127584265761,
                -0.10577950185469855,
                0.030953188650598654,
                0.11187461457662569,
                -0.0910813772807254,
                0.045931138145613115,
                0.06624305377664078,
                0.03510356936123985,
                -0.0755294097452135,
                -0.04280584890486647,
                -0.012983120280371558,
                0.05371099217500954,
                0.04511044039764121,
                -0.006022267651486548,
                -0.026169148975744055,
                -0.08775035971500385,
                0.03683469680205446,
                0.08431124595720743,
                0.03475830803534915,
                -0.01755887165993211,
                0.03070256525544924,
                0.12034680587949917,
                0.04912292924928474,
                0.001324527300202564,
                -0.13064626491785875,
                -0.022257648079055795,
                0.0028691961113524204,
                0.06025512163995519,
                -0.05217131530261546,
                -0.09494773840587714,
                -0.09454192573887607,
                -0.03605131682650161,
                -0.03625084211665355,
                -0.08668906018107976,
                0.024809623604192442,
                0.08932563606443719,
                -0.057544671201441314,
                0.01945125420975429,
                0.05561132747620031,
                0.06057520864320723,
                -0.06878259029726161,
                -0.004311223338849356,
                0.00024053878272133598,
                -0.005468468672686144,
                0.0988235365490882,
                0.048610974851806564,
                0.027401064976794707,
                -0.010610092810137126,
                -0.06277069536330443,
                0.01563766847674953,
                0.02017830655633284,
                0.06432509021488382,
                -0.019792777751840355,
                -0.024189807911757764,
                0.0507264912909639,
                -0.04862573568370928,
                -0.10711495419190242,
                -0.09837602417268702,
                -0.05459066677443612,
                -0.010548119990704402,
                0.03539044689654199,
                0.00686420089465375,
                -0.022230241363685406,
                0.001705911579576551,
                -0.06105903327637466,
                0.03748968733867461,
                -0.10266007539362808,
                -0.11594298709217145,
                -0.0923992506662326,
                -0.10463388064502643,
                -0.05896528929227896,
                -0.0535318331587707,
                -0.027812808031157422,
                -0.008927156080986393,
                0.09415156134514456,
                0.00857422335685471,
                -0.06406024655408633,
                0.016190296433421514,
                -0.06530009155645289,
                -0.07841017353071524,
                -0.07934140716835353,
                0.00820283280458503,
                -0.03864861573232867,
                -0.08499898747469736,
                -0.035658394408176856,
                -0.017078495417376695,
                0.06312668861519341,
                -0.020261250542450912,
                0.053278307297294485,
                -0.050397084402252594,
                -0.0199189468955903,
                0.035288644151577925,
                0.012730293552290231,
                0.17119483017789042,
                0.09783561568521504,
                0.029079918342152733,
                0.04465666572343885,
                0.08477209318196267,
                0.064643164338005,
                0.08762353767045013,
                -0.07226010670242923,
                0.045740497364464415,
                -0.021895348428806954,
                -0.0548647234549027,
                -0.01115817666938695,
                -0.05149549876134233,
                -0.029893738178755645,
                -0.0008020087833412535,
                -0.01605776410066699,
                0.07801399333845149,
                0.05630651548028347,
                -0.0028031572298035964,
                -0.09873660382679561,
                0.03645521828519899,
                0.006864844248957751,
                0.01181599507984647,
                -0.01679587973265828,
                0.09381147962415214,
                -0.04983580671083801,
                0.06766382539287251,
                -0.12367724280230004,
                -0.037876206070569574,
                -0.1623084621842821,
                -0.056366150226872115,
                -0.0011900853808999154,
                -0.0011841916333143675,
                -0.18148354020783367,
                -0.14210541837962035,
                0.05274564585742897,
                0.023556804558339323,
                -0.006855000223561194,
                0.039252027163108466,
                -0.019982979058060464,
                0.04446242117442776,
                0.08828032717916143,
                -0.057717939112593666,
                0.011590356228812545,
                0.04056447075202192,
                -0.1595082401863729,
                -0.1382099363190381,
                -0.008142911960310396,
                0.035567444071527204,
                -0.0294662986420205,
                0.10069446409252145,
                -0.08442151961108411,
                0.030488558025935565,
                0.09887832444584455,
                0.033798195578717875,
                -0.04144863980803254,
                0.028120078536925164,
                -0.11215893231733103,
                -0.0874376797778916,
                0.02677045967381881,
                0.023420705632849374,
                -0.06860842478893352,
                -0.10782650063241145,
                -0.021743177503769053,
                -0.018829732748655032,
                0.24544169021094184,
                0.0937355551521439,
                -0.0890211708808137,
                -0.06817889847966958,
                -0.12274857601945359,
                -0.12988341112813617,
                -0.0310292527383449,
                -0.03824984303856056,
                0.06117185750998482,
                -0.03773917514771125,
                -0.041956067510886375,
                0.010328963865839466,
                -0.015707194079108176,
                0.07105582926057345,
                0.0391036967807323,
                0.03772454093872656,
                -0.07581512090707354,
                -0.07056172657082793,
                -0.07409235354382758,
                0.020775286009041175,
                0.03689560029226495,
                -0.11632404606573848,
                0.03277753294884233,
                0.0078486955832451,
                0.05104447841459016,
                0.0770585016127799,
                -0.05899362924760842,
                0.09362727106407924,
                -0.09373766520396995,
                -0.009128156604983608,
                -0.005717877578624145,
                0.07406487619889536,
                -0.017065482909889268,
                0.11979446225135215,
                0.02909237472293823,
                -0.016104620225299158,
                -0.04152632170525881,
                0.0036285424090328477,
                -0.0072543071913185,
                0.06805864879301506,
                -0.13767021590142633,
                -0.05142440758778917,
                -0.07403078680520297,
                -0.025225180652043586,
                0.08159906268370752,
                0.034010764609611,
                -0.030025259362005736,
                0.06068657739793248,
                0.07073788346546832,
                -0.05907150135358265,
                -0.07964427175788641,
                0.017775295838286766,
                -0.07795817351582292,
                -0.032200839750638234,
                0.012110647208078302,
                -0.0008150610029378086,
                0.07369661484265896,
                0.12536432175160872,
                0.054995549659026456,
                -0.056243643109430294,
                -0.07610351051006545,
                0.026053579096380716,
                0.049707291361455935,
                0.002638977503589455,
                -0.005466033428467936,
                0.021628947001531385,
                -0.03062363474714128,
                -0.019154940184969105,
                0.01966534988465905,
                0.09492146997269466,
                -0.09794738411852949,
                -0.029137511484407963,
                -0.12208420890406267,
                -0.04619840682673947,
                -0.02931919751886083,
                -0.016688302417976437,
                0.04701730078940817,
                -0.13561467167043342,
                -0.0802769323153697,
                -0.07329397036234198,
                0.08732983293039523,
                -0.02616401538070886,
                0.1621644788104274,
                -0.02216673969564906,
                0.1284625518991198,
                -0.07108625181495073,
                -0.07390867499109909,
                -0.0383713774086929,
                -0.08186183675908196,
                -0.14533389074687336,
                -0.06497938976857802,
                0.06123194109816461,
                0.011215925285969118,
                0.012374209374148477,
                0.02708599460921404,
                -0.013753517812426572,
                0.09199234690825475,
                0.06731624686501027,
                0.06929528281777884,
                -0.08431047069049229,
                -0.19652891259360264,
                -0.09767947250025426,
                0.03048139286059034,
                0.10445211979340788
            ],
            [
                -0.0206330516771827,
                0.06187142401527865,
                -0.06195641800079513,
                0.002716133270311893,
                -0.03492637668620275,
                -0.1012598084456022,
                0.0752867147681069,
                0.05662699946658288,
                0.033903539211725106,
                0.16182209991367863,
                0.06799967459474619,
                -0.052913681617139253,
                0.013983574832587622,
                0.023531284526963722,
                -0.01745469704265303,
                0.04748731954922676,
                -0.009131818998920028,
                0.06492578646522582,
                0.06631205313639056,
                0.05475441437280851,
                0.020811323942603547,
                0.11691691362845827,
                -0.04855009274270764,
                0.08828108152170495,
                0.061743757380187794,
                -0.0755310079486161,
                0.08109188529119893,
                0.016806935118287077,
                -0.05059491691016923,
                -0.05556933100139572,
                -0.027826462600070233,
                0.06300474477927545,
                0.0705553730330212,
                0.029889470873631148,
                -0.048042376452760056,
                0.034580046105269574,
                -0.07791073046026915,
                0.034411674936107174,
                0.012502124235606985,
                0.025834746831502133,
                0.010848998594179567,
                0.03253930022508533,
                0.010350956234714825,
                -0.06148428204082046,
                0.07831861308800409,
                0.036957116468355665,
                0.07891165751867642,
                0.03936905681748199,
                0.06057592927149212,
                0.08825742334357944,
                0.06590192259695278,
                -0.08422214370168339,
                -0.03067766412800122,
                0.008440406654234529,
                -0.009376076705532227,
                -0.03023254922174506,
                0.04252074793168574,
                0.1117382410653044,
                -0.042585756620376024,
                -0.009672033719806216,
                -0.030038415643746014,
                0.07723134925493268,
                0.07633814531534376,
                -0.036842004039499374,
                0.07509180148652676,
                -0.023833794941722834,
                0.04173182545653491,
                0.07157969792494209,
                0.022424904588000685,
                0.0923993407486251,
                -0.03351864861888444,
                -0.021290727096604376,
                0.04429910688427692,
                -0.043618073969357934,
                0.041371085442505146,
                0.030947132723679615,
                0.0009356856122848408,
                -0.06637860896700218,
                0.02915494647662592,
                -0.02297761817119382,
                0.08803792706536988,
                0.12048775512184988,
                0.05797099835454481,
                0.053460159579237866,
                -0.02266919137275774,
                -0.054332249146955613,
                0.07010947561900838,
                0.042225653986574144,
                -0.08620078564337705,
                0.03917707757896078,
                0.00310050309776351,
                0.021559978151387008,
                -0.034746328735347845,
                0.026994781406151205,
                -0.0039808802931400235,
                0.1217746334966986,
                -0.03652535752322124,
                0.032087220157728975,
                0.05434260870692846,
                -0.03249595623695412,
                -0.09469967504741499,
                -0.02782008143431788,
                0.06735276064214615,
                0.05522997840397686,
                0.048672797665730815,
                -0.003433564463675573,
                0.0921948304443743,
                0.04223818500937506,
                -0.07722779664690632,
                -0.058592399754173075,
                -0.019751988298633096,
                -0.06869989629376436,
                -0.0502246901396635,
                0.08602557575651791,
                0.014785677950370182,
                -0.05356299497017314,
                -0.007632095876457926,
                -0.04254016217762096,
                0.04472792950537962,
                0.11158832058908223,
                0.0661664319165084,
                0.06605349616217716,
                -0.04583834050433984,
                -0.05516052937169411,
                0.09216373625047967,
                -0.08761402883919676,
                0.07478936864930535,
                0.0765977323500434,
                -0.007527135068349828,
                0.02340573329696421,
                0.06442190746320012,
                0.05790389767457062,
                -0.08794435709186954,
                0.01668757665566982,
                -0.09081125499400673,
                -0.006909543569129582,
                -0.01644541852866962,
                0.09347616838147597,
                -0.06263380236020757,
                0.02047168429338411,
                0.009404152753589403,
                0.057008137673694455,
                0.0021471454422227164,
                -0.055618715706799216,
                -0.015148794268880068,
                0.05124908774272191,
                0.00392291362755678,
                0.031363022136083774,
                0.02944395473942517,
                -0.015946047051707043,
                0.06581664685007743,
                -9.460729100768882e-05,
                0.0013300686276504997,
                -0.013763716323057049,
                -0.04732089030919867,
                0.010761526445930163,
                0.10082177787691267,
                0.05972870330365076,
                -0.02466878645567734,
                0.06065093596076535,
                0.05243384675441644,
                -0.09157343330064281,
                0.17067151339095027,
                0.04775538374613166,
                -0.060739971946534285,
                0.12446101548462464,
                -0.0064295905171766286,
                0.08293132760956409,
                0.04323132433167676,
                -0.00902980514642011,
                -0.04943261511247197,
                -0.07110680620564518,
                -0.03912487310820897,
                0.006148061008610662,
                0.010132245819564512,
                -0.08015818845015021,
                0.08943264512510737,
                -0.004722319577863097,
                -0.0442156997350021,
                0.14690887469065989,
                -0.021030930027772062,
                -0.04503897036078483,
                0.08415435709083256,
                -0.12161118803919288,
                -0.023750663633821743,
                0.07882177952836572,
                0.14071860302546144,
                -0.06356972630676332,
                -0.00260604840998413,
                -8.709853689352302e-05,
                0.02660260209596811,
                -0.016339122024579444,
                -0.06266883007239973,
                0.004836247305716685,
                -0.039993541313262715,
                0.033719790918133666,
                -0.032059999119396984,
                -0.03028894631499442,
                0.18101685358347372,
                -0.015079044060271284,
                0.07352924943295061,
                0.002132753900710496,
                0.045495049519985384,
                -0.0503156480070016,
                0.0968238529966981,
                -0.023894600396006507,
                0.027900039393935514,
                0.05042752633910255,
                -0.06141825260286139,
                -0.017707905169538518,
                0.2021910711691546,
                0.03760655311012508,
                -0.02893808566068492,
                -0.007057475721073212,
                0.0321112042255345,
                0.029051722330272697,
                0.07305864552089597,
                0.024907499996641113,
                0.008013068590113104,
                -0.007476497932118396,
                0.027365920441604057,
                -0.05379885946453821,
                0.033046113115684284,
                0.07712522671135229,
                0.05404163865408618,
                0.04298675104508856,
                -0.06577334843174538,
                -0.058497604052641934,
                0.02773171323960656,
                -0.0677326519037394,
                -0.026109427942717308,
                0.06461798091272843,
                0.03219679136212522,
                -0.00018635441325102662,
                0.05865947183032348,
                0.015553279709696015,
                -0.031929559537869634,
                0.07493994166688084,
                -0.002213306883176458,
                -0.04811596714072501,
                0.05651889560797869,
                -0.0022366386496589434,
                -0.08545367093780906,
                0.07628960544235226,
                0.03745794668563562,
                -0.07360406987058467,
                0.13705519200943322,
                0.03589383736023881,
                -0.004226153442763674,
                -0.01973867670420396,
                0.0053345099623020465,
                -0.053485168514308755,
                0.10842096943796038,
                0.07378327529692043,
                -0.057782947950351514,
                0.024049455943003974,
                0.05031985629383871,
                0.059832755511495236,
                0.10639727031211685,
                -0.014558906298985123,
                -0.05198003322555692,
                -0.027379987431655775,
                -0.061231420278717294,
                0.06547005785251193,
                -0.016401197069590062,
                -0.07652385150315928,
                0.06426890110602763,
                0.002419696760990101,
                -0.06133886922290319,
                0.06713443706029315,
                0.22456020549814007,
                -0.05361191471670231,
                -0.0745865364956466,
                0.048401684598332766,
                0.10750373450638306,
                0.07747830178608091,
                0.06803769073262683,
                0.00554768001612705,
                0.07504021655945423,
                0.032212524919792554,
                0.062461878599119336,
                -0.03444946843420152,
                0.05450540409842525,
                0.04899137814963516,
                -0.0036494937223012646,
                0.09623867201428499,
                0.008881374215924795,
                0.051106855761629356,
                0.05068972156485546,
                -0.0570971469528718,
                -0.062091086817719195,
                -0.016684305383229594,
                0.07338913040616023,
                -0.04500759642576799,
                -0.021580064050193516,
                -0.008439128773950772,
                -0.0239477564515565,
                -0.057837623570308944,
                0.014121167575502762,
                -0.04804565287315526,
                0.0370951844833112,
                0.013326571944452607,
                0.09075313939768374,
                0.053215901700848486,
                0.06769484713131695,
                0.025973376113621174,
                0.16568918915176514,
                0.027053575632498945,
                0.04604938079021763,
                0.05494327390548973,
                -0.02429693896610668,
                0.0814186844226756,
                0.03129958034967688,
                -0.0503351767535256,
                -0.06662559069755672,
                0.05434606349563724,
                -0.006386657489954256,
                0.045911322011751236,
                0.08459661012125332,
                0.029979252916089275,
                -0.00402961620911627,
                -0.04315897508994136,
                -0.018242942966354436,
                -0.018771631399302602,
                0.010787324919041828,
                0.028462469664720567,
                0.003515194102046119,
                -0.031420156184198474,
                0.05877547341621096,
                -0.061145819054204006,
                0.09875853110687939,
                -0.009827562920952146,
                -0.07431906218275867,
                -0.05216068864169039,
                0.06000556980211268,
                0.032967923909583655,
                0.005820552474808095,
                0.0922161166915033,
                -0.0176872283421143,
                0.09343386402009805,
                -0.010871525048434985,
                0.029365618536509742,
                0.02442304201248071,
                -0.03706947657339927,
                0.004387062637363756,
                -0.06040112997482683,
                0.07479356199255308,
                -0.07874467315047275,
                0.09238326233776953,
                -0.07517009543186615,
                -0.03677118607817006,
                0.03858100734253317,
                0.02246767495269796,
                -0.03650929324464944,
                0.01248363105254483,
                0.002253664688393889,
                0.06983231297238736,
                -0.07385287524072877,
                -0.02153544179332789,
                -0.04265554480610519,
                0.0940229414226995,
                -0.016865882183841233,
                -0.004576280116888574,
                0.0470691853607846,
                -0.040273157485947515,
                0.022165832899843564,
                0.08086478958904006,
                -0.03524938153671921,
                -0.009889168718249403,
                0.06562870890069276,
                0.004035527980470727,
                -0.02850953400325475,
                0.061669426412316444,
                0.058239623825630325,
                0.055596991253486217,
                -0.038769281303061016,
                0.012211614976339182,
                -0.01550622485147353,
                0.057939379724486914,
                -0.0018666640972171422,
                0.03228321168876639,
                -0.05202393643855751,
                -0.043734799400063175,
                -0.04044170181513467,
                0.13816283465012763,
                0.011915156717944513,
                0.018072831778511253,
                -0.06904331059226645,
                -0.002317470083057347,
                -0.04383776812061411,
                0.000837646480836159,
                0.0634144942416242,
                0.06906886897671387,
                0.062420743688589304,
                0.04686280400271754,
                -0.05660655713648697,
                0.06909255484665511,
                -0.011089694449793568,
                -0.011187633230036107,
                -0.019260121319589946,
                0.012984266575847139,
                0.012233312325358712,
                0.04647055023760263,
                -0.04701022516748513,
                0.0355061879780865,
                -0.0772753205694762,
                0.026134799375316237,
                -0.08154756561611202,
                0.16426768641325748,
                -0.014458020233238573,
                0.11936447759658228,
                -0.04315875229670205,
                0.035340000768143115,
                -0.06031219538096934,
                0.12289659415486588,
                -0.056032477093582986,
                -0.06688619836092136,
                0.04233677333482172,
                0.016302315790463623,
                0.0400080304533677,
                0.08048341150607231,
                -0.0426275383228111,
                0.08745105603842657,
                0.05058432595906021,
                -0.01135339607513441,
                -0.011375109802506238,
                0.13313337153330868,
                -0.01261056711435927,
                0.008436679291930836,
                -0.026138442510082384,
                -0.014331642380185574,
                -0.024355112992460973,
                0.12098938067877392,
                -0.08229270922680916,
                -0.07268613577319082,
                0.037745061412279804,
                -0.03632877008212385,
                0.01743961567016642,
                -0.020157095882836235,
                0.010398753783599867,
                -0.01051964968683629,
                0.003283327358338839,
                0.06560167962771078,
                0.060140404531666435,
                -0.020483841816228726,
                -0.02900920892691458,
                0.01899491389217989,
                -0.04525851965488378,
                0.04026238020091523,
                -0.016403308147898775,
                -0.04143389457287091,
                -0.09855852666907167,
                0.01874434557890601,
                0.009260176782281733,
                -0.017330825057650504,
                -0.07067177669905098,
                0.11637287950132232,
                0.02940901497146062,
                0.041357948641753815,
                -0.028752638178054794,
                -0.04181912620395803,
                -0.018674580213340584,
                -0.04354444563849972,
                -0.08073933486723545,
                0.03327397876314905,
                0.03932322409297385,
                -0.014733471304251117,
                -0.010920282435948428,
                0.022628470831728403,
                -0.035532887175576545,
                0.04317572421750972,
                -0.03984559129673164,
                0.006561334445475001,
                -0.0338692096658575,
                -0.07111955826627628,
                0.04830915879121343,
                -0.033574393778438065,
                0.04634748053780256,
                0.06200503594701681,
                -0.03640828192254115,
                0.2166509690786161,
                0.04346927426745429,
                0.013903111152797814,
                0.02993202669477449,
                -0.02017646630787922,
                -0.08668996839645239,
                -0.039991231231020344,
                0.03389997122821513,
                0.036748463592671365,
                0.016298649176149305,
                -0.012805506490523198,
                -0.014653223515508898,
                0.018910892400651354,
                -0.0016617003131821236,
                0.016807933531321588,
                -0.06037517560445273,
                0.051118379508136684,
                0.07611733485307781,
                0.01346519708591471,
                0.05273972036954833,
                -0.0070026450875613645,
                0.07999062526618266,
                -0.030041896331542476,
                -0.009440721942758919,
                -0.028946853913863035,
                0.017430736007081584,
                0.022079663755309276,
                -0.02283371938428808,
                -0.009172017900754281,
                0.06671985099892169,
                -0.05241917004914691,
                0.001920179728009018,
                -0.04164893445598959,
                -0.042421867300230134,
                0.033694284931730635,
                -0.07477746213264254,
                -0.05709416742793681,
                0.05581049268853468,
                0.02397648186143882,
                -0.013670687280498693,
                0.04499828766798986,
                0.0694768777566265,
                0.017956024163890177,
                0.0028064240744362676,
                -0.06327146119473757,
                -0.014121160689115952,
                -0.024467601569778532,
                -0.05935029180131953,
                0.05606792202529635,
                -0.0701922154653223,
                -0.07521471359784127,
                0.01684710586030949,
                0.050852389216169164,
                -0.021372250106143933,
                0.022166442206211293,
                -0.028815116390452807,
                0.02759540616447639,
                -0.037706616066697354,
                0.03383830435181012,
                0.0933060949601234,
                0.10702284053961887,
                -0.04891553626422655,
                -0.09443696523718571,
                0.0549487842750269,
                -0.036931902773592,
                -0.08206638350947476,
                -0.07439608488852428,
                -0.021481313185226048,
                -0.06141397738445936,
                -0.013226513294180843,
                -0.020783189180483996,
                -0.005136979769909434,
                0.2065825453143159,
                -0.01936535220883203,
                0.0752570763227852,
                0.05062809656991644,
                -0.06045755707135777,
                0.07669251033850245,
                -0.0679030213417842,
                -0.0732761990250759,
                0.02326797956616435,
                0.007039235702993665,
                -0.029880059508523123,
                -0.004084384571226557,
                0.04006668486922161,
                -0.04549201671294618,
                -0.006234605646418755,
                -0.04777656079572172,
                0.06511757975712668,
                -0.012172600017294987,
                -0.019708506486875395,
                0.06853272373133318,
                -0.01757926688960789,
                -0.010575466813282709,
                -0.061738751530424026,
                -0.023179292768424297,
                0.10947609558278373,
                -0.05628660732688528,
                0.0772866542988734,
                -0.06479433577839491,
                -0.033602292592303275,
                0.05799488936132053,
                0.02758902206090062,
                -0.033255346771877095,
                -0.0041498459096280345,
                0.03821661969361237,
                0.029722001801277036,
                0.006434362314914945,
                0.18456730486500617,
                0.06199825291782982,
                -0.03506775744641821,
                0.019872439180005138,
                -0.010226667015990553,
                0.014140873938837367,
                0.033870507924192564,
                -0.09437288993454875,
                0.06302922714749577,
                -0.0049522700856589235,
                -0.014333248180277936,
                -0.06336834442501206,
                0.16257366016512623,
                0.04998866234712047,
                -0.04147115458298121,
                -0.04787677097663981,
                -0.03838383676551035,
                0.04367749642801096,
                0.05367721943599893,
                0.04676205413332932,
                -0.07363454738594866,
                -0.046778350924789824,
                -0.07502027126129598,
                -0.08047785854045704,
                0.02702603131934713,
                0.09238892390467057,
                -0.073303322188988,
                0.03850136339218498,
                0.0803496966947942,
                -0.012168577186111022,
                -0.08360452159985059,
                0.024616141049940785,
                0.005433982805069311,
                0.021937562532121778,
                0.07821227361567777,
                0.05003242426182084,
                -0.05844500282435713,
                0.04806923537835111,
                0.10086547028600285,
                0.017463243754525373,
                0.03254092985207862,
                0.13153862263054622,
                0.08208992402811888,
                0.029244916843269603,
                -0.03609313899726908,
                0.02949964905444735,
                -0.06420228485638492,
                -0.014098657668381843,
                0.2700084662649341,
                -0.06646141683766349,
                0.0193804272959204,
                -0.001960144437615639,
                0.02966247803475431,
                0.043209113112019686,
                -0.010045518947332339,
                -0.012887144788538635,
                -0.0023201075921247508,
                -0.11918219389388411,
                0.012266589392519803,
                -0.03755963843693544,
                0.1724073034219923,
                0.0038619866974521732,
                0.03148980694555068,
                0.0012435074753433316,
                0.06912735834195385,
                0.06058539896531022,
                -0.018860882150375673,
                0.07802240131586942,
                -0.09257530592618737,
                0.010268163823298955,
                -0.13326808059811984,
                -0.02701103388521677,
                0.14851476445836237,
                -0.011719424446725307,
                0.022436367136144986,
                -0.054214938053941626,
                0.023091751787337186,
                0.11934862214129692,
                -0.00518215823506548,
                0.07324546188460329,
                0.003658231712514589,
                -0.0380199389139281,
                -0.03038197581978272,
                0.09211698386550812,
                0.0001518316879729198,
                0.045202052892988835,
                0.06831460705873989,
                0.010341316752023497,
                0.017998858587437234,
                0.024179163362904682,
                -0.06521483982749557,
                -0.039970079849311106,
                0.0037213164339688714,
                -0.04839922306150232,
                0.017383628028890676,
                0.050191936480898265,
                0.024199991334836718,
                0.054339890269956274,
                -0.0019488354002452615,
                -0.0427503961911275,
                -0.05415311978338702,
                -0.007734890255712459,
                0.021618003490504176,
                -0.08589482988095476,
                0.07010602436272881,
                -0.06756078069061902,
                -0.02002851493797699,
                0.004520614295356465,
                0.03631739084917994,
                -0.04665698272213781,
                -0.04875120080695411,
                0.06905257483886872,
                -0.04928786226116393,
                -0.056908074222644614,
                0.06506903254564224,
                0.0333969884692084,
                0.06073102662978425,
                -0.06182103423792617,
                0.0711357374167214,
                0.019414897193469272,
                0.08006054803952643,
                0.09131699556088282,
                0.06654317349249728,
                -0.05350793993409944,
                0.1042815559149986,
                -0.0686180188582469,
                0.07081987037071448,
                0.02238291257951441,
                -0.0016728237043073069,
                -0.055456237764773916,
                0.027170959303499144,
                -0.10517704201849919,
                0.04646965674040264,
                0.055352409960193284,
                0.009632900178664944,
                -0.005296049365822935,
                0.004128887447074539,
                0.02560306643282038,
                0.03155913488921684,
                0.08299936814610887,
                0.045874578837710074,
                0.03637037205057505,
                -0.03971503045324255,
                0.01322453341164736,
                0.08172419260389226,
                -0.05844154311099508,
                0.053452641620041756,
                0.041333952763155546,
                0.04251818115299875,
                0.0065326494363636845,
                0.06861192456909777,
                0.04075567386054577,
                0.04741614891900887,
                -0.06674727228516043,
                0.0973959079294221,
                -0.01828921334832806,
                -0.044395658795621275,
                -0.07118083678587762,
                -0.02031590145854182,
                0.09755750269694259,
                0.011382370327693405,
                0.21197021962186724,
                -0.05414430769038424,
                -0.043430600629383996,
                -0.0690873147935865,
                -0.03205775296647743,
                -0.027025513753232824,
                0.03762948924258515,
                -0.04852984239726804,
                -0.07672563324165872,
                0.010989095035689121,
                0.00876523323728589,
                -0.04034552999257989,
                0.08364588161296392,
                -0.01199260655231102,
                -0.08250776994538593,
                0.038032322691215315,
                -0.09267518342883954,
                0.02255159051846606,
                -0.05448442734855273,
                0.2659639471495575
            ],
            [
                0.017826565102263547,
                0.024337754156402682,
                0.061517782183687884,
                0.0009363125921666954,
                0.011708007253195065,
                0.045395377578045584,
                0.058147706583785305,
                0.06483856834542473,
                -0.0753892814113409,
                -0.02857001859731221,
                0.058301044595127555,
                0.07856340350154112,
                -0.013426789469449307,
                0.05714756013707956,
                0.050977596754311384,
                0.02071312365409231,
                -0.03815688282385089,
                -0.06946050981726937,
                0.047837897252770004,
                -0.027030388190397808,
                0.04164502147185545,
                -0.018536059124281776,
                0.06368098526377043,
                -0.06911695308750142,
                -0.01486361852937114,
                0.08734057136451816,
                0.05633286211720286,
                -0.024385633345254402,
                0.054227669907324805,
                -0.02319676688784625,
                -0.024391657590734604,
                0.028307912749765737,
                -0.050047457956498016,
                0.01289193313297441,
                0.09296987316200042,
                -0.04154217384448921,
                -0.034569498531007735,
                0.0852653620425189,
                -0.033224456178731814,
                0.03687466633075682,
                0.020593603004984973,
                -0.030701013729713917,
                0.0031135509900112046,
                0.0744493064179981,
                0.011007899844282482,
                -0.03683651923428834,
                -0.0704258063720235,
                0.03515638768906514,
                -0.057390269117321285,
                0.03332032221319442,
                -0.007209564879572338,
                -0.053178428267707814,
                -0.0297240907294592,
                0.012953851903549486,
                -0.04847513949596679,
                0.07583302161735919,
                0.00928516312942083,
                0.015497834756549473,
                -0.008018400284680849,
                -0.08407017486150827,
                -0.04675126241955905,
                0.027422714597663912,
                0.04319645543358204,
                0.044137050425385294,
                -0.002878078666350722,
                0.023275642927506602,
                0.032927482159418806,
                0.09564055645480979,
                -0.051208861994702363,
                -0.10739031500646393,
                -0.08538040093313337,
                -0.003487675981188999,
                -0.03149471988278314,
                -0.06325315718828717,
                -0.05594395998194624,
                0.06396929305237067,
                -0.010138586578998927,
                -0.023737734060649066,
                0.026355611244383015,
                0.0023176395491599656,
                -0.0779960150793914,
                0.01860986864783093,
                -0.0412041374110648,
                0.07922887882463954,
                0.055485293945235534,
                0.0047630829562162694,
                0.039317869761919096,
                -0.03197805494404997,
                0.01028616986931587,
                -0.04276128886515143,
                0.0027736678205343424,
                -0.03773562276155012,
                0.010202768823881445,
                -0.028147936290560355,
                0.0064923613712265975,
                -0.13063337571101521,
                -0.021818311997468757,
                -0.007629438932064736,
                0.08259271734024085,
                -0.0007648712134805176,
                0.009670513599540008,
                -0.027975085069143993,
                -0.0309874461567095,
                -0.029223768156837915,
                0.024410368488408524,
                0.058903769929011564,
                0.033011536453881545,
                0.05002562304476213,
                -0.06989975143116467,
                0.023527797413268894,
                0.028670555839940826,
                -0.059736500462213626,
                0.07957773048641494,
                0.03358673519181982,
                0.029912366303700283,
                0.03522143438270768,
                -0.03794198231304224,
                -0.02377553379702019,
                -0.06630969202617325,
                -0.08648997382903646,
                -0.08734560585381246,
                -0.07605442034429968,
                0.07016954401572273,
                0.02429597143849922,
                -0.07672563413889456,
                0.0028534884073107983,
                -0.06635529539618619,
                0.011463266765816101,
                0.01252580856270484,
                0.0783087276588993,
                -0.0024343526609719845,
                0.044559372747121954,
                -0.024951374657987288,
                0.06364234451413435,
                0.06994983826877704,
                0.06520922717898776,
                -0.08199327570887359,
                -0.031170100556246902,
                0.03128096853798465,
                -0.03658838552501999,
                0.07615797930149147,
                -0.012703019660590106,
                -0.031829229048242806,
                0.08226546248474013,
                -0.020302248275180523,
                0.08893468571955804,
                -0.09460458209332714,
                -0.04186944123642999,
                0.06574564398674992,
                0.012414319759472523,
                0.05085644871814167,
                0.027015658504016812,
                0.08660300971202248,
                -0.02092243298083483,
                -0.037916893749559956,
                -0.05951383697554235,
                0.06666939992104402,
                -0.08376883940945495,
                -0.06219703708724136,
                -0.021162958244307157,
                0.1138976715187219,
                -0.010362210289021618,
                -0.027170924318810494,
                -0.04512457913784871,
                -0.03057204408856465,
                0.08326195365350034,
                -0.026992652761902814,
                -0.062045908007434425,
                -0.08518796163023738,
                0.07860288295799647,
                -0.07314718119956105,
                -0.02423628598851921,
                -0.05637173760825957,
                0.008179650025889367,
                0.017437517644872332,
                -0.017557635265090965,
                0.006371115234400785,
                0.02939289089768021,
                -0.07086382560847822,
                -0.03200981215406941,
                -0.004036550970885807,
                -0.009287286676165043,
                0.05972326775780144,
                -0.0081186432947284,
                -0.05713390207628735,
                0.05150149444900658,
                0.06028999073875727,
                0.09039281173495722,
                -0.04333882070178229,
                0.06662846232470468,
                -0.07611315221896803,
                0.07498915230505322,
                0.00967584142648691,
                0.027057019673981622,
                0.0040685854269685824,
                -0.060871515792494384,
                0.06724173949447873,
                0.028208574524248523,
                -0.09115250283342077,
                0.042196522624664765,
                -0.03871321173422892,
                0.05078702802272517,
                0.0005474390066300683,
                -0.021687940702495297,
                -0.002500049597378666,
                -0.026835049756789818,
                -0.0014951581315452939,
                -0.046062278312251924,
                -0.02612710143064522,
                -0.07702439664240442,
                -0.045338125164880505,
                0.04586011578395499,
                0.029535245835209053,
                0.03850654276106358,
                -0.011443248173297947,
                0.06478388243021725,
                -0.008953860006204075,
                0.051121083093015725,
                0.03385908736966029,
                0.003230505332187191,
                -0.050936504097182596,
                0.06940796587214072,
                0.005516449356512576,
                0.04884880423323892,
                0.0002646589146069512,
                -0.04003294935942483,
                -0.007888730301894074,
                0.08184699973595025,
                -0.01705074833761748,
                -0.001150204600899748,
                -0.06042376580651947,
                0.011079893809032232,
                -0.046579783665170536,
                0.0401698497807606,
                0.05524870002055896,
                -0.07097301010420876,
                0.04137102529694031,
                -0.08238651282558972,
                -0.029013399142395018,
                0.062264414913559225,
                -0.06180267250706645,
                -0.009235364327052263,
                -0.06335503416151737,
                -0.04916614157302979,
                0.009038182877037013,
                -0.07112391653985325,
                0.02046286320936119,
                -0.09426641510990788,
                -0.04385307379027547,
                -0.08433099367185955,
                -0.004982244054216062,
                0.01637573421392582,
                0.07948313649359597,
                0.10443301082090578,
                0.04780044719439013,
                0.06739281243233061,
                -0.022271028535369056,
                0.036582120880572236,
                0.08103436959960468,
                0.014398153611634303,
                -0.07853599121428738,
                -0.039502360569777656,
                -0.04364234856526349,
                0.026264588904490085,
                -0.04492788726026557,
                0.0817076813893586,
                -0.030231714941360937,
                -0.015073671957489553,
                0.054858219750659326,
                0.02088818730906637,
                -0.0012864156511889235,
                0.023625360129622398,
                -0.023936569666752342,
                -0.022869354000677956,
                0.028967641145799652,
                0.03967100173140811,
                -0.10516529623838182,
                -0.009993304318630882,
                0.033667299652359296,
                0.06877986149798554,
                0.023530292360632463,
                -0.0764612479575126,
                -0.03673265402840459,
                -0.021769484828459987,
                0.023741211199619246,
                0.0024633075010494,
                -0.1038048690604497,
                -0.11629126835343516,
                0.08784414698380916,
                -0.04701564598594266,
                0.035587859072442815,
                -0.08233039824105777,
                0.051412974448309,
                -0.021166909936183326,
                -0.08445908742578018,
                -0.011599127956390471,
                0.04762364039193043,
                0.07506862129658091,
                -0.04598910520461004,
                -0.008257770850409706,
                0.009741513064448265,
                0.07314192049199393,
                0.05104614804276672,
                -0.04382622627377056,
                0.047025111872888055,
                0.04599960458167544,
                -0.0991601977557365,
                -0.06281251843471312,
                -0.03497098215206357,
                -0.03145552255937142,
                0.07518080496631879,
                0.04330938925644839,
                0.01244450759825432,
                0.04882783488465366,
                -0.10735902255918818,
                0.07123201042672242,
                -0.0617242808740102,
                0.06341747348577609,
                -0.050172921506899934,
                0.0019137074874286493,
                -0.05028230570774638,
                -0.048569885645412265,
                0.059149209839615,
                -0.04433226397347772,
                0.050531470250621296,
                -0.05368589671852486,
                -0.04444123390296788,
                0.05686850108535225,
                0.06301573540731512,
                0.033985034344891904,
                0.09585771599984907,
                -0.02045988505008623,
                0.05088579996466788,
                0.01661387049044626,
                -0.027191372970864925,
                0.03517947934704661,
                0.03476631903037198,
                0.061897675322960505,
                -0.020710290854526733,
                -0.06202223954202645,
                -0.06679790982777624,
                0.07019517621449779,
                -0.006625573181325952,
                0.01394453416119728,
                -0.07981957409416825,
                -0.03535210322822743,
                0.05756167422774362,
                -0.03536864422541417,
                0.05781602884424027,
                0.02772547690282493,
                -0.026130755867808025,
                -0.016820335128776176,
                -0.027429407639809653,
                -0.026927312869876516,
                0.018545233518078127,
                0.07377205194239922,
                -0.05025707184063521,
                -0.03523462034472181,
                -0.0626805577003692,
                0.05109881934202136,
                0.031291452576087765,
                0.0822489734709961,
                -0.00036145086295510855,
                -0.034225357416499444,
                -0.05544842531676415,
                -0.011095314815965445,
                -0.07174597729891388,
                0.05288120555162728,
                -0.07323824328171716,
                0.07698196189091877,
                -0.019815544539433332,
                0.004721506785091789,
                -0.014693528204466977,
                -0.04654976059934808,
                0.00034787465680403864,
                -0.08332066535126913,
                0.019352108237139242,
                0.03179549413792295,
                -0.048028262063680695,
                -0.0774403069446578,
                0.05340167182151318,
                -0.06115086048227976,
                -0.0071128646122382445,
                -0.09849167456846684,
                -0.007719554951961055,
                0.02189095189414169,
                -0.08115597657514145,
                0.03321145020205225,
                -0.07119584738191549,
                0.029500838839852876,
                0.06027972608980774,
                -0.012607252284112181,
                0.012017285429647993,
                0.057826244324822376,
                -0.002806387929745727,
                -0.00037658352570967045,
                0.0832739365046946,
                -0.013843362557405956,
                -0.04505045477624863,
                -0.009326760930879573,
                0.04087231404075078,
                0.03963887662638332,
                -0.09247144197088429,
                -0.013821899688993302,
                0.07140672703117222,
                0.015193984800599938,
                0.09895587980885011,
                -0.08325698038068557,
                0.010481146621966777,
                -0.05733420699061058,
                0.07954129400768917,
                0.060280186329282615,
                -0.07790215289242954,
                -0.02696171631207351,
                0.06276801382973465,
                0.04111731011291024,
                0.041814046699766835,
                -0.040117708099795125,
                0.004222983386769496,
                0.04751137760148525,
                -0.017007348348867753,
                -0.03041637371001378,
                0.062014276223246234,
                -0.03595515282320949,
                0.020975638622152872,
                0.023858325930121885,
                -0.04830244054682454,
                -0.05058815867419488,
                -0.04687057967169539,
                0.03903553449460159,
                0.03344211079483553,
                -0.040541567959984065,
                -0.019900772691297017,
                0.04609269536542536,
                -0.04571681157117302,
                -0.07608168866433822,
                -0.0006451281390411393,
                0.05729413108596041,
                0.017952894728722447,
                -0.0756762263089035,
                -0.07986551876456566,
                -0.02199028719553524,
                0.05353984977481169,
                0.008034568140924235,
                0.024016513456758516,
                0.06854734179443026,
                0.0061294177847249776,
                0.07039925531099203,
                -0.1052865482722152,
                -0.08545892076607998,
                0.022708039746345814,
                0.03017607580676231,
                -0.09219277583586877,
                0.11478148283980331,
                -0.036323021797341024,
                -0.04617247074509233,
                0.031430854931543496,
                0.005476972923779015,
                0.08308017514231661,
                -0.06474779340276637,
                -0.022061975130350405,
                -0.028244565845855593,
                -0.0513996144392254,
                0.06917720392700825,
                -0.08205619317920507,
                -0.055210720793770644,
                0.0015398633154382348,
                0.0563530121616516,
                0.10045534256198463,
                -0.0733942823260777,
                -0.06113097298093676,
                0.0014143037568640291,
                -0.04944320147454302,
                -0.013481418282480614,
                -0.1094728545704259,
                -0.05754713692064174,
                -0.04527048607527867,
                0.09730481709270847,
                0.03519356057632982,
                0.002043633024199734,
                0.13579666505704857,
                -0.0038654615544876456,
                0.0815113688050393,
                -0.05935357728411047,
                -0.035676171708249174,
                0.10199949653870494,
                0.07489575723793525,
                0.04193186656101446,
                0.06361711095615355,
                -0.007946290529037182,
                0.06887040417479606,
                -0.04999791482843311,
                0.05393309353439506,
                0.07651317215944517,
                0.014163489493588453,
                -0.008717022906240683,
                -0.01962790737969195,
                -0.03898485476365169,
                0.031916570031361655,
                -0.048977871576262384,
                -0.07566452375017142,
                -0.06128112026809528,
                0.07264858731662065,
                0.013858359836153156,
                0.08675292917693901,
                -0.053311857374117914,
                0.05123050467737797,
                0.07621341359113212,
                0.06969786352411551,
                0.07732115735568175,
                0.01641039426752105,
                0.008822440181690762,
                -0.07411758475006988,
                0.07227025005251221,
                -0.010045589440004674,
                -0.056530443463084924,
                -0.04352795496912682,
                0.026428192946749238,
                0.0217319565540512,
                0.06626126198918705,
                0.033502230958694014,
                -0.0772720655363018,
                -0.012620022702368408,
                -0.058581971236160095,
                0.044837648182547644,
                0.018390871020705562,
                -0.04773295924551489,
                -0.0611108840711882,
                -0.052398652103201486,
                -0.017411062475390218,
                0.01271643679444597,
                -0.04094939117771308,
                -0.0036105572659118194,
                -0.011691158595777958,
                0.07625530840106101,
                -0.038650409174745166,
                -0.06244091340822873,
                -0.10087450577107081,
                0.010577993124629159,
                -0.056726767121211254,
                0.09662133105988516,
                -0.06456556568632076,
                -0.06563327753031144,
                -0.021398775824970722,
                -0.09575499106862255,
                0.07636493500220469,
                -0.06092557008098152,
                0.016089918448669315,
                0.017776677492745883,
                0.05679968909848934,
                -0.05577099707232324,
                -0.030063318091975134,
                0.013002434426032449,
                -0.01098912125746618,
                0.08555346739580195,
                0.02162175886462113,
                0.006560529518164046,
                -0.08529827393975356,
                -0.048863377875473187,
                -0.0708345915783178,
                -0.05950244578799695,
                0.03427836321359051,
                0.026430511901658457,
                -0.04633611219418841,
                0.04189443368275316,
                -0.01299679246024715,
                -0.0022351889192837914,
                0.0036135103421453406,
                -0.021671472257887375,
                0.0006457316660257137,
                0.040706362564667746,
                -0.013867750156533486,
                -0.025190475893716667,
                0.07951748783268758,
                0.04214729131308399,
                -0.07139128558696152,
                -0.09431638693200803,
                0.05066037846998939,
                -0.027166589957327684,
                -0.015958499965778552,
                -0.051191588672498047,
                0.025438448528625722,
                0.04371475329312938,
                0.04855243039391187,
                0.0049442860687781785,
                -0.047061455886153014,
                -0.039443805312920625,
                -0.03405201657142131,
                -0.04385297343573549,
                -0.045443987997229464,
                0.04451933171672264,
                0.014009372950449251,
                -0.08113129755022946,
                -0.06584325267517421,
                -0.04151526794069089,
                -0.06742733747007003,
                0.08479499418989911,
                -0.05310870756905147,
                0.047714340848223624,
                0.05800237367680922,
                -0.0030766615736772325,
                -0.01348763304544631,
                -0.02538978984143092,
                -0.008686797738299407,
                0.055752247298399685,
                -0.002696860779893991,
                -0.02084000002135871,
                -0.044733329391968696,
                -0.05894679001592316,
                0.0381171201915471,
                0.08103680260712894,
                0.07416085544772279,
                -0.06294742412739861,
                0.01565943108444961,
                -0.0005046994467622681,
                0.07156539955292587,
                0.010169556641047649,
                0.005463149230226168,
                -0.08942323392981882,
                0.026628329563209062,
                0.02164567807948805,
                0.022554461729565697,
                -0.004677520688897616,
                0.05394767896581661,
                0.04501923313653888,
                -0.05086437195449711,
                -0.014296413660532307,
                0.031362862045927094,
                0.02647909471697256,
                0.0549191684618926,
                -0.011186799013785758,
                -0.07030097872164906,
                0.04531459054031714,
                0.0503507479726394,
                0.002357147113528813,
                0.07245010646638665,
                -0.006839814011634006,
                -0.060545060330973524,
                0.013070043943855521,
                -0.008161229897272528,
                -0.09093774470363487,
                0.029866984487769865,
                -0.04672174842118124,
                0.05186905019432689,
                -0.06184887224988462,
                0.04724333348954932,
                -0.10343152704882902,
                -0.016791978862576402,
                -0.04179817221515074,
                -0.009548697877610863,
                -0.043290014146360176,
                -0.058090311132738284,
                -0.07304515771347889,
                0.05500983456991814,
                0.013453621800839201,
                -0.058968429601747405,
                -0.017622560726916977,
                -0.0764117915448012,
                0.06477069745845696,
                -0.00937842511340612,
                0.03217069235142617,
                0.038376793857252935,
                0.012131480807646127,
                0.0703652307198422,
                0.022572964743177402,
                -0.07896979453148874,
                -0.014781923384039157,
                0.0226368336250267,
                0.052773113931574016,
                0.02833113897126863,
                -0.0007454098733751933,
                0.07630882046627781,
                -0.045488347568974796,
                -0.08142936345539868,
                0.07318536072867018,
                0.07625777287104786,
                0.007660738499105251,
                -0.010183766751245613,
                0.0701485803596786,
                0.04997088444441006,
                0.049339665148760904,
                0.021178643210466766,
                0.0587770956619405,
                0.04703646533908374,
                -0.06147199871365648,
                -0.03392453476749335,
                0.029110579294793305,
                0.033653190993558,
                0.034541695234501985,
                -0.05500090768605517,
                0.03409472916591132,
                -0.06200767123123117,
                -0.0632517752916297,
                -0.04865900296917114,
                -0.022869803461589032,
                -0.03798123842216929,
                -0.05253991986678351,
                0.037101049318425915,
                0.07795460123403364,
                0.09887841571657949,
                -0.03201204512421551,
                0.021653626352320876,
                0.052544472445728754,
                0.06907323166279815,
                -0.006352670632632051,
                -0.03756803225900148,
                0.07249055294086375,
                -0.018256092512565915,
                -0.05029010690289571,
                -0.060761285660515495,
                0.005704983309292844,
                -0.04210477417402146,
                -0.1100841206448209,
                -0.012826155589433128,
                0.010243936762888567,
                0.007721812178131633,
                0.07924550752659044,
                0.0859341695285859,
                -0.033045950377301986,
                -0.043789017129069394,
                0.054957356523635134,
                0.014821345646314018,
                0.06856956744245729,
                -0.0980352663432581,
                -0.05093448175708794,
                0.041617006225691276,
                -0.05834245424199193,
                0.024867796651844833,
                0.009502933312594167,
                -0.031069309196176793,
                -0.011309958972472993,
                0.030702803160015075,
                -0.056467181671077414,
                0.03454188380190228,
                -0.063553857818529,
                -0.06446427420668026,
                0.03815297598474499,
                -0.041404203221951305,
                -0.049239878277702494,
                -0.0340353038172199,
                0.030528985394584054,
                0.07290310013165992,
                -0.01955412308247584,
                0.0832908154286606,
                -0.07335562205367178,
                -0.07130443166169952,
                -0.06271332828850953,
                -0.09419603070287398,
                -0.08324377642248547,
                0.037829724259765565,
                -0.07454866545456093,
                0.0586444488504328,
                -0.00672867113081341,
                -0.0061452083963642115,
                0.0631094353624283,
                -0.004807649177653078,
                0.007924926825606873,
                -0.07118234070240886,
                0.03952760758247375,
                0.04414432536971867,
                -0.010710338679902912,
                -0.10115288342777827,
                -0.007398820395953118,
                0.012190226160445978,
                9.507585754865221e-05,
                -0.02248891998199437,
                0.024005011161218864,
                -0.0465932106772412,
                -0.0502655931476229
            ],
            [
                -0.002468393133870442,
                0.03227365048128655,
                0.04424841020174936,
                0.03531405646869669,
                -0.008537473180602006,
                0.01369458699574216,
                -0.018186901772290043,
                0.026501753695194835,
                0.03551076381890969,
                0.10635219042183097,
                0.046280475767142365,
                0.01956497575466645,
                0.056147895816913,
                0.003314129953395509,
                -0.03937113798382119,
                0.06487402274583288,
                0.0012323276371867184,
                -0.011851130275385318,
                0.02625690022641279,
                -0.017601425192027845,
                0.05261512273367704,
                -0.025801752626790495,
                -0.09776708093052645,
                0.03676130562837251,
                -0.054414407356057265,
                -0.07045215075297738,
                -0.05923820209788212,
                0.006682336834519169,
                -0.007421948557864965,
                -0.07598682681773701,
                0.07354292978879508,
                0.04187172219479191,
                0.03967171957918774,
                -0.006799825745776209,
                -0.0058435057067688315,
                -0.04241550807513143,
                -0.07827774501102655,
                0.06722700260101146,
                0.046888030872349995,
                0.061235707522507274,
                0.058285535562453285,
                0.07639783427356074,
                0.013374870110968315,
                -0.07466219729795735,
                -0.0836337604809185,
                -0.035932582163193845,
                0.023893079438008193,
                -0.060417264077579164,
                0.04462617884104268,
                0.042367031139332025,
                0.0083335008406201,
                0.009012120972238757,
                0.02821268444675879,
                -0.03754987345902013,
                0.036137900031764675,
                0.029054675330964428,
                0.022083065309354916,
                0.02732066985444259,
                -0.038420279627293615,
                -0.08153724125567058,
                0.04146410233346132,
                -0.03736810440780439,
                0.014380783317535027,
                -0.09537623773717135,
                -0.04983999727157632,
                -0.0060856391306754395,
                -0.05725858637619591,
                0.04479425897079424,
                -0.053341624703528184,
                -0.10250768191943077,
                -0.0677791832703809,
                -0.049007052206677164,
                0.0444702337501907,
                -0.01653879262049802,
                0.03702149361297403,
                -0.019143095427346893,
                0.04771238927903931,
                -0.010217026578922086,
                -0.029098838531414123,
                0.08193929075672964,
                0.030535019033496532,
                0.07148756194515354,
                0.06651451298911897,
                0.008218507124350545,
                -0.027115642939087033,
                0.03554827981447655,
                -0.04343173711811106,
                0.09767561247690987,
                -0.0007814593886046881,
                0.0009292703843919633,
                -0.027275235184481494,
                0.049621880339135296,
                0.05173021362821046,
                0.07394770877717588,
                0.05579739117383156,
                0.0587802434139569,
                -0.028963434836623163,
                0.04232999627757155,
                0.0028421273783080505,
                0.03939000779354599,
                0.040133796998529106,
                0.09355035456062379,
                0.01440367534486613,
                0.043823482648408435,
                0.05820191751822549,
                -0.02528316579712131,
                -0.06602950459402031,
                0.05830802014263725,
                0.04670301298158025,
                -0.07424580188143695,
                0.05006418712628354,
                0.025176407515391817,
                -0.038264824208978455,
                0.028569841420006733,
                -0.08928740147629595,
                -0.06204033685466941,
                0.0442327422033862,
                0.038815959505515106,
                -0.06954241793420218,
                0.004977790936854361,
                0.04068662865874497,
                0.06773606309406674,
                -0.03945582135726535,
                -0.024218495468372826,
                -0.06109145358537024,
                0.008729669043725928,
                -0.052556797450747185,
                -0.021360315963396447,
                0.014832254512006782,
                0.08856486190620995,
                0.026117407940662404,
                0.03836967875311221,
                0.07248275286878697,
                -0.02188625846755107,
                0.03838850766135291,
                0.00968998511828289,
                -0.01446792043340706,
                0.0505451241882974,
                -0.09002850981828632,
                -0.08563922478444315,
                0.02291553243950065,
                0.03518340556070038,
                0.0076558654435420394,
                0.02330884750102574,
                0.014128805374541292,
                -0.04199828999097388,
                0.06287535766617473,
                0.05462726550913386,
                0.06908898558392869,
                -0.02309941086857254,
                -0.05864196910787574,
                0.02176221090134494,
                -0.0739248360470909,
                -0.018253038791140378,
                0.013390668852809885,
                -0.01824131861455608,
                0.09834794393301866,
                -0.04744853537015503,
                0.02129287240330924,
                -0.006585018887226535,
                -0.006296840931819652,
                0.029856848009623273,
                -0.07569397352441998,
                0.06439672216378933,
                0.04181073440175724,
                0.05544847069576618,
                0.061729920124051305,
                -0.07976315990061213,
                0.016862653019181443,
                0.01588432569837411,
                -0.029254284064575937,
                -0.09175322552831733,
                -0.05159717976490129,
                -0.054940889233591646,
                0.003153242322254074,
                0.0014834706344334608,
                -0.03585627760164494,
                -0.09404449323499593,
                0.04098255205317621,
                0.01730308089227609,
                0.04745004839801161,
                -0.02699392007647373,
                0.0001503167458244321,
                0.06751629542799824,
                0.0612489569270389,
                -0.06756130957311307,
                0.0608195952575583,
                -0.08015138768817977,
                -0.02849739241271029,
                -0.07645340197143309,
                -0.016546325229947898,
                -0.050794372456608956,
                0.13062718897960549,
                -0.05010294251854098,
                0.012210261108054262,
                0.01001878789568898,
                -0.05354611715260035,
                -0.005774689111586986,
                -0.09383525609739907,
                0.07661686977307769,
                -0.036707826904382554,
                0.015075891052594497,
                -0.07045213458480147,
                0.001389694381183523,
                -0.04691323676356569,
                -0.06912056509211958,
                -0.01603593613199999,
                0.04467044783680652,
                0.010528997611059188,
                0.08470257688225158,
                -0.06457654873174229,
                0.05816181974281083,
                0.02668277010346967,
                -0.08563949938097995,
                -0.016800900553134632,
                -0.057106923063166656,
                0.022706253521096,
                -0.0492852574352168,
                0.03252081881064995,
                -0.07015903304902826,
                -0.052387728086987426,
                -0.030560867991417676,
                0.004072189271866238,
                -0.03722379742708209,
                -0.00190826405792299,
                0.014046860237320052,
                0.1012100933507232,
                -0.042852299891247767,
                0.10726917752267044,
                -0.013579354180863118,
                -0.008013804996753202,
                -0.06092889396112103,
                -0.04038929537653634,
                0.030584804593582454,
                -0.041224149580830614,
                0.07691983658221618,
                -0.01172964320649074,
                -0.041513071136941436,
                -0.03145430394747281,
                0.06599456300344052,
                -0.06574729742268316,
                -0.033246748668687716,
                -0.0582805270967785,
                -0.07075838941589069,
                0.10902754861253136,
                0.00037852296433593576,
                -0.1519961399920809,
                0.02970163485504489,
                0.03769035128832615,
                0.0047533846787495525,
                0.019225723540840352,
                0.029723510854071686,
                -0.011663955442396146,
                -0.04085140995184323,
                -0.06643730917780007,
                -0.08725390987718834,
                -0.006285682935096955,
                -0.012548663437803313,
                -0.0965506489850996,
                -0.013405471249621943,
                -0.07441348145057622,
                -0.0870434927469481,
                -0.06648379845707364,
                -0.06890039977420137,
                0.01674150365265295,
                0.030895129517739022,
                -0.03187571398145952,
                -0.054862778005952156,
                0.06305441594843132,
                0.018746945640379164,
                0.0729152998667123,
                -0.07229499005456183,
                0.012686727575265705,
                -0.06477015575237634,
                -0.07167255031458344,
                -0.010903341375747052,
                -0.00047976500294512174,
                0.06747468551790212,
                0.035550603291184445,
                0.04944797849515668,
                0.03784595872773639,
                0.011089339790853317,
                0.010702576199378302,
                0.03730278434649244,
                -0.020123135078649185,
                -0.04170723192162003,
                0.00795543454461963,
                -0.1002497622709033,
                -0.07148660865959762,
                0.08616153442873335,
                -0.04930796655388049,
                0.08129501262610644,
                -0.010579272296281701,
                0.04316633067189582,
                0.06517819753561373,
                0.05497656775680819,
                0.050706649963467756,
                0.06580566760292997,
                -0.006967479798701214,
                -0.03233048646314455,
                -0.050905087683427934,
                -0.03909669925061885,
                0.0738933543543111,
                0.039955616808008174,
                -0.017388913820920497,
                0.05886654822619408,
                -0.004174969530623137,
                -0.024861513061084865,
                -0.01512248890419999,
                -0.04170964125847434,
                0.0624986286400186,
                -0.07110938048373118,
                -0.043470112401553386,
                0.016937129175251107,
                0.012540228076717437,
                0.06740658248120769,
                0.005813733582807282,
                0.09048625681329973,
                0.019430542202561185,
                -0.00361046530002111,
                0.025539134106319604,
